svm_type c_svc
kernel_type rbf
gamma 0.5
nr_class 2
total_sv 158
rho 0.109162
label 1 2
probA -0.816718
probB -0.0470682
nr_sv 78 80
SV
4 1:0.07335 2:0.093503 3:0.047968 4:0.343177 5:0.416677 6:0.278158 7:0.75332 8:0.732973 9:0.791363 10:0.040332 11:0.033075 12:0.046781 13:0.046797 14:0.039166 15:0.052003 16:0.052632 17:0.090909 18:0.047619 
4 1:0.394292 2:0.402964 3:0.266319 4:0.695938 5:0.775992 6:0.570782 7:0.569723 8:0.544204 9:0.689019 10:0.008289 11:0.006853 12:0.016183 13:0.007982 14:0.007244 15:0.016346 16:0.052632 17:0.090909 18:0.047619 
4 1:0.919646 2:0.804635 3:0.895832 4:0.979514 5:0.79618 6:0.967695 7:0.692801 8:0.516846 9:0.62267 10:0.002757 11:0.002827 12:0.002519 13:0.010656 14:0.00414 15:0.006493 16:1 17:0.454545 18:0.238095 
4 1:0.274189 2:0.215284 3:0.248091 4:0.601623 5:0.589895 6:0.466923 7:0.766158 8:0.732973 9:0.835503 10:0.017994 11:0.011186 12:0.020312 13:0.020418 14:0.016308 15:0.022502 16:0.052632 17:0.181818 18:0.047619 
4 1:0.197894 2:0.231898 3:0.159118 4:0.675935 5:0.678312 6:0.660165 7:0.795275 8:0.818762 9:0.85116 10:0.03424 11:0.033704 12:0.03365 13:0.032601 14:0.030538 15:0.031001 16:0.157895 17:0.272727 18:0.142857 
4 1:0.438528 2:0.596479 3:0.492953 4:0.801197 5:0.90328 6:0.78458 7:0.525338 8:0.487534 9:0.504087 10:0.007987 11:0.00397 12:0.006422 13:0.010342 14:0.006475 15:0.008826 16:0.105263 17:0.272727 18:0.095238 
3.196914306214253 1:0.40159 2:0.560965 3:0.503408 4:0.589919 5:0.790123 6:0.700991 7:0.690113 8:0.565925 9:0.662008 10:0.005505 11:0.004521 12:0.00504 13:0.013421 14:0.006911 15:0.009612 16:0.263158 17:0.636364 18:0.238095 
4 1:0.475953 2:0.516019 3:0.529561 4:0.848746 5:0.827648 6:0.83751 7:0.6395 8:0.688937 9:0.739149 10:0.007838 11:0.00728 12:0.007946 13:0.014615 14:0.013276 15:0.014096 16:0.157895 17:0.363636 18:0.142857 
4 1:0.45918 2:0.619408 3:0.648139 4:0.743267 5:0.795362 6:0.792991 7:0.522331 8:0.46166 9:0.547438 10:0.002568 11:0.002174 12:0.001484 13:0.006713 14:0.005037 15:0.004396 16:0.157895 17:0.363636 18:0.190476 
4 1:0.602483 2:0.640085 3:0.610172 4:0.752174 5:0.881483 6:0.773874 7:0.493465 8:0.583536 9:0.608473 10:0.002605 11:0.002191 12:0.002658 13:0.006361 14:0.006868 15:0.006008 16:0.315789 17:0.818182 18:0.285714 
4 1:0.242901 2:0.36906 3:0.340453 4:0.593712 5:0.791145 6:0.700615 7:0.788993 8:0.824967 9:0.858912 10:0.036753 11:0.024118 12:0.027963 13:0.05014 14:0.035174 15:0.039118 16:0.052632 17:0.090909 18:0.047619 
4 1:0.483767 2:0.527545 3:0.521234 4:0.796064 5:0.782494 6:0.734352 7:0.757183 8:0.687787 9:0.71761 10:0.01748 11:0.011289 12:0.013439 13:0.019549 14:0.012755 15:0.015188 16:0.105263 17:0.181818 18:0.095238 
4 1:0.251387 2:0.533835 3:0.494621 4:0.275252 5:0.583721 6:0.541228 7:0.695483 8:0.588523 9:0.647119 10:0.023578 11:0.004733 12:0.005576 13:0.033095 14:0.011654 15:0.012112 16:0.105263 17:0.363636 18:0.190476 
4 1:0.515231 2:0.440003 3:0.445886 4:0.803796 5:0.744062 6:0.776122 7:0.708826 8:0.668082 9:0.681203 10:0.007419 11:0.005714 12:0.007427 13:0.014298 14:0.011337 15:0.012789 16:0.105263 17:0.181818 18:0.047619 
4 1:0.122086 2:0.067916 3:0.006863 4:0.354439 5:0.378367 6:0.353779 7:0.838523 8:0.832167 9:0.908118 10:0.058378 11:0.056636 12:0.094707 13:0.045452 14:0.051397 15:0.097305 16:0.052632 17:0.090909 18:0.047619 
4 1:0.176099 2:0.293989 3:0.249677 4:0.284104 5:0.325718 6:0.425179 7:0.733853 8:0.666913 9:0.744474 10:0.031179 11:0.023828 12:0.020364 13:0.03725 14:0.030655 15:0.028141 16:0.105263 17:0.181818 18:0.095238 
4 1:0.564606 2:0.689065 3:0.638455 4:0.790024 5:0.836228 6:0.77459 7:0.479595 8:0.631337 9:0.589277 10:0.00218 11:0.002541 12:0.002196 13:0.006767 14:0.007976 15:0.007482 16:0.263158 17:0.454545 18:0.238095 
2.153519791014518 1:0.611358 2:0.594489 3:0.582096 4:0.81342 5:0.868595 6:0.820763 7:0.662968 8:0.720707 9:0.723031 10:0.005646 11:0.007965 12:0.007482 13:0.013808 14:0.014218 15:0.013811 16:0.210526 17:0.272727 18:0.142857 
4 1:0.508958 2:0.598607 3:0.66642 4:0.62253 5:0.78286 6:0.895534 7:0.60573 8:0.642116 9:0.705597 10:0.002571 11:0.003004 12:0.002969 13:0.009244 14:0.008883 15:0.010657 16:0.421053 17:0.636364 18:0.380952 
4 1:0.326853 2:0.296299 3:0.190405 4:0.746469 5:0.733916 6:0.622119 7:0.710153 8:0.716217 9:0.787268 10:0.009646 11:0.013795 12:0.020781 13:0.013425 14:0.017257 15:0.024656 16:0.052632 17:0.090909 18:0.047619 
4 1:0.063179 2:0.076973 3:0.058708 4:0.575603 5:0.580253 6:0.559131 7:0.960113 8:0.927937 9:0.931074 10:0.061014 11:0.058603 12:0.05966 13:0.118572 14:0.117384 15:0.11693 16:0.157895 17:0.272727 18:0.142857 
4 1:0.57386 2:0.695853 3:0.661889 4:0.510681 5:0.62585 6:0.550318 7:0.710153 8:0.699236 9:0.756106 10:0.004659 11:0.005507 12:0.006275 13:0.012177 14:0.01288 15:0.014945 16:0.263158 17:0.363636 18:0.142857 
4 1:0.47304 2:0.589315 3:0.691185 4:0.857359 5:0.915221 6:0.94084 7:0.434006 8:0.468521 9:0.561135 10:0.00163 11:0.001482 12:0.001745 13:0.004501 14:0.004269 15:0.004933 16:0.210526 17:0.454545 18:0.238095 
3.303158531357131 1:0.156818 2:0.162773 3:0.190363 4:0.529153 5:0.541525 6:0.567644 7:0.859087 8:0.865571 9:0.887546 10:0.015507 11:0.016227 12:0.017677 13:0.044175 14:0.042369 15:0.043631 16:0.263158 17:0.454545 18:0.238095 
4 1:0.555365 2:0.632888 3:0.608462 4:0.7729 5:0.792021 6:0.853056 7:0.49806 8:0.523414 9:0.522127 10:0.00263 11:0.002337 12:0.002217 13:0.006036 14:0.005441 15:0.004974 16:0.210526 17:0.363636 18:0.142857 
4 1:0.362651 2:0.442129 3:0.453431 4:0.678614 5:0.792707 6:0.720937 7:0.568264 8:0.536448 9:0.608473 10:0.00312 11:0.002325 12:0.002815 13:0.007675 14:0.005569 15:0.007023 16:0.210526 17:0.545455 18:0.285714 
4 1:0.485956 2:0.669818 3:0.720938 4:0.801783 5:0.859113 6:0.882903 7:0.555074 8:0.559575 9:0.602507 10:0.003369 11:0.00167 12:0.002443 13:0.007321 14:0.005741 15:0.006225 16:0.263158 17:0.818182 18:0.380952 
4 1:0.301962 2:0.382211 3:0.367318 4:0.763491 5:0.819241 6:0.672376 7:0.54028 8:0.581035 9:0.588067 10:0.00635 11:0.004767 12:0.005361 13:0.01019 14:0.007423 15:0.008254 16:0.105263 17:0.181818 18:0.095238 
4 1:0.316409 2:0.443128 3:0.533298 4:0.661058 5:0.486036 6:0.808033 7:0.699499 8:0.708321 9:0.656303 10:0.010644 11:0.0139 12:0.005303 13:0.01942 14:0.023718 15:0.011261 16:0.157895 17:0.181818 18:0.238095 
4 1:0.433784 2:0.464506 3:0.494835 4:0.736325 5:0.792668 6:0.717874 7:0.558015 8:0.512889 9:0.619137 10:0.002672 11:0.003021 12:0.00288 13:0.006166 14:0.006118 15:0.005176 16:0.315789 17:0.454545 18:0.285714 
4 1:0.266593 2:0.276968 3:0.270233 4:0.545136 5:0.585507 6:0.532807 7:0.886465 8:0.835241 9:0.90997 10:0.056785 11:0.047398 12:0.056719 13:0.053404 14:0.047811 15:0.053448 16:0.052632 17:0.090909 18:0.047619 
4 1:0.228621 2:0.261793 3:0.228309 4:0.700143 5:0.736201 6:0.691285 7:0.825065 8:0.773376 9:0.807602 10:0.024917 11:0.019098 12:0.021504 13:0.028684 14:0.024787 15:0.025145 16:0.105263 17:0.181818 18:0.095238 
4 1:0.294701 2:0.288238 3:0.305485 4:0.610535 5:0.663743 6:0.617303 7:0.71148 8:0.734082 9:0.752945 10:0.009409 11:0.009829 12:0.008834 13:0.015472 14:0.015816 15:0.014918 16:0.263158 17:0.454545 18:0.238095 
4 1:0.349678 2:0.36046 3:0.399093 4:0.791895 5:0.801967 6:0.697649 7:0.715453 8:0.702651 9:0.735943 10:0.005832 11:0.006122 12:0.006299 13:0.015581 14:0.015449 15:0.014856 16:0.157895 17:0.272727 18:0.142857 
4 1:0.242254 2:0.283254 3:0.231847 4:0.536748 5:0.604579 6:0.583616 7:0.62271 8:0.588523 9:0.686791 10:0.008541 11:0.006451 12:0.007726 13:0.012289 14:0.008871 15:0.010183 16:0.052632 17:0.090909 18:0.047619 
4 1:0.255118 2:0.303394 3:0.242428 4:0.685059 5:0.753563 6:0.703674 7:0.690113 8:0.748413 9:0.789317 10:0.02448 11:0.020257 12:0.022057 13:0.027144 14:0.023335 15:0.023644 16:0.052632 17:0.090909 18:0.047619 
1.631554617292142 1:1 2:1 3:1 4:0.942695 5:0.965461 6:0.989052 7:0.675244 8:0.636139 9:0.735943 10:0.001969 11:0.002597 12:0.002568 13:0.010982 14:0.010349 15:0.015657 16:0.578947 17:1 18:1 
4 1:0.545909 2:0.56255 3:0.544074 4:0.849181 5:0.858739 6:0.749605 7:0.662968 8:0.630134 9:0.589277 10:0.006793 11:0.006873 12:0.006762 13:0.008246 14:0.007666 15:0.007465 16:0.157895 17:0.272727 18:0.142857 
4 1:0.27527 2:0.291511 3:0.309742 4:0.694239 5:0.772322 6:0.715819 7:0.572636 8:0.512889 9:0.558656 10:0.008472 11:0.006049 12:0.006523 13:0.008344 14:0.006105 15:0.006736 16:0.052632 17:0.090909 18:0.047619 
4 1:0.19971 2:0.172238 3:0.230031 4:0.621102 5:0.694655 6:0.618405 7:0.840957 8:0.806259 9:0.843357 10:0.05422 11:0.042051 12:0.049247 13:0.046018 14:0.037248 15:0.041925 16:0.052632 17:0.090909 18:0.047619 
4 1:0.46653 2:0.535145 3:0.401176 4:0.601963 5:0.752142 6:0.237443 7:0.482689 8:0.553193 9:0.632043 10:0.000979 11:0.001293 12:0.008688 13:0.005548 14:0.005697 15:0.019663 16:0.473684 17:0.818182 18:0.095238 
4 1:0.601796 2:0.472578 3:0.444128 4:0.65695 5:0.730757 6:0.662182 7:0.643668 8:0.520791 9:0.5929 10:0.007604 11:0.007282 12:0.00832 13:0.009495 14:0.006884 15:0.007945 16:0.105263 17:0.090909 18:0.047619 
4 1:0.329619 2:0.36752 3:0.488259 4:0.827007 5:0.893599 6:0.833106 7:0.558015 8:0.576018 9:0.629707 10:0.004963 11:0.004117 12:0.004648 13:0.008891 14:0.007926 15:0.007559 16:0.157895 17:0.272727 18:0.142857 
4 1:0.391841 2:0.550576 3:0.493631 4:0.878969 5:0.850367 6:0.83627 7:0.706167 8:0.683178 9:0.660869 10:0.005566 11:0.005379 12:0.005033 13:0.013186 14:0.013579 15:0.011674 16:0.210526 17:0.272727 18:0.238095 
2.033246880642969 1:0.278912 2:0.407352 3:0.460509 4:0.583858 5:0.642235 6:0.600132 7:0.749447 8:0.659878 9:0.696784 10:0.008553 11:0.008677 12:0.00803 13:0.015933 14:0.012407 15:0.011667 16:0.315789 17:0.727273 18:0.380952 
4 1:0.32002 2:0.413973 3:0.309444 4:0.772356 5:0.836744 6:0.716976 7:0.541766 8:0.587278 9:0.656303 10:0.004985 11:0.005346 12:0.005562 13:0.007789 14:0.008067 15:0.008598 16:0.157895 17:0.272727 18:0.142857 
4 1:0.067749 2:0.075895 3:0.048149 4:0 5:0 6:0 7:0.520826 8:0.632539 9:0.715435 10:0.0842 11:0.079928 12:0.095324 13:0.087029 14:0.0863 15:0.096151 16:0.052632 17:0.090909 18:0.047619 
1.356069294978467 1:0.244414 2:0.269489 3:0.335132 4:0.622494 5:0.732192 6:0.701584 7:0.786473 8:0.78727 9:0.751889 10:0.014428 11:0.01259 12:0.011738 13:0.023614 14:0.022071 15:0.020641 16:0.157895 17:0.363636 18:0.190476 
3.932096252892691 1:0.316257 2:0.313966 3:0.284843 4:0.515202 5:0.62621 6:0.640695 7:0.851861 8:0.828058 9:0.856011 10:0.025828 11:0.022685 12:0.023516 13:0.039276 14:0.035062 15:0.036924 16:0.157895 17:0.272727 18:0.142857 
4 1:0.220052 2:0.210457 3:0.183605 4:0.593926 5:0.580618 6:0.532053 7:0.874623 8:0.87948 9:0.821634 10:0.036195 11:0.035706 12:0.034576 13:0.04522 14:0.044027 15:0.042658 16:0.052632 17:0.090909 18:0.047619 
3.217049492026974 1:0.228924 2:0.362355 3:0.331621 4:0.735906 5:0.804609 6:0.775838 7:0.812724 8:0.790455 9:0.854073 10:0.041514 11:0.032193 12:0.030777 13:0.037394 14:0.031111 15:0.0296 16:0.052632 17:0.090909 18:0.047619 
4 1:0.407103 2:0.296213 3:0.316896 4:0.880356 5:0.752268 6:0.750683 7:0.6395 8:0.665743 9:0.668818 10:0.006854 11:0.007026 12:0.006939 13:0.010556 14:0.009585 15:0.008789 16:0.368421 17:0.636364 18:0.333333 
4 1:0.556899 2:0.610154 3:0.64059 4:0.796214 5:0.884046 6:0.846951 7:0.679314 8:0.698096 9:0.645966 10:0.006558 11:0.004846 12:0.003344 13:0.016211 14:0.013063 15:0.01006 16:0.157895 17:0.272727 18:0.190476 
4 1:0.207565 2:0.248483 3:0.246332 4:0.420068 5:0.439742 6:0.365896 7:0.951103 8:0.908777 9:0.959832 10:0.07266 11:0.071345 12:0.076993 13:0.1289 14:0.127258 15:0.131173 16:0.105263 17:0.181818 18:0.047619 
4 1:0.623831 2:0.558238 3:0.673233 4:0.795581 5:0.752499 6:0.825029 7:0.576994 8:0.602136 9:0.664282 10:0.001009 11:0.001198 12:0.001287 13:0.007212 14:0.006746 15:0.007041 16:0.421053 17:0.727273 18:0.380952 
4 1:0.644539 2:0.669555 3:0.724706 4:0.913514 5:0.966477 6:0.896447 7:0.523835 8:0.582286 9:0.546185 10:0.000964 11:0.001431 12:0.000722 13:0.005583 14:0.006348 15:0.004833 16:0.368421 17:0.636364 18:0.380952 
4 1:0.334983 2:0.415557 3:0.328627 4:0.704206 5:0.704694 6:0.665986 7:0.77635 8:0.726297 9:0.838454 10:0.016134 11:0.009561 12:0.020514 13:0.021482 14:0.014709 15:0.025602 16:0.105263 17:0.181818 18:0.095238 
4 1:0.14134 2:0.200507 3:0.189771 4:0.591993 5:0.678112 6:0.576359 7:0.810244 8:0.814608 9:0.852132 10:0.039601 11:0.026539 12:0.037407 13:0.050255 14:0.033244 15:0.040687 16:0.052632 17:0.090909 18:0.047619 
4 1:0.535276 2:0.681551 3:0.78116 4:0.888696 5:0.934944 6:0.876765 7:0.559484 8:0.524724 9:0.65172 10:0.004318 11:0.003418 12:0.003114 13:0.008414 14:0.007333 15:0.007103 16:0.105263 17:0.363636 18:0.190476 
4 1:0.378734 2:0.577003 3:0.44373 4:0.267336 5:0.549757 6:0.140724 7:0.654727 8:0.403949 9:0.60609 10:0.023003 11:0.003355 12:0.018322 13:0.032453 14:0.006161 15:0.030751 16:0.052632 17:0.181818 18:0.047619 
4 1:0.303525 2:0.248318 3:0.291337 4:0.569483 5:0.569134 6:0.632578 7:0.523835 8:0.541624 9:0.612038 10:0.003038 11:0.0033 12:0.002916 13:0.007596 14:0.006964 15:0.007052 16:0.105263 17:0.181818 18:0.095238 
4 1:0.185808 2:0.246365 3:0.19562 4:0.676463 5:0.665808 6:0.563773 7:0.818908 8:0.801013 9:0.806594 10:0.033019 11:0.024306 12:0.028754 13:0.0494 14:0.035344 15:0.040794 16:0.052632 17:0.090909 18:0.047619 
4 1:0.355395 2:0.426993 3:0.335988 4:0.612569 5:0.734964 6:0.656623 7:0.805271 8:0.725181 9:0.818641 10:0.030182 11:0.016826 12:0.024383 13:0.032085 14:0.01991 15:0.028799 16:0.052632 17:0.090909 18:0.047619 
4 1:0.474387 2:0.631382 3:0.534412 4:0.815514 5:0.846722 6:0.819263 7:0.672525 8:0.595966 9:0.692353 10:0.005589 11:0.004137 12:0.0081 13:0.011717 14:0.008111 15:0.011301 16:0.157895 17:0.454545 18:0.142857 
4 1:0.51438 2:0.563391 3:0.527845 4:0.848702 5:0.890751 6:0.819239 7:0.508727 8:0.545492 9:0.620316 10:0.00402 11:0.003659 12:0.004341 13:0.006205 14:0.00589 15:0.006734 16:0.105263 17:0.181818 18:0.095238 
4 1:0.542626 2:0.466009 3:0.697509 4:0.712151 5:0.737696 6:0.806475 7:0.731238 8:0.709452 9:0.591694 10:0.007736 11:0.013071 12:0.005549 13:0.012193 14:0.017685 15:0.007564 16:0.105263 17:0.090909 18:0.142857 
4 1:0.563129 2:0.57281 3:0.59692 4:0.776484 5:0.78981 6:0.718618 7:0.351986 8:0.32827 9:0.423541 10:0.000265 11:0.000633 12:0.001894 13:0.002169 14:0.00222 15:0.003198 16:0.157895 17:0.363636 18:0.142857 
4 1:0.627641 2:0.641514 3:0.759045 4:0.909014 5:0.889718 6:0.871937 7:0.219852 8:0.412561 9:0.441457 10:0.000163 11:0.000958 12:0.000604 13:0.001698 14:0.002995 15:0.002481 16:0.315789 17:0.727273 18:0.47619 
4 1:0.638893 2:0.767745 3:0.820812 4:0.793091 5:0.897131 6:0.864496 7:0.404995 8:0.344981 9:0.491032 10:0.001503 11:0.000509 12:0.001093 13:0.003996 14:0.002521 15:0.003574 16:0.210526 17:0.636364 18:0.238095 
4 1:0.730148 2:0.729215 3:0.787933 4:0.957527 5:0.934331 6:0.732924 7:0.391918 8:0.412561 9:0.491032 10:0.000198 11:0.000536 12:0.000676 13:0.002555 14:0.002485 15:0.002997 16:0.473684 17:0.818182 18:0.428571 
4 1:0.257207 2:0.171855 3:0.282662 4:0.706101 5:0.631331 6:0.57883 7:0.882922 8:0.838307 9:0.916433 10:0.033228 11:0.03363 12:0.030293 13:0.039114 14:0.037088 15:0.047041 16:0.052632 17:0.090909 18:0.047619 
2.022524442916836 1:0.519253 2:0.508029 3:0.445261 4:0.927349 5:0.96447 6:0.800929 7:0.558015 8:0.557026 9:0.677838 10:0.0003 11:0.001224 12:0.003142 13:0.005168 14:0.005424 15:0.010961 16:0.421053 17:0.727273 18:0.333333 
4 1:0.259321 2:0.298709 3:0.245495 4:0.695394 5:0.774947 6:0.653554 7:0.562416 8:0.567191 9:0.619137 10:0.005896 11:0.006897 12:0.006757 13:0.008189 14:0.007622 15:0.008899 16:0.052632 17:0.090909 18:0.047619 
4 1:0.452108 2:0.363828 3:0.432925 4:0.720813 5:0.74607 6:0.778109 7:0.525338 8:0.573503 9:0.551189 10:0.002007 11:0.002359 12:0.001573 13:0.005387 14:0.005069 15:0.004316 16:0.368421 17:0.636364 18:0.285714 
4 1:0.578397 2:0.605415 3:0.676613 4:0.899979 5:0.920293 6:0.962436 7:0.579893 8:0.550632 9:0.598914 10:0.002722 11:0.001512 12:0.002087 13:0.008248 14:0.005837 15:0.006622 16:0.263158 17:0.909091 18:0.238095 
4 1:0.640826 2:0.726067 3:0.752616 4:0.848319 5:0.971539 6:0.827828 7:0.266992 8:0.398175 9:0.392598 10:0.000487 11:0.001944 12:0.000709 13:0.001934 14:0.003146 15:0.001977 16:0.263158 17:0.272727 18:0.238095 
4 1:0.37349 2:0.686979 3:0.596966 4:0.646733 5:0.81229 6:0.704006 7:0.582786 8:0.484836 9:0.572226 10:0.009742 11:0.004948 12:0.006036 13:0.012362 14:0.006772 15:0.008473 16:0.052632 17:0.090909 18:0.047619 
4 1:0.396058 2:0.379192 3:0.298862 4:0.716302 5:0.701496 6:0.726349 7:0.550651 8:0.565925 9:0.615593 10:0.005119 11:0.005144 12:0.005106 13:0.006917 14:0.007188 15:0.008057 16:0.473684 17:0.727273 18:0.333333 
-4 1:0.192621 2:0.223888 3:0.298101 4:0.590501 5:0.507939 6:0.534517 7:0.745563 8:0.727412 9:0.726272 10:0.021654 11:0.01326 12:0.011275 13:0.021139 14:0.014152 15:0.012111 16:0.052632 17:0.090909 18:0.047619 
-4 1:0.30802 2:0.315894 3:0.30907 4:0.694384 5:0.728584 6:0.69569 7:1 8:0.981911 9:1 10:0.176761 11:0.176688 12:0.176296 13:0.216874 14:0.214477 15:0.214951 16:0.473684 17:0.818182 18:0.428571 
-4 1:0.427312 2:0.459852 3:0.489116 4:0.774597 5:0.773579 6:0.71626 7:0.755896 8:0.771225 9:0.793405 10:0.019519 11:0.018672 12:0.019423 13:0.021454 14:0.020936 15:0.02234 16:0.052632 17:0.090909 18:0.047619 
-4 1:0.028247 2:0.031213 3:0.025995 4:0.367153 5:0.399017 6:0.375797 7:0.994523 8:0.886377 9:0.945539 10:0.19625 11:0.133143 12:0.14212 13:0.170477 14:0.115927 15:0.122619 16:0.052632 17:0.090909 18:0.047619 
-4 1:0.767538 2:0.844069 3:0.936565 4:0.967996 5:0.935333 6:0.968203 7:0.6698 8:0.645688 9:0.629707 10:0.002332 11:0.001586 12:0.002108 13:0.00985 14:0.008099 15:0.008359 16:0.526316 17:0.909091 18:0.428571 
-4 1:0.622542 2:0.666189 3:0.566554 4:0.850324 5:0.789978 6:0.774352 7:0.587115 8:0.63494 9:0.726272 10:0.00429 11:0.005561 12:0.008742 13:0.008129 14:0.008818 15:0.011909 16:0.052632 17:0.090909 18:0.047619 
-4 1:0.418021 2:0.460602 3:0.4259 4:0.78587 5:0.838282 6:0.791995 7:0.660226 8:0.638533 9:0.667685 10:0.008916 11:0.007482 12:0.008342 13:0.010043 14:0.009117 15:0.009363 16:0.052632 17:0.090909 18:0.047619 
-4 1:0.248954 2:0.297284 3:0.293075 4:0.687246 5:0.763103 6:0.623158 7:0.891176 8:0.821868 9:0.887546 10:0.021838 11:0.021923 12:0.022197 13:0.034117 14:0.025466 15:0.032522 16:0.263158 17:0.454545 18:0.238095 
-4 1:0.537186 2:0.660777 3:0.733561 4:0.816554 5:0.796769 6:0.854677 7:0.454615 8:0.456144 9:0.469845 10:0.001378 11:0.001224 12:0.000886 13:0.003807 14:0.003496 15:0.003652 16:0.315789 17:0.636364 18:0.47619 
-4 1:0.161945 2:0.214863 3:0.26375 4:0.702394 5:0.723417 6:0.704251 7:0.850654 8:0.776596 9:0.806594 10:0.032453 11:0.031051 12:0.032047 13:0.035454 14:0.031636 15:0.032798 16:0.052632 17:0.090909 18:0.047619 
-4 1:0.51395 2:0.507464 3:0.506912 4:0.79725 5:0.724506 6:0.71616 7:0.368754 8:0.456144 9:0.496271 10:0.000709 11:0.001104 12:0.001259 13:0.002784 14:0.002917 15:0.003314 16:0.473684 17:0.818182 18:0.333333 
-4 1:0.319386 2:0.347534 3:0.295397 4:0.810757 5:0.857553 6:0.81698 7:0.75332 8:0.727412 9:0.746597 10:0.009756 11:0.0101 12:0.0102 13:0.015522 14:0.014377 15:0.014836 16:0.421053 17:0.727273 18:0.380952 
-0.1998726142702552 1:0.659593 2:0.649154 3:0.635627 4:0.932977 5:0.725607 6:0.830681 7:0.424398 8:0.454762 9:0.511852 10:0.001526 11:0.00181 12:0.002119 13:0.003964 14:0.003881 15:0.003946 16:0.263158 17:0.545455 18:0.238095 
-4 1:0.224435 2:0.259265 3:0.235709 4:0.593367 5:0.697367 6:0.608795 7:0.658853 8:0.699236 9:0.711072 10:0.00666 11:0.006976 12:0.007005 13:0.012857 14:0.011506 15:0.012818 16:0.315789 17:0.545455 18:0.285714 
-4 1:0.273495 2:0.350965 3:0.345339 4:0.649528 5:0.695194 6:0.641069 7:0.788993 8:0.724064 9:0.772826 10:0.01532 11:0.011301 12:0.012367 13:0.020589 14:0.017126 15:0.018518 16:0.105263 17:0.272727 18:0.142857 
-1.956401167273506 1:0.58093 2:0.542686 3:0.630347 4:0.706542 5:0.680249 6:0.78143 7:0.372085 8:0.476705 9:0.441457 10:0.000287 11:0.000863 12:0.00071 13:0.003897 14:0.00392 15:0.003491 16:0.421053 17:0.727273 18:0.380952 
-4 1:0.098889 2:0.132325 3:0.159375 4:0.491697 5:0.570069 6:0.561297 7:0.673885 8:0.703787 9:0.728428 10:0.022453 11:0.024864 12:0.022825 13:0.023592 14:0.023964 15:0.024284 16:0.052632 17:0.090909 18:0.047619 
-4 1:0.315716 2:0.400886 3:0.358493 4:0.682281 5:0.757681 6:0.758933 7:0.614244 8:0.66925 9:0.701198 10:0.012637 11:0.014044 12:0.012876 13:0.013145 14:0.012743 15:0.011926 16:0.052632 17:0.090909 18:0.047619 
-4 1:0.328788 2:0.329764 3:0.376384 4:0.726405 5:0.730583 6:0.69363 7:0.727307 8:0.744021 9:0.723031 10:0.015782 11:0.014045 12:0.013665 13:0.020576 14:0.01896 15:0.017861 16:0.052632 17:0.090909 18:0.047619 
-4 1:0.444731 2:0.485802 3:0.488486 4:0.605224 5:0.557336 6:0.639276 7:0.692801 8:0.699236 9:0.791363 10:0.006055 11:0.006336 12:0.006289 13:0.013923 14:0.013155 15:0.013959 16:0.315789 17:0.545455 18:0.285714 
-4 1:0.107322 2:0.157459 3:0.12013 4:0.536645 5:0.621226 6:0.597784 7:0.891176 8:0.812526 9:0.803563 10:0.067924 11:0.033015 12:0.034775 13:0.077934 14:0.039131 15:0.038228 16:0.052632 17:0.090909 18:0.047619 
-4 1:0.083787 2:0.109769 3:0.079165 4:0.397832 5:0.624075 6:0.490381 7:0.876999 8:0.803114 9:0.837471 10:0.085524 11:0.046522 12:0.058141 13:0.071182 14:0.040611 15:0.046985 16:0.052632 17:0.090909 18:0.047619 
-4 1:0.686282 2:0.849397 3:0.848263 4:0.887819 5:0.863771 6:0.943065 7:0.485776 8:0.483484 9:0.558656 10:0.001735 11:0.001055 12:0.001265 13:0.003967 14:0.003913 15:0.003868 16:0.105263 17:0.454545 18:0.333333 
-4 1:0.337498 2:0.37345 3:0.352117 4:0.706594 5:0.719479 6:0.787969 7:0.57409 8:0.627724 9:0.656303 10:0.005174 11:0.003965 12:0.007664 13:0.008104 14:0.008119 15:0.009776 16:0.105263 17:0.272727 18:0.095238 
-4 1:0.504997 2:0.466547 3:0.528423 4:0.807035 5:0.833367 6:0.843361 7:0.592867 8:0.591009 9:0.620316 10:0.006035 11:0.002988 12:0.004802 13:0.011309 14:0.005866 15:0.007419 16:0.105263 17:0.363636 18:0.095238 
-4 1:0.410889 2:0.568423 3:0.517522 4:0.807447 5:0.862866 6:0.804123 7:0.579893 8:0.572243 9:0.574677 10:0.005876 11:0.00419 12:0.004105 13:0.00861 14:0.007365 15:0.007429 16:0.052632 17:0.181818 18:0.095238 
-4 1:0.650382 2:0.849212 3:0.913715 4:0.808859 5:0.953028 6:0.897887 7:0.372085 8:0.511567 9:0.373931 10:0.002338 11:0.001954 12:0.00136 13:0.003193 14:0.004187 15:0.002029 16:0.157895 17:0.545455 18:0.190476 
-4 1:0.762593 2:0.684012 3:0.55075 4:0.942517 5:0.873642 6:0.703161 7:0.479595 8:0.467151 9:0.643657 10:0.002631 11:0.002013 12:0.005006 13:0.005066 14:0.003476 15:0.009241 16:0.157895 17:0.181818 18:0.095238 
-4 1:0.060743 2:0.056042 3:0.046409 4:0.358117 5:0.377382 6:0.346955 7:0.837305 8:0.797855 9:0.834518 10:0.060508 11:0.063217 12:0.062485 13:0.061667 14:0.063352 15:0.061982 16:0.052632 17:0.090909 18:0.047619 
-4 1:0.700028 2:0.833088 3:0.667656 4:0.877295 5:0.915313 6:0.849583 7:0.360394 8:0.473982 9:0.604897 10:0.000826 11:0.001952 12:0.002967 13:0.002884 14:0.003546 15:0.005357 16:0.263158 17:0.272727 18:0.095238 
-4 1:0.353493 2:0.380138 3:0.424649 4:0.72586 5:0.763546 6:0.76901 7:0.427608 8:0.498272 9:0.501487 10:0.001803 11:0.002184 12:0.002099 13:0.004168 14:0.004713 15:0.003916 16:0.421053 17:0.727273 18:0.380952 
-4 1:0.324465 2:0.413437 3:0.317777 4:0.637124 5:0.744969 6:0.587951 7:0.587115 8:0.539039 9:0.673336 10:0.002865 11:0.003233 12:0.005066 13:0.006494 14:0.005775 15:0.008655 16:0.157895 17:0.181818 18:0.095238 
-1.634169957314413 1:0.256557 2:0.195721 3:0.198423 4:0.228631 5:0.437594 6:0.39757 7:0.80776 8:0.659878 9:0.744474 10:0.047257 11:0.015787 12:0.026251 13:0.062554 14:0.016455 15:0.030074 16:0.052632 17:0.090909 18:0.047619 
-4 1:0.223238 2:0.202454 3:0.235608 4:0.422208 5:0.4082 6:0.571881 7:0.825065 8:0.865571 9:0.805584 10:0.0262 11:0.049801 12:0.015746 13:0.032428 14:0.058176 15:0.024049 16:0.052632 17:0.090909 18:0.047619 
-0.6208634719712619 1:0 2:0 3:0 4:0.168105 5:0.168655 6:0.162968 7:0.859087 8:0.803114 9:0.869491 10:1 11:1 12:1 13:1 14:1 15:1 16:0 17:0 18:0 
-4 1:0.161783 2:0.292101 3:0.274667 4:0.620149 5:0.641268 6:0.590634 7:0.733853 8:0.668082 9:0.686791 10:0.023956 11:0.015389 12:0.0169 13:0.020165 14:0.013888 15:0.015396 16:0.052632 17:0.090909 18:0.047619 
-4 1:0.523122 2:0.544961 3:0.563317 4:0.719405 5:0.744524 6:0.787281 7:0.560951 8:0.570982 9:0.632043 10:0.006172 11:0.006628 12:0.006735 13:0.006601 14:0.006309 15:0.007006 16:0.473684 17:0.818182 18:0.428571 
-4 1:0.472964 2:0.536161 3:0.48257 4:0.76708 5:0.827326 6:0.796623 7:0.437195 8:0.523414 9:0.53864 10:0.00161 11:0.002101 12:0.002076 13:0.004488 14:0.005376 15:0.005456 16:0.473684 17:0.727273 18:0.380952 
-2.508466244230247 1:0.327773 2:0.352164 3:0.330101 4:0.496472 5:0.204871 6:0.499678 7:0.796528 8:0.813567 9:0.7811 10:0.02878 11:0.0529 12:0.023588 13:0.040107 14:0.065427 15:0.034328 16:0.052632 17:0.090909 18:0.047619 
-4 1:0.270433 2:0.357138 3:0.340766 4:0.735869 5:0.735868 6:0.700297 7:0.64228 8:0.618037 9:0.705597 10:0.008451 11:0.007941 12:0.008968 13:0.01084 14:0.010077 15:0.011665 16:0.052632 17:0.090909 18:0.047619 
-4 1:0.163592 2:0.195921 3:0.206882 4:0.454453 5:0.531835 6:0.425171 7:0.783949 8:0.739613 9:0.820637 10:0.029957 11:0.021602 12:0.033032 13:0.034476 14:0.025581 15:0.035475 16:0.052632 17:0.090909 18:0.047619 
-1.658469595698902 1:0.276955 2:0.278968 3:0.293136 4:0.124076 5:0.248786 6:0.160285 7:0.952232 8:0.858559 9:0.921944 10:0.351072 11:0.061808 12:0.166613 13:0.501151 14:0.092773 15:0.256269 16:0.052632 17:0.090909 18:0.047619 
-4 1:0.471489 2:0.5717 3:0.595878 4:0.739234 5:0.795455 6:0.7389 7:0.708826 8:0.649251 9:0.678961 10:0.00983 11:0.005066 12:0.0084 13:0.014189 14:0.008666 15:0.011518 16:0.105263 17:0.272727 18:0.095238 
-4 1:0.260601 2:0.230115 3:0.293462 4:0.704536 5:0.683242 6:0.662189 7:0.719415 8:0.709452 9:0.792384 10:0.009258 11:0.009457 12:0.011602 13:0.019406 14:0.017295 15:0.020726 16:0.210526 17:0.363636 18:0.142857 
-4 1:0.357769 2:0.372482 3:0.380631 4:0.195642 5:0.332174 6:0.126091 7:0.698161 8:0.692379 9:0.855042 10:0.030217 11:0.021846 12:0.05789 13:0.048505 14:0.033885 15:0.079898 16:0.052632 17:0.090909 18:0.047619 
-4 1:0.305247 2:0.199568 3:0.231681 4:0.586635 5:0.581536 6:0.499535 7:0.602881 8:0.73519 9:0.7749 10:0.009703 11:0.020135 12:0.022583 13:0.015042 14:0.025461 15:0.027754 16:0.052632 17:0.090909 18:0.047619 
-4 1:0.681563 2:0.615114 3:0.518711 4:0.757542 5:0.732861 6:0.701307 7:0.395198 8:0.520791 9:0.488404 10:0.000816 11:0.001126 12:0.00126 13:0.003297 14:0.003423 15:0.003304 16:0.421053 17:0.636364 18:0.380952 
-4 1:0.683503 2:0.700431 3:0.927817 4:1 5:0.981786 6:1 7:0.41311 8:0.402508 9:0.515715 10:0 11:0.001065 12:0.001027 13:0.003373 14:0.003621 15:0.003719 16:0.421053 17:0.454545 18:0.285714 
-4 1:0.345474 2:0.511364 3:0.50189 4:0.63696 5:0.734268 6:0.674455 7:0.58423 8:0.519477 9:0.574677 10:0.006265 11:0.004377 12:0.004524 13:0.008333 14:0.00732 15:0.007046 16:0.105263 17:0.181818 18:0.095238 
-4 1:0.349028 2:0.382391 3:0.356545 4:0.688853 5:0.70196 6:0.659539 7:0.71148 8:0.704922 9:0.768668 10:0.005131 11:0.004403 12:0.006496 13:0.015581 14:0.011642 15:0.01796 16:0.157895 17:0.363636 18:0.142857 
-4 1:0.557228 2:0.545973 3:0.656689 4:0.632525 5:0.692918 6:0.823698 7:0.546215 8:0.516846 9:0.60609 10:0.00184 11:0.001589 12:0.001705 13:0.006346 14:0.004921 15:0.005921 16:0.368421 17:0.454545 18:0.380952 
-4 1:0.869131 2:0.695735 3:0.942717 4:0.914905 5:0.943617 6:0.957789 7:0.45933 8:0.365935 9:0.53864 10:0.000894 11:0.001076 12:0.001137 13:0.003864 14:0.002873 15:0.003729 16:0.526316 17:0.818182 18:0.47619 
-4 1:0.172905 2:0.241519 3:0.161231 4:0.684762 5:0.664655 6:0.60022 7:0.684723 8:0.720707 9:0.732728 10:0.012944 11:0.013676 12:0.018067 13:0.017599 14:0.018791 15:0.023787 16:0.052632 17:0.090909 18:0.047619 
-4 1:0.453727 2:0.450027 3:0.501423 4:0.725698 5:0.676087 6:0.632008 7:0.474943 8:0.584784 9:0.609662 10:0.001525 11:0.00326 12:0.002893 13:0.005148 14:0.006928 15:0.006437 16:0.210526 17:0.272727 18:0.190476 
-4 1:0.37446 2:0.367657 3:0.297968 4:0.553682 5:0.653806 6:0.56704 7:0.662968 8:0.653985 9:0.76345 10:0.009222 11:0.008489 12:0.010074 13:0.013404 14:0.012295 15:0.016077 16:0.105263 17:0.090909 18:0.095238 
-4 1:0.196706 2:0.254986 3:0.216816 4:0.544493 5:0.623985 6:0.601548 7:0.860287 8:0.864572 9:0.90161 10:0.047017 11:0.041877 12:0.050719 13:0.063474 14:0.055519 15:0.061814 16:0.052632 17:0.090909 18:0.047619 
-4 1:0.534846 2:0.677508 3:0.621082 4:0.762399 5:0.777246 6:0.806038 7:0.549174 8:0.533852 9:0.553683 10:0.001029 11:0.001097 12:0.001396 13:0.006079 14:0.005626 15:0.005739 16:0.368421 17:0.636364 18:0.333333 
-2.1089782754986 1:0.514883 2:0.717772 3:0.501927 4:0.797378 5:0.916603 6:0.611774 7:0.501116 8:0.463035 9:0.54869 10:0.006946 11:0.005012 12:0.007351 13:0.007267 14:0.004435 15:0.008064 16:0.052632 17:0.090909 18:0.047619 
-4 1:0.470084 2:0.433899 3:0.483365 4:0.738355 5:0.734059 6:0.87731 7:0.589994 8:0.628929 9:0.60609 10:0.001935 11:0.002402 12:0.001939 13:0.008577 14:0.009143 15:0.007292 16:0.315789 17:0.454545 18:0.380952 
-4 1:0.444131 2:0.499863 3:0.493364 4:0.766391 5:0.799622 6:0.7504 7:0.645055 8:0.591009 9:0.641343 10:0.004884 11:0.005029 12:0.006049 13:0.009105 14:0.009165 15:0.010148 16:0.105263 17:0.181818 18:0.095238 
-4 1:0.48815 2:0.712583 3:0.906088 4:0.768078 5:0.89269 6:0.877399 7:0.493465 8:0.516846 9:0.562372 10:0.002802 11:0.002456 12:0.001438 13:0.004933 14:0.00473 15:0.004583 16:0.105263 17:0.272727 18:0.333333 
-4 1:0.498553 2:0.588767 3:0.531327 4:0.811199 5:0.789204 6:0.572902 7:0.478046 8:0.44504 9:0.558656 10:0.002043 11:0.001533 12:0.004791 13:0.005646 14:0.004425 15:0.009178 16:0.157895 17:0.545455 18:0.095238 
-4 1:0.372553 2:0.469457 3:0.438711 4:0.071042 5:0.479007 6:0.247323 7:0.703503 8:0.615604 9:0.701198 10:0.039116 11:0.008452 12:0.019658 13:0.067117 14:0.017178 15:0.030673 16:0.105263 17:0.181818 18:0.095238 
-4 1:0.219646 2:0.297136 3:0.156578 4:0.548371 5:0.584451 6:0.546107 7:0.902889 8:0.854535 9:0.905333 10:0.056983 11:0.047441 12:0.080618 13:0.078789 14:0.067109 15:0.088015 16:0.052632 17:0.090909 18:0 
-4 1:0.439812 2:0.382416 3:0.458127 4:0.713156 5:0.798371 6:0.757571 7:0.547695 8:0.650436 9:0.668818 10:0.001368 11:0.00285 12:0.003204 13:0.006646 14:0.009387 15:0.008869 16:0.368421 17:0.454545 18:0.190476 
-4 1:0.42818 2:0.371535 3:0.422911 4:0.824074 5:0.775224 6:0.741608 7:0.595735 8:0.60705 9:0.591694 10:0.002754 11:0.003803 12:0.00474 13:0.007241 14:0.007192 15:0.008836 16:0.157895 17:0.181818 18:0.095238 
-4 1:0.446916 2:0.486337 3:0.561007 4:0.816316 5:0.87364 6:0.860987 7:0.449884 8:0.419693 9:0.621494 10:0.001268 11:0.000993 12:0.002951 13:0.003912 14:0.003106 15:0.005598 16:0.263158 17:0.545455 18:0.190476 
-4 1:0.431703 2:0.4868 3:0.42774 4:0.778589 5:0.842771 6:0.805141 7:0.519319 8:0.471255 9:0.558656 10:0.000968 11:0.001433 12:0.001609 13:0.005299 14:0.004945 15:0.005641 16:0.315789 17:0.545455 18:0.285714 
-4 1:0.319583 2:0.252725 3:0.241758 4:0.60209 5:0.635136 6:0.555347 7:0.646441 8:0.576018 9:0.677838 10:0.00469 11:0.003664 12:0.005914 13:0.008947 14:0.007878 15:0.010829 16:0.105263 17:0.181818 18:0.095238 
-4 1:0.557913 2:0.469065 3:0.653394 4:0.862969 5:0.839977 6:0.87712 7:0.612829 8:0.595966 9:0.56854 10:0.00761 11:0.006066 12:0.004398 13:0.009788 14:0.007489 15:0.007089 16:0.105263 17:0.181818 18:0.095238 
-4 1:0.372361 2:0.46444 3:0.415724 4:0.788374 5:0.673188 6:0.834903 7:0.647825 8:0.541624 9:0.621494 10:0.010692 11:0.002726 12:0.005564 13:0.013995 14:0.005675 15:0.008196 16:0.052632 17:0.454545 18:0.047619 
-4 1:0.447462 2:0.507406 3:0.497605 4:0.748487 5:0.819834 6:0.740623 7:0.56388 8:0.611945 9:0.645966 10:0.006379 11:0.005888 12:0.006204 13:0.010741 14:0.010384 15:0.011391 16:0.105263 17:0.181818 18:0.047619 
-4 1:0.508799 2:0.725746 3:0.602498 4:0.781822 5:0.992434 6:0.739351 7:0.615659 8:0.618037 9:0.636702 10:0.003027 11:0.001616 12:0.002371 13:0.008632 14:0.007295 15:0.007206 16:0.263158 17:0.727273 18:0.333333 
-0.1589122830787946 1:0.410515 2:0.604652 3:0.728248 4:0.73011 5:0.861562 6:0.839412 7:0.592867 8:0.498272 9:0.493655 10:0.006559 11:0.003743 12:0.003139 13:0.008482 14:0.004061 15:0.003537 16:0.052632 17:0.090909 18:0.095238 
-4 1:0.602635 2:0.66834 3:0.715928 4:0.773357 5:0.896174 6:0.856922 7:0.432409 8:0.395278 9:0.46717 10:0.000568 11:0.000893 12:0.001169 13:0.003035 14:0.00236 15:0.003303 16:0.210526 17:0.454545 18:0.142857 
-4 1:0.373648 2:0.50711 3:0.427124 4:0.734327 5:0.808058 6:0.740584 7:0.615659 8:0.597203 9:0.647119 10:0.009035 11:0.005175 12:0.007502 13:0.012008 14:0.007941 15:0.010675 16:0.052632 17:0.181818 18:0.047619 
-4 1:0.378607 2:0.364032 3:0.406313 4:0.764294 5:0.787086 6:0.729067 7:0.683373 8:0.653985 9:0.731654 10:0.00984 11:0.008481 12:0.008994 13:0.015556 14:0.012606 15:0.013914 16:0.052632 17:0.090909 18:0.047619 
-4 1:0.341467 2:0.320888 3:0.330678 4:0.781487 5:0.807213 6:0.76241 7:0.684723 8:0.499608 9:0.613224 10:0.009552 11:0.005141 12:0.007536 13:0.015318 14:0.007889 15:0.010705 16:0.105263 17:0.181818 18:0.095238 
-4 1:0.252498 2:0.347445 3:0.317728 4:0.519792 5:0.59446 6:0.57016 7:0.761036 8:0.700375 9:0.743411 10:0.006345 11:0.006098 12:0.006814 13:0.014575 14:0.012535 15:0.013864 16:0.210526 17:0.363636 18:0.142857 
-4 1:0.404297 2:0.557511 3:0.451818 4:0.805167 5:0.834229 6:0.787916 7:0.504165 8:0.533852 9:0.585644 10:0.003434 11:0.002166 12:0.005632 13:0.007868 14:0.005308 15:0.007779 16:0.105263 17:0.272727 18:0.047619 
