svm_type c_svc
kernel_type rbf
gamma 1
nr_class 2
total_sv 142
rho -0.113188
label 1 2
probA -0.847299
probB 0.0208188
nr_sv 74 68
SV
8 1:0.529441 2:0.560638 3:0.683148 4:0.859765 5:0.838444 6:0.89669 7:0.352994 8:0.411765 9:0.480103 10:0.00045 11:0.000476 12:0.000452 13:0.001095 14:0.001281 15:0.001351 16:0.133333 17:0.076923 18:0.230769 
8 1:0.472927 2:0.464832 3:0.416315 4:0.802809 5:0.76007 6:0.695863 7:0.325474 8:0.403918 9:0.468766 10:0.000319 11:0.000346 12:0.000499 13:0.001059 14:0.001312 15:0.00161 16:0.4 17:0.461538 18:0.384615 
1.094250226767801 1:0.783087 2:0.590465 3:0.744702 4:0.966458 5:0.784789 6:0.992737 7:0.680307 8:0.527369 9:0.611583 10:0.001402 11:0.00076 12:0.001561 13:0.005404 14:0.002215 15:0.003499 16:1 17:0.230769 18:0.307692 
6.862941463182559 1:0.13453 2:0.135864 3:0.115172 4:0.593901 5:0.574596 6:0.63462 7:0.886262 8:0.849172 9:0.861905 10:0.011073 11:0.009738 12:0.012533 13:0.016733 14:0.016231 15:0.019021 16:0 17:0.076923 18:0.076923 
6.103281253455194 1:0.193193 2:0.311268 3:0.284962 4:0.343267 5:0.395697 6:0.257964 7:0.689919 8:0.734641 9:0.672696 10:0.014884 11:0.009217 12:0.01064 13:0.017103 14:0.011494 15:0.013734 16:0 17:0.076923 18:0.153846 
8 1:0.368993 2:0.562763 3:0.420612 4:0.753887 5:0.879307 6:0.823099 7:0.642656 8:0.571347 9:0.590995 10:0.00186 11:0.001049 12:0.002463 13:0.004608 14:0.002696 15:0.004169 16:0.133333 17:0.384615 18:0.230769 
8 1:0.464746 2:0.680772 3:0.569845 4:0.844837 5:0.829637 6:0.835423 7:0.49146 8:0.498246 9:0.560824 10:0.001692 11:0.00046 12:0.000743 13:0.002563 14:0.001672 15:0.00187 16:0.133333 17:0.307692 18:0.307692 
0.8013034039646072 1:0.420356 2:0.540263 3:0.427402 4:0.836928 5:0.848855 6:0.834587 7:0.715711 8:0.71587 9:0.72759 10:0.002149 11:0.002223 12:0.00309 13:0.004774 14:0.005495 15:0.005565 16:0.2 17:0.384615 18:0.153846 
1.883760997463724 1:0.748863 2:0.657868 3:0.64877 4:0.98301 5:0.918307 6:0.951855 7:0.595349 8:0.650098 9:0.673914 10:0.001453 11:0.001442 12:0.001234 13:0.00362 14:0.004375 15:0.004725 16:0.4 17:0.461538 18:0.538462 
8 1:0.555546 2:0.49677 3:0.401922 4:0.850155 5:0.625495 6:0.66976 7:0.621333 8:0.582476 9:0.605184 10:0.001333 11:0.001158 12:0.001253 13:0.004814 14:0.003899 15:0.004304 16:0.266667 17:0.307692 18:0.384615 
1.664168136759966 1:0.546168 2:0.745147 3:0.706813 4:0.803823 5:0.884187 6:0.928363 7:0.752947 8:0.665854 9:0.707569 10:0.008476 11:0.00125 12:0.001323 13:0.012647 14:0.004764 15:0.00496 16:0.066667 17:0.384615 18:0.461538 
8 1:0.337545 2:0.403398 3:0.327886 4:0.768484 5:0.808571 6:0.809447 7:0.651103 8:0.67626 9:0.693251 10:0.004565 11:0.003613 12:0.004517 13:0.007043 14:0.005024 15:0.005992 16:0 17:0 18:0.076923 
2.253941232520696 1:0.144762 2:0.160123 3:0.082656 4:0.271717 5:0.251083 6:0.1418 7:0.73178 8:0.76781 9:0.83418 10:0.014402 11:0.018607 12:0.046847 13:0.017059 14:0.022416 15:0.044362 16:0 17:0 18:0.076923 
8 1:0.430708 2:0.49688 3:0.537775 4:0.736536 5:0.714313 6:0.652053 7:0.721086 8:0.668463 9:0.712308 10:0.002284 11:0.001336 12:0.001495 13:0.005821 14:0.00412 15:0.004587 16:0.133333 17:0.153846 18:0.230769 
8 1:0.175846 2:0.202235 3:0.27734 4:0.545545 5:0.660176 6:0.719078 7:0.734442 8:0.74208 9:0.704004 10:0.013192 11:0.010058 12:0.006744 13:0.01457 14:0.012211 15:0.009731 16:0 17:0 18:0.076923 
8 1:0.489117 2:0.524903 3:0.529468 4:0.827428 5:0.756655 6:0.758232 7:0.477376 8:0.575531 9:0.556837 10:0.000645 11:0.00058 12:0.000568 13:0.002447 14:0.00292 15:0.002918 16:0.333333 17:0.384615 18:0.461538 
8 1:0.409054 2:0.371536 3:0.41973 4:0.827852 5:0.829958 6:0.883311 7:0.673404 8:0.739605 9:0.756489 10:0.002934 11:0.002938 12:0.00383 13:0.006082 14:0.006535 15:0.008327 16:0.133333 17:0.076923 18:0.153846 
2.040356653978099 1:0.23508 2:0.340399 3:0.224851 4:0.792421 5:0.775746 6:0.757998 7:0.700832 8:0.744551 9:0.732257 10:0.004385 11:0.004251 12:0.004172 13:0.006866 14:0.007556 15:0.006971 16:0.466667 17:0.615385 18:0.615385 
8 1:0.405875 2:0.41058 3:0.412952 4:0.647439 5:0.653408 6:0.721463 7:0.636999 8:0.724661 9:0.724079 10:0.002037 11:0.002579 12:0.003159 13:0.003729 14:0.004579 15:0.005406 16:0.066667 17:0.076923 18:0.153846 
8 1:0.368034 2:0.369042 3:0.441325 4:0.639805 5:0.679381 6:0.672781 7:0.779003 8:0.760506 9:0.769006 10:0.006779 11:0.006597 12:0.006573 13:0.00849 14:0.008703 15:0.009286 16:0 17:0 18:0.153846 
8 1:0.242211 2:0.306489 3:0.333409 4:0.810012 5:0.791122 6:0.813732 7:0.733112 8:0.760506 9:0.781405 10:0.008843 11:0.006411 12:0.006193 13:0.011134 14:0.009132 15:0.008979 16:0 17:0.076923 18:0.153846 
8 1:0.436465 2:0.519199 3:0.55174 4:0.722636 5:0.752761 6:0.824351 7:0.51004 8:0.521593 9:0.506643 10:0.000599 11:0.000503 12:0.000655 13:0.002333 14:0.002334 15:0.00228 16:0.333333 17:0.384615 18:0.461538 
1.76263817417759 1:0.56138 2:0.486906 3:0.426548 4:0.890982 5:0.714696 6:0.713168 7:0.467914 8:0.512883 9:0.468766 10:0.000139 11:0.000289 12:0.000108 13:0.001406 14:0.001808 15:0.001422 16:0.466667 17:0.461538 18:0.692308 
8 1:0.151516 2:0.167173 3:0.212606 4:0.572218 5:0.450462 6:0.487194 7:0.893473 8:0.919549 9:0.883879 10:0.014711 11:0.015454 12:0.014806 13:0.030803 14:0.031125 15:0.030583 16:0.333333 17:0.384615 18:0.461538 
8 1:0.542451 2:0.498771 3:0.587342 4:0.723441 5:0.682676 6:0.736761 7:0.4246 8:0.533122 9:0.453016 10:0.000788 11:0.000873 12:0.000753 13:0.001688 14:0.001823 15:0.001615 16:0.533333 17:0.615385 18:0.692308 
8 1:0.334285 2:0.398366 3:0.320163 4:0.754217 5:0.816175 6:0.790287 7:0.528397 8:0.576922 9:0.624288 10:0.001098 11:0.001139 12:0.001214 13:0.002869 14:0.002857 15:0.003128 16:0.333333 17:0.384615 18:0.461538 
8 1:0.482874 2:0.531828 3:0.427738 4:0.794251 5:0.823687 6:0.82111 7:0.442394 8:0.450353 9:0.579272 10:0.000994 11:0.000553 12:0.001401 13:0.002161 14:0.001759 15:0.002485 16:0.133333 17:0.230769 18:0.230769 
8 1:0.195504 2:0.369718 3:0.399784 4:0.569009 5:0.605434 6:0.628652 7:0.59971 8:0.590765 9:0.597464 10:0.001213 11:0.000852 12:0.000888 13:0.003189 14:0.002558 15:0.002599 16:0.133333 17:0.230769 18:0.307692 
8 1:0.394715 2:0.507032 3:0.456012 4:0.841317 5:0.807568 6:0.789078 7:0.652506 8:0.644807 9:0.66291 10:0.002564 11:0.00164 12:0.001475 13:0.005646 14:0.005156 15:0.004188 16:0.2 17:0.307692 18:0.384615 
8 1:0.46409 2:0.512104 3:0.484574 4:0.757338 5:0.790507 6:0.84686 7:0.602611 8:0.521593 9:0.508026 10:0.001324 11:0.001101 12:0.000991 13:0.002782 14:0.002397 15:0.002036 16:0.466667 17:0.538462 18:0.692308 
2.950782588531075 1:0.243611 2:0.26222 3:0.257085 4:0.627337 5:0.603779 6:0.591524 7:0.916086 8:0.854888 9:0.875551 10:0.01568 11:0.012962 12:0.015691 13:0.020494 14:0.018945 15:0.02132 16:0 17:0 18:0.076923 
8 1:0.359158 2:0.295424 3:0.330595 4:0.679903 5:0.571517 6:0.634817 7:0.666469 8:0.788298 9:0.759915 10:0.005358 11:0.004491 12:0.004386 13:0.0058 14:0.006551 15:0.005894 16:0.133333 17:0.384615 18:0.384615 
4.051447850413503 1:0.393622 2:0.436945 3:0.407165 4:0.653398 5:0.581544 6:0.647233 7:0.631321 8:0.705754 9:0.709941 10:0.001658 11:0.001593 12:0.001455 13:0.004457 14:0.004762 15:0.0043 16:0.333333 17:0.384615 18:0.461538 
8 1:0.187961 2:0.239531 3:0.200801 4:0.753272 5:0.769603 6:0.744601 7:0.733112 8:0.713348 9:0.693251 10:0.002355 11:0.002253 12:0.002527 13:0.006972 14:0.006845 15:0.007146 16:0.133333 17:0.153846 18:0.230769 
8 1:0.347556 2:0.412165 3:0.391938 4:0.641955 5:0.663448 6:0.724756 7:0.526876 8:0.504119 9:0.554173 10:0.003189 11:0.002344 12:0.002418 13:0.002968 14:0.002373 15:0.002527 16:0 17:0 18:0.076923 
8 1:0.354483 2:0.416114 3:0.402747 4:0.734679 5:0.657023 6:0.666885 7:0.472652 8:0.565749 9:0.620489 10:0.000894 11:0.000619 12:0.000789 13:0.002665 14:0.002729 15:0.002829 16:0.266667 17:0.384615 18:0.461538 
1.534328468952641 1:0.222819 2:0.256261 3:0.204223 4:0.544063 5:0.510969 6:0.532833 7:0.954589 8:0.956112 9:0.933766 10:0.0617 11:0.062508 12:0.06296 13:0.048713 14:0.049427 15:0.049636 16:0.333333 17:0.384615 18:0.461538 
1.714201186892544 1:0.798098 2:1 3:1 4:0.916329 5:0.769544 6:0.937406 7:0.625622 8:0.660622 9:0.648094 10:0.000801 11:0.000641 12:0.000794 13:0.003783 14:0.004038 15:0.00529 16:0.6 17:0.692308 18:1 
8 1:0.630959 2:0.662579 3:0.596374 4:0.737417 5:0.717958 6:0.805855 7:0.5085 8:0.575531 9:0.568762 10:0.002151 11:0.00244 12:0.002329 13:0.002248 14:0.002436 15:0.002285 16:0.133333 17:0.153846 18:0.230769 
8 1:0.171362 2:0.236448 3:0.192797 4:0.540698 5:0.569806 6:0.577549 7:0.764727 8:0.710821 9:0.802549 10:0.01426 11:0.010767 12:0.011917 13:0.014706 14:0.011808 15:0.012775 16:0 17:0 18:0.076923 
6.483750884256428 1:0.363248 2:0.453488 3:0.318251 4:0.850489 5:0.825829 6:0.657937 7:0.439174 8:0.520145 9:0.616679 10:0.000779 11:0.000624 12:0.002688 13:0.002016 14:0.002061 15:0.004633 16:0.533333 17:0.615385 18:0.153846 
8 1:0.682886 2:0.6655 3:0.622803 4:1 5:0.845062 6:0.894529 7:0.579251 8:0.508508 9:0.531302 10:0.001186 11:0.000949 12:0.001013 13:0.003127 14:0.002136 15:0.002472 16:0.133333 17:0.076923 18:0.153846 
8 1:0.391842 2:0.379741 3:0.466594 4:0.701207 5:0.639573 6:0.694037 7:0.522303 8:0.531686 9:0.550165 10:0.000664 11:0.000718 12:0.000529 13:0.002096 14:0.002089 15:0.001724 16:0.466667 17:0.538462 18:0.692308 
4.068623030647957 1:0.450831 2:0.489235 3:0.516245 4:0.796904 5:0.757364 6:0.771488 7:0.593893 8:0.67626 9:0.669035 10:0.00145 11:0.001376 12:0.00133 13:0.003832 14:0.003857 15:0.003856 16:0.6 17:0.769231 18:0.769231 
1.259628538424757 1:0.209296 2:0.267399 3:0.348419 4:0.744663 5:0.761505 6:0.757619 7:0.796982 8:0.748249 9:0.755345 10:0.006339 11:0.007362 12:0.007265 13:0.008523 14:0.006438 15:0.007646 16:0.4 17:0.538462 18:0.615385 
8 1:0.086925 2:0.152665 3:0.014442 4:0.422239 5:0.433333 6:0.459063 7:0.848456 8:0.838823 9:0.842773 10:0.016925 11:0.013487 12:0.017214 13:0.012209 14:0.010351 15:0.012451 16:0 17:0 18:0.076923 
0.06088102364310515 1:0.291704 2:0.34935 3:0.316344 4:0.503283 5:0.50405 6:0.518956 7:0.807162 8:0.785903 9:0.813542 10:0.004105 11:0.003935 12:0.005243 13:0.009063 14:0.008921 15:0.010075 16:0.266667 17:0.307692 18:0.230769 
8 1:0.2593 2:0.248282 3:0.262678 4:0.601098 5:0.623602 6:0.607371 7:0.796982 8:0.849172 9:0.849181 10:0.007528 11:0.006271 12:0.007557 13:0.014885 14:0.013839 15:0.015733 16:0.066667 17:0.076923 18:0.153846 
8 1:0.345155 2:0.300548 3:0.263806 4:0.74467 5:0.685867 6:0.670326 7:0.61416 8:0.652737 9:0.655523 10:0.001061 11:0.001116 12:0.000922 13:0.003639 14:0.003833 15:0.003446 16:0.333333 17:0.384615 18:0.461538 
8 1:0.352161 2:0.427097 3:0.376476 4:0.700645 5:0.674125 6:0.735552 7:0.84969 8:0.788298 9:0.758774 10:0.007849 11:0.004562 12:0.005048 13:0.010723 14:0.007943 15:0.008282 16:0 17:0.076923 18:0.076923 
8 1:0.208986 2:0.289635 3:0.195765 4:0.822183 5:0.762144 6:0.793387 7:0.700832 8:0.758063 9:0.726421 10:0.004885 11:0.004691 12:0.004326 13:0.008455 14:0.008594 15:0.008156 16:0.066667 17:0.076923 18:0.153846 
8 1:0.611876 2:0.599422 3:0.587502 4:0.800019 5:0.772497 6:0.858912 7:0.416444 8:0.486425 9:0.536719 10:0.000402 11:0.000334 12:0.000307 13:0.00182 14:0.001729 15:0.002143 16:0.533333 17:0.615385 18:0.692308 
6.066873727374838 1:0.525509 2:0.50918 3:0.516779 4:0.864573 5:0.872888 6:0.848013 7:0.589515 8:0.627471 9:0.612859 10:0.001706 11:0.000947 12:0.000574 13:0.004009 14:0.00413 15:0.003259 16:0.266667 17:0.384615 18:0.538462 
8 1:0.27106 2:0.362522 3:0.246742 4:0.660552 5:0.69659 6:0.674855 7:0.789302 8:0.797837 9:0.870319 10:0.00885 11:0.005849 12:0.01214 13:0.010969 14:0.007951 15:0.014026 16:0.066667 17:0.076923 18:0.153846 
2.954599508083663 1:0.474677 2:0.675771 3:0.612061 4:0.896716 5:0.82721 6:0.931569 7:0.699472 8:0.703214 9:0.634364 10:0.002766 11:0.00145 12:0.001805 13:0.00548 14:0.004116 15:0.004601 16:0.2 17:0.615385 18:0.615385 
8 1:0.230382 2:0.231664 3:0.296822 4:0.546242 5:0.590883 6:0.579518 7:0.727778 8:0.771447 9:0.686033 10:0.011144 11:0.008537 12:0.00991 13:0.013692 14:0.011538 15:0.012611 16:0 17:0 18:0.076923 
8 1:0.159126 2:0.23209 3:0.169524 4:0.616828 5:0.650076 6:0.567062 7:0.583658 8:0.583861 9:0.648094 10:0.002373 11:0.00176 12:0.00204 13:0.003966 14:0.002999 15:0.003578 16:0 17:0 18:0.076923 
8 1:0.241358 2:0.312504 3:0.268575 4:0.587406 5:0.613258 6:0.622158 7:0.810962 8:0.790689 9:0.769006 10:0.014123 11:0.00899 12:0.011038 13:0.015097 14:0.011022 15:0.012959 16:0 17:0 18:0.076923 
8 1:0.29273 2:0.319389 3:0.29958 4:0.779117 5:0.755846 6:0.754679 7:0.803352 8:0.754391 9:0.785885 10:0.010547 11:0.006848 12:0.008534 13:0.014468 14:0.009523 15:0.012099 16:0 17:0 18:0.076923 
8 1:0.357295 2:0.485874 3:0.410588 4:0.817249 5:0.778002 6:0.74328 7:0.80843 8:0.754391 9:0.797018 10:0.008849 11:0.003551 12:0.005604 13:0.011054 14:0.007172 15:0.009494 16:0 17:0.076923 18:0.076923 
8 1:0.676805 2:0.693663 3:0.716339 4:0.963943 5:0.913619 6:0.929693 7:0.483651 8:0.564346 9:0.536719 10:0.000975 11:0.001202 12:0.00095 13:0.001923 14:0.002465 15:0.002211 16:0.6 17:0.538462 18:0.692308 
8 1:0.51679 2:0.330855 3:0.799775 4:0.838642 5:0.705694 6:0.892703 7:0.608396 8:0.732153 9:0.49832 10:0.002765 11:0.006189 12:0.000991 13:0.003765 14:0.008471 15:0.001682 16:0.066667 17:0 18:0.461538 
8 1:0.409075 2:0.547811 3:0.606739 4:0.673457 5:0.767235 6:0.757745 7:0.435948 8:0.400767 9:0.485735 10:0.001284 11:0.000458 12:0.00057 13:0.002029 14:0.001345 15:0.001348 16:0.066667 17:0.153846 18:0.230769 
5.86440308900403 1:0.633937 2:0.582038 3:0.702688 4:0.896286 5:0.82052 6:0.886646 7:0.19325 8:0.618046 9:0.434155 10:0.000102 11:0.001373 12:0.000214 13:0.000604 14:0.002526 15:0.001103 16:0.4 17:0.076923 18:0.692308 
8 1:0.541533 2:0.681168 3:0.672012 4:0.718613 5:0.755224 6:0.876339 7:0.477376 8:0.517245 9:0.516288 10:0.001159 11:0.001102 12:0.00148 13:0.001958 14:0.002019 15:0.002024 16:0.133333 17:0.153846 18:0.153846 
8 1:0.456879 2:0.576996 3:0.561323 4:0.901399 5:0.767538 6:0.763549 7:0.399999 8:0.397609 9:0.406093 10:0.000963 11:0.000327 12:0.000608 13:0.001651 14:0.001245 15:0.001652 16:0.066667 17:0.153846 18:0.153846 
8 1:0.30324 2:0.247769 3:0.340351 4:0.573886 5:0.498898 6:0.660478 7:0.882644 8:0.882007 9:0.913632 10:0.017412 11:0.017042 12:0.014852 13:0.022004 14:0.021398 15:0.023106 16:0 17:0 18:0.076923 
8 1:0.434503 2:0.450727 3:0.525495 4:0.728466 5:0.621828 6:0.822039 7:0.545035 8:0.523039 9:0.687239 10:0.000807 11:0.000792 12:0.00216 13:0.002736 14:0.002346 15:0.005598 16:0.466667 17:0.538462 18:0.538462 
8 1:0.378685 2:0.376644 3:0.318994 4:0.68184 5:0.581261 6:0.567745 7:0.427851 8:0.564346 9:0.528585 10:0.00197 11:0.002078 12:0.002173 13:0.002107 14:0.002182 15:0.002475 16:0 17:0 18:0.076923 
8 1:0.341111 2:0.369337 3:0.367568 4:0.779578 5:0.741402 6:0.7059 7:0.513114 8:0.487908 9:0.529944 10:0.001087 11:0.000998 12:0.000946 13:0.002266 14:0.002268 15:0.002116 16:0.4 17:0.461538 18:0.615385 
2.378777987984732 1:0.572885 2:0.674658 3:0.727341 4:0.950652 5:0.901657 6:1 7:0.612721 8:0.560129 9:0.610305 10:0.000746 11:0.00054 12:0.00105 13:0.003967 14:0.003146 15:0.003227 16:0.933333 17:1 18:0.769231 
8 1:0.654222 2:0.714971 3:0.80631 4:0.994118 5:1 6:0.940033 7:0.127553 8:0.26854 9:0.319716 10:0.000252 11:0.000255 12:0.000444 13:0.000557 14:0.000744 15:0.000838 16:0.266667 17:0.307692 18:0.307692 
8 1:0.588147 2:0.662176 3:0.652503 4:0.832167 5:0.906067 6:0.862214 7:0.413169 8:0.4953 9:0.512163 10:0.000819 11:0.000963 12:0.00098 13:0.001946 14:0.001976 15:0.002094 16:0.066667 17:0.076923 18:0.153846 
8 1:0.320007 2:0.332205 3:0.3075 4:0.793659 5:0.732779 6:0.729577 7:0.568918 8:0.578313 9:0.539419 10:0.001941 11:0.001399 12:0.001342 13:0.002763 14:0.002468 15:0.002555 16:0.2 17:0.384615 18:0.384615 
-8 1:0.233837 2:0.253488 3:0.256412 4:0.650562 5:0.629046 6:0.652364 7:1 8:0.991746 9:0.987593 10:0.024279 11:0.024478 12:0.02456 13:0.058217 14:0.058674 15:0.05952 16:0.466667 17:0.538462 18:0.615385 
-8 1:0.310938 2:0.291671 3:0.287779 4:0.685812 5:0.604087 6:0.635436 7:0.788019 8:0.781101 9:0.802549 10:0.006419 11:0.005796 12:0.007027 13:0.009502 14:0.008822 15:0.009647 16:0 17:0 18:0.076923 
-8 1:0.138403 2:0.226528 3:0.219933 4:0.676791 5:0.67386 6:0.669836 7:0.814753 8:0.782303 9:0.805857 10:0.013993 11:0.00972 12:0.011067 13:0.012695 14:0.009423 15:0.010817 16:0 17:0 18:0.076923 
-8 1:0.692931 2:0.59295 3:0.611623 4:0.886218 5:0.850745 6:0.870899 7:0.646885 8:0.647455 9:0.672696 10:0.003561 11:0.003898 12:0.003926 13:0.004552 14:0.004516 15:0.004489 16:0.6 17:0.692308 18:0.769231 
-6.261415195972498 1:0.428493 2:0.464547 3:0.434855 4:0.756309 5:0.70945 6:0.751283 7:0.595349 8:0.690443 9:0.701622 10:0.00498 11:0.005114 12:0.00611 13:0.006054 14:0.006246 15:0.007784 16:0.066667 17:0 18:0.076923 
-8 1:0.307601 2:0.322603 3:0.290969 4:0.76648 5:0.690313 6:0.741649 7:0.706259 8:0.754391 9:0.742697 10:0.003401 11:0.003359 12:0.003363 13:0.006943 14:0.006696 15:0.006842 16:0.266667 17:0.307692 18:0.384615 
-8 1:0.609279 2:0.64935 3:0.696624 4:0.828314 5:0.770737 6:0.907458 7:0.374997 8:0.467002 9:0.50526 10:0.000648 11:0.000642 12:0.000515 13:0.001669 14:0.00178 15:0.001825 16:0.2 17:0.230769 18:0.384615 
-8 1:0.382541 2:0.523744 3:0.45222 4:0.742229 5:0.721616 6:0.747951 7:0.754261 8:0.704485 9:0.719383 10:0.004374 11:0.002415 12:0.002076 13:0.008508 14:0.005655 15:0.005287 16:0.066667 17:0.076923 18:0.230769 
-8 1:0.403615 2:0.452241 3:0.362595 4:0.876 5:0.855611 6:0.816408 7:0.315026 8:0.402343 9:0.458765 10:0.000638 11:0.000559 12:0.000826 13:0.001265 14:0.001311 15:0.001719 16:0.333333 17:0.384615 18:0.230769 
-8 1:0.501026 2:0.561215 3:0.602938 4:0.767247 5:0.74364 6:0.787697 7:0.585124 8:0.651418 9:0.66291 10:0.001649 11:0.001118 12:0.001635 13:0.004037 14:0.003599 15:0.004414 16:0.133333 17:0.153846 18:0.230769 
-8 1:0.338381 2:0.38088 3:0.417581 4:0.608357 5:0.671249 6:0.69564 7:0.629898 8:0.635499 9:0.693251 10:0.001942 11:0.001927 12:0.001882 13:0.004572 14:0.003703 15:0.003975 16:0.4 17:0.538462 18:0.615385 
-8 1:0.237005 2:0.265146 3:0.227127 4:0.71484 5:0.650668 6:0.702932 7:0.659504 8:0.738366 9:0.778035 10:0.003858 11:0.003384 12:0.004991 13:0.006892 14:0.006561 15:0.007908 16:0.133333 17:0.230769 18:0.230769 
-8 1:0.159473 2:0.176119 3:0.16244 4:0.717782 5:0.68399 6:0.715476 7:0.750317 8:0.779898 9:0.797018 10:0.008293 11:0.005943 12:0.007066 13:0.013067 14:0.010925 15:0.012128 16:0.066667 17:0.076923 18:0.153846 
-8 1:0.429596 2:0.407907 3:0.462624 4:0.688209 5:0.550209 6:0.64803 7:0.493017 8:0.567151 9:0.514914 10:0.001048 11:0.000734 12:0.000429 13:0.002373 14:0.002342 15:0.002078 16:0.266667 17:0.307692 18:0.538462 
-8 1:0.246825 2:0.281825 3:0.336912 4:0.678134 5:0.678191 6:0.657137 7:0.678929 8:0.747017 9:0.725251 10:0.006421 11:0.005763 12:0.005545 13:0.006179 14:0.006254 15:0.005907 16:0 17:0 18:0.076923 
-8 1:0.367789 2:0.313907 3:0.284198 4:0.618483 5:0.663167 6:0.6446 7:0.711667 8:0.699395 9:0.689647 10:0.004229 11:0.002909 12:0.002958 13:0.005895 14:0.00488 15:0.004796 16:0 17:0.076923 18:0.076923 
-8 1:0.277688 2:0.323764 3:0.361373 4:0.637248 5:0.512642 6:0.526206 7:0.665079 8:0.651418 9:0.69445 10:0.002533 11:0.002491 12:0.00238 13:0.004638 14:0.004688 15:0.004873 16:0.4 17:0.461538 18:0.538462 
-8 1:0.281639 2:0.528775 3:0.412682 4:0.7672 5:0.71843 6:0.802673 7:0.711667 8:0.596264 9:0.630594 10:0.009745 11:0.002164 12:0.001687 13:0.009625 14:0.003879 15:0.003446 16:0 17:0.307692 18:0.461538 
-3.737466179656793 1:0.511539 2:0.641263 3:0.630705 4:0.945573 5:0.904764 6:0.882774 7:0.290366 8:0.26854 9:0.41502 10:0.000917 11:0.00047 12:0.000897 13:0.001171 14:0.001138 15:0.001554 16:0.133333 17:0.230769 18:0.153846 
-8 1:0.308557 2:0.336704 3:0.343581 4:0.679216 5:0.642349 6:0.632271 7:0.739752 8:0.760506 9:0.798126 10:0.007366 11:0.004649 12:0.007346 13:0.00929 14:0.006641 15:0.009332 16:0 17:0 18:0.076923 
-4.963505046735149 1:0.563342 2:0.669818 3:0.712197 4:0.790962 5:0.832492 6:0.608462 7:0.419712 8:0.528809 9:0.508026 10:0.001947 11:0.001546 12:0.001425 13:0.002404 14:0.002413 15:0.002672 16:0 17:0.076923 18:0.153846 
-8 1:0.533598 2:0.62455 3:0.517796 4:0.696539 5:0.650511 6:0.738243 7:0.683059 8:0.583861 9:0.669035 10:0.002389 11:0.001205 12:0.001416 13:0.004699 14:0.002691 15:0.0033 16:0.066667 17:0.230769 18:0.230769 
-8 1:0.512427 2:0.600031 3:0.508971 4:0.813938 5:0.872764 6:0.707113 7:0.467914 8:0.470007 9:0.521767 10:0.001013 11:0.000644 12:0.000963 13:0.00251 14:0.002057 15:0.002598 16:0.133333 17:0.153846 18:0.230769 
-4.385737254995019 1:0.399683 2:0.531961 3:0.501893 4:0.780227 5:0.794248 6:0.76289 7:0.458394 8:0.521593 9:0.489944 10:0.000808 11:0.001139 12:0.001156 13:0.001746 14:0.002486 15:0.001752 16:0.133333 17:0.307692 18:0.230769 
-8 1:0.390374 2:0.432648 3:0.460533 4:0.839772 5:0.774569 6:0.800159 7:0.659504 8:0.651418 9:0.65799 10:0.003618 11:0.002823 12:0.003882 13:0.00445 14:0.003692 15:0.004301 16:0 17:0 18:0.076923 
-0.4802398266778125 1:0.539262 2:0.251024 3:0.286763 4:0.947078 5:0.65182 6:0.689645 7:0.359798 8:0.865119 9:0.803653 10:0.000173 11:0.013424 12:0.007789 13:0.000913 14:0.016921 15:0.008565 16:0.4 17:0 18:0.076923 
-8 1:0.208375 2:0.278328 3:0.231857 4:0.52448 5:0.555259 6:0.677987 7:0.526876 8:0.596264 9:0.638123 10:0.00189 11:0.001949 12:0.001712 13:0.003558 14:0.00367 15:0.003548 16:0.4 17:0.538462 18:0.538462 
-8 1:0.086273 2:0.121985 3:0.146831 4:0.569954 5:0.53482 6:0.558923 7:0.644067 8:0.728412 9:0.684826 10:0.008857 11:0.007646 12:0.009186 13:0.009671 14:0.009083 15:0.010366 16:0 17:0 18:0.076923 
-1.099221906104725 1:0 2:0 3:0 4:0.135516 5:0.123925 6:0.128661 7:0.953436 8:0.937949 9:0.919704 10:1 11:1 12:1 13:1 14:1 15:1 16:0 17:0 18:0.076923 
-8 1:0.427356 2:0.431373 3:0.471291 4:0.837891 5:0.859641 6:0.891476 7:0.453611 8:0.511426 9:0.49832 10:0.001981 11:0.001847 12:0.001543 13:0.00233 14:0.002054 15:0.001972 16:0.533333 17:0.615385 18:0.692308 
-8 1:0.518423 2:0.486889 3:0.518255 4:0.815296 5:0.732646 6:0.881083 7:0.5085 8:0.524484 9:0.509406 10:0.000872 11:0.000588 12:0.00046 13:0.002003 14:0.002017 15:0.00175 16:0.333333 17:0.384615 18:0.461538 
-8 1:0.427241 2:0.430364 3:0.393979 4:0.798163 5:0.719248 6:0.80407 7:0.674787 8:0.600374 9:0.682409 10:0.003443 11:0.002598 12:0.002651 13:0.005906 14:0.005126 15:0.005362 16:0.066667 17:0.076923 18:0.153846 
-8 1:0.718691 2:0.631433 3:0.714509 4:0.900325 5:0.913454 6:0.880387 7:0.323738 8:0.403918 9:0.45733 10:0.000496 11:0.000515 12:0.000506 13:0.001195 14:0.001548 15:0.001559 16:0.533333 17:0.538462 18:0.692308 
-8 1:0.195628 2:0.184287 3:0.163818 4:0.472182 5:0.497484 6:0.333933 7:0.881436 8:0.819065 9:0.909568 10:0.017636 11:0.010446 12:0.017491 13:0.032477 14:0.016727 15:0.02897 16:0 17:0 18:0.076923 
-7.293208242138117 1:0.731654 2:0.687297 3:0.661556 4:0.797843 5:0.817467 6:0.802266 7:0.483651 8:0.327929 9:0.480103 10:0.000333 11:0 12:0.000211 13:0.001714 14:0.001288 15:0.001609 16:0.4 17:0.538462 18:0.615385 
-3.57305826314851 1:0.726311 2:0.785269 3:0.788173 4:0.849075 5:0.863098 6:0.91366 7:0.245321 8:0.290893 9:0.213501 10:0.000478 11:0.000241 12:0.000143 13:0.000686 14:0.000675 15:0.000576 16:0.133333 17:0.153846 18:0.230769 
-8 1:0.391996 2:0.312948 3:0.363055 4:0.692031 5:0.6259 6:0.657149 7:0.696749 8:0.669765 9:0.600042 10:0.00223 11:0.002162 12:0.001945 13:0.003716 14:0.003687 15:0.003511 16:0.466667 17:0.538462 18:0.615385 
-8 1:0.447363 2:0.454908 3:0.456787 4:0.810207 5:0.787059 6:0.798743 7:0.719744 8:0.74208 9:0.720559 10:0.003562 11:0.003653 12:0.003896 13:0.00537 14:0.005812 15:0.005651 16:0 17:0 18:0.076923 
-8 1:0.359199 2:0.480658 3:0.399923 4:0.748602 5:0.638062 6:0.662253 7:0.651103 8:0.644807 9:0.667812 10:0.002998 11:0.002244 12:0.002919 13:0.005364 14:0.004972 15:0.005162 16:0.066667 17:0.076923 18:0.153846 
-8 1:0.499725 2:0.411801 3:0.395751 4:0.897838 5:0.848327 6:0.853088 7:0.396689 8:0.477494 9:0.470188 10:0.000835 11:0.000908 12:0.000857 13:0.001437 14:0.001622 15:0.00156 16:0.6 17:0.692308 18:0.769231 
-8 1:0.613673 2:0.577884 3:0.644886 4:0.923496 5:0.902403 6:0.945796 7:0.551041 8:0.511426 9:0.602615 10:0.002184 11:0.001015 12:0.00128 13:0.003429 14:0.00245 15:0.003037 16:0.066667 17:0.230769 18:0.307692 
-8 1:0.424721 2:0.590798 3:0.629494 4:0.799873 5:0.79113 6:0.791316 7:0.321999 8:0.44883 9:0.41502 10:0.000856 11:0.000534 12:0.00084 13:0.001855 14:0.001431 15:0.001684 16:0.266667 17:0.461538 18:0.384615 
-8 1:0.347421 2:0.39441 3:0.37805 4:0.718286 5:0.681258 6:0.754688 7:0.730447 8:0.760506 9:0.764468 10:0.002393 11:0.002081 12:0.002679 13:0.005462 14:0.005168 15:0.006638 16:0.066667 17:0.076923 18:0.153846 
-0.4922733852187164 1:0.662016 2:0.631189 3:0.797365 4:0.944649 5:0.691037 6:0.965394 7:0.3564 8:0.367246 9:0.372833 10:0.000266 11:0.000212 12:0.000136 13:0.00112 14:0.000962 15:0.001073 16:0.266667 17:0.230769 18:0.461538 
-8 1:0.683591 2:0.502014 3:0.81715 4:0.90812 5:0.736893 6:0.890097 7:0.477376 8:0.528809 9:0.554173 10:0.000964 11:0.000623 12:0.000735 13:0.00217 14:0.001919 15:0.002478 16:0.4 17:0.538462 18:0.615385 
-8 1:0.512274 2:0.540515 3:0.541647 4:0.82696 5:0.763674 6:0.874628 7:0.328941 8:0.424229 9:0.250989 10:0.000168 11:0.000611 12:0.000135 13:0.000718 14:0.001474 15:0.000888 16:0.266667 17:0.153846 18:0.461538 
-8 1:0.184046 2:0.238387 3:0.262151 4:0.664655 5:0.633276 6:0.691358 7:0.737099 8:0.760506 9:0.749611 10:0.007995 11:0.006402 12:0.005636 13:0.009344 14:0.007896 15:0.006884 16:0 17:0 18:0.076923 
-8 1:0.414805 2:0.562914 3:0.517509 4:0.748702 5:0.860877 6:0.708323 7:0.406598 8:0.640825 9:0.455893 10:0.00086 11:0.001491 12:0.000695 13:0.001641 14:0.003476 15:0.001851 16:0.133333 17:0.153846 18:0.230769 
-8 1:0.249425 2:0.247858 3:0.241972 4:0.390869 5:0.380688 6:0.359796 7:0.972915 8:1 9:0.991423 10:0.046574 11:0.048924 12:0.044969 13:0.057568 14:0.059857 15:0.056995 16:0 17:0 18:0.076923 
-8 1:0.383949 2:0.453983 3:0.404507 4:0.757446 5:0.666072 6:0.720499 7:0.622764 8:0.677555 9:0.673914 10:0.001865 11:0.001704 12:0.002909 13:0.003644 14:0.003631 15:0.004697 16:0.2 17:0.230769 18:0.153846 
-8 1:0.371192 2:0.418694 3:0.404509 4:0.749578 5:0.769929 6:0.776063 7:0.554035 8:0.699395 9:0.610305 10:0.001828 11:0.001899 12:0.002023 13:0.004643 14:0.004213 15:0.004485 16:0.133333 17:0.076923 18:0.153846 
-8 1:0.322004 2:0.399492 3:0.500179 4:0.83387 5:0.800123 6:0.807967 7:0.629898 8:0.648777 9:0.620489 10:0.003072 11:0.002209 12:0.002425 13:0.005126 14:0.004259 15:0.004822 16:0.066667 17:0.076923 18:0.153846 
-8 1:0.497693 2:0.503008 3:0.705251 4:0.776114 5:0.775167 6:0.892528 7:0.493017 8:0.533122 9:0.481514 10:0.000425 11:0.000755 12:0.000178 13:0.001814 14:0.002252 15:0.001742 16:0.2 17:0.153846 18:0.461538 
-1.779908097275188 1:0.390692 2:0.506459 3:0.525233 4:0.344833 5:0.828846 6:0.813558 7:0.539006 8:0.425779 9:0.453016 10:0.004083 11:0.000321 12:0.001175 13:0.008155 14:0.001053 15:0.002486 16:0 17:0.384615 18:0.153846 
-8 1:0.248425 2:0.237202 3:0.152562 4:0.574649 5:0.614944 6:0.644577 7:0.656709 8:0.68916 9:0.684826 10:0.005588 11:0.004569 12:0.006964 13:0.006197 14:0.005871 15:0.007929 16:0 17:0 18:0.076923 
-8 1:0.433797 2:0.47374 3:0.415939 4:0.852956 5:0.770859 6:0.644055 7:0.458394 8:0.478986 9:0.544803 10:0.000731 11:0.000823 12:0.000833 13:0.001748 14:0.0025 15:0.0022 16:0.333333 17:0.384615 18:0.307692 
-8 1:0.32769 2:0.479318 3:0.404508 4:0.807349 5:0.808988 6:0.802414 7:0.561494 8:0.433505 9:0.640623 10:0.001665 11:0.000705 12:0.001473 13:0.003372 14:0.001587 15:0.003541 16:0.133333 17:0.384615 18:0.230769 
-8 1:0.234034 2:0.298477 3:0.250706 4:0.736592 5:0.739028 6:0.794229 7:0.588053 8:0.696843 9:0.732257 10:0.002619 11:0.00227 12:0.002273 13:0.005831 14:0.005416 15:0.005334 16:0.066667 17:0.076923 18:0.153846 
-8 1:0.643634 2:0.600495 3:0.692085 4:0.902052 5:0.817751 6:0.879371 7:0.482085 8:0.578313 9:0.646852 10:0.00212 11:0.001243 12:0.000969 13:0.003523 14:0.002545 15:0.002813 16:0.133333 17:0.230769 18:0.384615 
-8 1:0.347018 2:0.418158 3:0.395418 4:0.582932 5:0.638027 6:0.7995 7:0.585124 8:0.561536 9:0.611583 10:0.001595 11:0.000898 12:0.001618 13:0.003509 14:0.002697 15:0.004095 16:0.133333 17:0.307692 18:0.230769 
-8 1:0.307996 2:0.392779 3:0.361908 4:0.809825 5:0.771765 6:0.815603 7:0.653908 8:0.66324 9:0.693251 10:0.001211 11:0.001118 12:0.001454 13:0.00483 14:0.004872 15:0.005144 16:0.333333 17:0.461538 18:0.461538 
-8 1:0.469208 2:0.659652 3:0.540082 4:0.756166 5:0.892543 6:0.689123 7:0.534468 8:0.607197 9:0.576652 10:0.001077 11:0.001101 12:0.000973 13:0.002818 14:0.002925 15:0.002735 16:0.533333 17:0.692308 18:0.769231 
-5.46692954453605 1:1 2:0.78992 3:0.630566 4:0.914592 5:0.866674 6:0.898065 7:0.398345 8:0.411765 9:0.523134 10:0.000162 11:0.000413 12:0.001053 13:0.001107 14:0.00132 15:0.002332 16:0.733333 17:0.153846 18:0.153846 
-8 1:0.201411 2:0.263961 3:0.178398 4:0.580854 5:0.551118 6:0.553649 7:0.681684 8:0.600374 9:0.641871 10:0.006789 11:0.004794 12:0.006607 13:0.007137 14:0.005159 15:0.007274 16:0 17:0 18:0.076923 
-1.754877374060743 1:0.301637 2:0.274893 3:0.280947 4:0.496784 5:0.47345 6:0.597312 7:0.516183 8:0.607197 9:0.48714 10:0.002331 11:0.001538 12:0.001053 13:0.002961 14:0.002447 15:0.002057 16:0.066667 17:0.076923 18:0.153846 
-8 1:0.172919 2:0.161168 3:0.163936 4:0.498161 5:0.440752 6:0.474326 7:0.933707 8:0.947594 9:0.935762 10:0.044984 11:0.043647 12:0.047495 13:0.079248 14:0.077364 15:0.082287 16:0 17:0 18:0.076923 
-8 1:0.2504 2:0.355645 3:0.334763 4:0.675338 5:0.676572 6:0.690825 7:0.652506 8:0.678849 9:0.692051 10:0.001821 11:0.001799 12:0.001991 13:0.005824 14:0.005216 15:0.005591 16:0.2 17:0.461538 18:0.461538 
-6.567099109960179 1:0.245816 2:0.309054 3:0.301437 4:0.660819 5:0.655264 6:0.667351 7:0.663687 8:0.642154 9:0.682409 10:0.00605 11:0.005068 12:0.004366 13:0.005948 14:0.005358 15:0.004508 16:0 17:0 18:0.076923 
