svm_type c_svc
kernel_type rbf
gamma 0.0625
nr_class 2
total_sv 164
rho 3.01148
label 1 2
probA -0.979986
probB 0.038192
nr_sv 83 81
SV
16 1:0.731866 2:0.707805 3:0.617035 4:0.863933 5:0.873862 6:0.783339 7:0.254056 8:0.233776 9:0.305968 10:1.8e-05 11:5.4e-05 12:0.000108 13:9.8e-05 14:0.000117 15:0.00016 16:0.545455 17:0.454545 18:0.2 
16 1:0.519104 2:0.676104 3:0.512644 4:0.73415 5:0.69912 6:0.713475 7:0.239014 8:0.323068 9:0.406881 10:8.9e-05 11:0.000103 12:0.000164 13:0.000116 14:0.000138 15:0.000202 16:0.636364 17:0.636364 18:0.2 
16 1:0.216187 2:0.30224 3:0.226127 4:0.687282 5:0.724989 6:0.632912 7:0.837129 8:0.802917 9:0.826611 10:0.00427 11:0.003061 12:0.004435 13:0.00459 14:0.003398 15:0.004431 16:0.090909 17:0.090909 18:0.05 
16 1:0.979822 2:0.495093 3:0.620765 4:0.773246 5:0.805925 6:0.83441 7:0.713621 8:0.548473 9:0.615175 10:0.000428 11:0.000465 12:0.000574 13:0.001022 14:0.000631 15:0.00072 16:0.545455 17:0.181818 18:0.1 
16 1:0.204934 2:0.276091 3:0.264207 4:0.570907 5:0.455952 6:0.501146 7:0.691753 8:0.730049 9:0.741929 10:0.001213 11:0.000915 12:0.001265 13:0.001487 14:0.00138 15:0.001602 16:0.090909 17:0.181818 18:0.05 
16 1:0.171364 2:0.255916 3:0.193956 4:0.48812 5:0.525305 6:0.510172 7:0.759883 8:0.784839 9:0.786977 10:0.002478 11:0.00256 12:0.002619 13:0.001906 14:0.001747 15:0.001829 16:0.272727 17:0.272727 18:0.15 
16 1:0.493368 2:0.565941 3:0.481901 4:0.754934 5:0.753841 6:0.740904 7:0.450999 8:0.456023 9:0.473594 10:0.0003 11:0.000146 12:0.000145 13:0.000435 14:0.000313 15:0.000327 16:0.272727 17:0.454545 18:0.25 
16 1:0.324187 2:0.400249 3:0.312591 4:0.680667 5:0.665677 6:0.532819 7:0.672031 8:0.620827 9:0.69408 10:0.001192 11:0.000618 12:0.000941 13:0.001156 14:0.000799 15:0.00107 16:0.181818 17:0.363636 18:0.15 
0.9514101114157991 1:0.271234 2:0.461708 3:0.350618 4:0.607626 5:0.728597 6:0.576841 7:0.731591 8:0.758259 9:0.760149 10:0.002768 11:0.001777 12:0.002136 13:0.00284 14:0.001919 15:0.002277 16:0.090909 17:0.090909 18:0.05 
16 1:0.444215 2:0.624487 3:0.409337 4:0.664839 5:0.789846 6:0.750758 7:0.56912 8:0.55213 9:0.592312 10:0.000997 11:0.000414 12:0.000666 13:0.000699 14:0.000445 15:0.000532 16:0.090909 17:0.181818 18:0.1 
16 1:0.52349 2:0.667192 3:0.419062 4:0.656143 5:0.717915 6:0.701267 7:0.550324 8:0.605753 9:0.547649 10:0.000393 11:0.000344 12:0.000356 13:0.000551 14:0.000649 15:0.000517 16:0.363636 17:0.545455 18:0.2 
13.28825789552347 1:0.753778 2:0.838832 3:0.70832 4:0.919949 5:0.906557 6:0.80043 7:0.478262 8:0.536203 9:0.564296 10:0.000102 11:9.3e-05 12:0.000116 13:0.000439 14:0.000503 15:0.000528 16:0.818182 17:0.818182 18:0.45 
16 1:0.469616 2:0.510694 3:0.386033 4:0.792555 5:0.774744 6:0.707665 7:0.679459 8:0.664994 9:0.71928 10:0.001583 11:0.000954 12:0.001407 13:0.001399 14:0.00094 15:0.001299 16:0.090909 17:0.090909 18:0.05 
16 1:0.563051 2:0.736209 3:0.618105 4:0.895667 5:0.887536 6:0.819678 7:0.602083 8:0.536203 9:0.541648 10:0.000479 11:0.000297 12:0.000351 13:0.000583 14:0.000429 15:0.000441 16:0.181818 17:0.272727 18:0.15 
16 1:0.411465 2:0.410676 3:0.362174 4:0.667924 5:0.677224 6:0.665413 7:0.621501 8:0.717304 9:0.725499 10:0.000696 11:0.000967 12:0.001033 13:0.000866 14:0.001039 15:0.001318 16:0.272727 17:0.090909 18:0.05 
16 1:0.586018 2:0.603789 3:0.47857 4:0.848368 5:0.822938 6:0.80131 7:0.55841 8:0.546028 9:0.64978 10:0.00034 11:0.000403 12:0.000384 13:0.000763 14:0.000636 15:0.000704 16:0.454545 17:0.363636 18:0.2 
3.982051156040796 1:0.361934 2:0.489004 3:0.395403 4:0.296131 5:0.280367 6:0.25178 7:0.793337 8:0.757226 9:0.774134 10:0.005859 11:0.00484 12:0.003686 13:0.004798 14:0.004051 15:0.003538 16:0.090909 17:0.181818 18:0.1 
16 1:0.584046 2:0.600398 3:0.533991 4:0.750588 5:0.786746 6:0.687359 7:0.562436 8:0.555777 9:0.584208 10:0.000293 11:0.000266 12:0.000261 13:0.000694 14:0.000689 15:0.000714 16:0.363636 17:0.454545 18:0.2 
16 1:0.557756 2:0.683387 3:0.636949 4:0.856983 5:0.844502 6:0.866153 7:0.609882 8:0.492292 9:0.630925 10:0.00063 11:0.00044 12:0.000556 13:0.000829 14:0.00067 15:0.000913 16:0.181818 17:0.272727 18:0.15 
16 1:0.324136 2:0.451246 3:0.315113 4:0.787274 5:0.90845 6:0.763411 7:0.635576 8:0.683771 9:0.662914 10:0.000661 11:0.000667 12:0.000644 13:0.000954 14:0.000996 15:0.000948 16:0.727273 17:0.727273 18:0.4 
16 1:0.447825 2:0.450122 3:0.337014 4:0.72803 5:0.729651 6:0.621488 7:0.548972 8:0.660535 9:0.722394 10:0.00066 11:0.000915 12:0.000977 13:0.000767 14:0.000981 15:0.00113 16:0.090909 17:0.090909 18:0.05 
16 1:0.307893 2:0.296865 3:0.273702 4:0.711414 5:0.770032 6:0.685862 7:0.6942 8:0.727934 9:0.764161 10:0.00151 11:0.001566 12:0.001533 13:0.001271 14:0.001287 15:0.00133 16:0.545455 17:0.545455 18:0.3 
16 1:0.169478 2:0.24242 3:0.219387 4:0.383141 5:0.409212 6:0.396577 7:0.847047 8:0.863265 9:0.87234 10:0.002015 11:0.002039 12:0.002032 13:0.004115 14:0.004111 15:0.004101 16:0.272727 17:0.272727 18:0.15 
16 1:0.446162 2:0.583935 3:0.468387 4:0.653877 5:0.692792 6:0.687207 7:0.636849 8:0.685961 9:0.653077 10:0.000473 11:0.00049 12:0.000603 13:0.000855 14:0.000911 15:0.00104 16:0.272727 17:0.272727 18:0.15 
16 1:0.442852 2:0.561728 3:0.597761 4:0.575651 5:0.608347 6:0.677828 7:0.396368 8:0.456023 9:0.564296 10:0.00014 11:0.000197 12:0.000256 13:0.000276 14:0.000314 15:0.000349 16:0.454545 17:0.454545 18:0.2 
16 1:0.499803 2:0.594199 3:0.530686 4:0.746645 5:0.78575 6:0.738661 7:0.550324 8:0.65718 9:0.588846 10:0.000322 11:0.000331 12:0.000327 13:0.000605 14:0.000582 15:0.000578 16:0.636364 17:0.727273 18:0.4 
16 1:0.729746 2:0.70107 3:0.586926 4:0.803033 5:0.961682 6:0.689876 7:0.432041 8:0.466493 9:0.498785 10:0.000108 11:8.2e-05 12:0.000131 13:0.000249 14:0.000241 15:0.000256 16:0.727273 17:0.818182 18:0.4 
16 1:0.573019 2:0.657688 3:0.598228 4:0.8043 5:0.712595 6:0.812257 7:0.33486 8:0.432142 9:0.40149 10:9.6e-05 11:0.000125 12:0.000114 13:0.00031 14:0.000336 15:0.000273 16:0.818182 17:0.727273 18:0.45 
16 1:0.351956 2:0.548427 3:0.464569 4:0.790419 5:0.796366 6:0.788245 7:0.630474 8:0.418676 9:0.447868 10:0.000604 11:0.000159 12:0.000181 13:0.000614 14:0.000238 15:0.000252 16:0.272727 17:0.545455 18:0.3 
3.177860674067657 1:0.131674 2:0.180205 3:0.161489 4:0.19373 5:0.203814 6:0.191675 7:1 8:1 9:1 10:1 11:1 12:1 13:1 14:1 15:1 16:0.090909 17:0.090909 18:0.05 
16 1:0.614392 2:0.618404 3:0.589365 4:0.937054 5:0.923079 6:0.762654 7:0.50362 8:0.457337 9:0.468493 10:0.000109 11:8.7e-05 12:0.000116 13:0.000298 14:0.000252 15:0.000271 16:0.636364 17:0.818182 18:0.4 
16 1:0.36078 2:0.526799 3:0.465865 4:0.683058 5:0.737612 6:0.649385 7:0.536745 8:0.533735 9:0.514883 10:0.000492 11:0.000283 12:0.000242 13:0.00053 14:0.000357 15:0.000338 16:0.090909 17:0.181818 18:0.15 
16 1:0.328852 2:0.418732 3:0.308209 4:0.726225 5:0.767944 6:0.699033 7:0.674511 8:0.677175 9:0.661825 10:0.001863 11:0.001403 12:0.001506 13:0.001483 14:0.001259 15:0.001242 16:0.090909 17:0.181818 18:0.05 
16 1:0.274415 2:0.344363 3:0.302229 4:0.576422 5:0.601086 6:0.546986 7:0.762215 8:0.805904 9:0.79188 10:0.001858 11:0.00201 12:0.002084 13:0.002569 14:0.002564 15:0.002614 16:0.272727 17:0.181818 18:0.1 
16 1:0.571852 2:0.595605 3:0.524441 4:0.695136 5:0.743012 6:0.674376 7:0.473992 8:0.525058 9:0.546451 10:0.000505 11:0.000497 12:0.000484 13:0.000426 14:0.000423 15:0.00041 16:0.909091 17:0.909091 18:0.5 
16 1:0.27522 2:0.324245 3:0.247855 4:0.493395 5:0.516352 6:0.455633 7:0.748162 8:0.721567 9:0.755115 10:0.003581 11:0.003035 12:0.003487 13:0.002694 14:0.002438 15:0.00269 16:0.090909 17:0.090909 18:0.05 
16 1:0.306987 2:0.245979 3:0.215085 4:0.66395 5:0.589164 6:0.561922 7:0.672031 8:0.728992 9:0.669428 10:0.001091 11:0.000919 12:0.000785 13:0.001287 14:0.001239 15:0.001161 16:0.363636 17:0.545455 18:0.3 
16 1:0.263436 2:0.30181 3:0.278596 4:0.724791 5:0.798746 6:0.729233 7:0.644461 8:0.667217 9:0.659644 10:0.000506 11:0.000541 12:0.000537 13:0.000977 14:0.000992 15:0.000935 16:0.454545 17:0.454545 18:0.25 
16 1:0.316068 2:0.389021 3:0.311699 4:0.674805 5:0.602079 6:0.644888 7:0.667058 8:0.644802 9:0.667261 10:0.000675 11:0.000484 12:0.000381 13:0.001337 14:0.001208 15:0.001039 16:0.272727 17:0.363636 18:0.2 
16 1:0.142151 2:0.237751 3:0.238761 4:0.481676 5:0.529599 6:0.495894 7:0.612472 8:0.559413 9:0.594618 10:0.000758 11:0.0006 12:0.000719 13:0.000634 14:0.000512 15:0.000575 16:0.090909 17:0.090909 18:0.05 
16 1:0.26547 2:0.38224 3:0.346737 4:0.676756 5:0.728068 6:0.669669 7:0.650774 8:0.645932 9:0.648679 10:0.001278 11:0.001088 12:0.001089 13:0.00099 14:0.000913 15:0.000895 16:0.090909 17:0.090909 18:0.05 
16 1:0.55899 2:0.688545 3:0.582359 4:0.852806 5:0.913876 6:0.814463 7:0.543551 8:0.548473 9:0.554812 10:0.000507 11:0.000478 12:0.000504 13:0.000444 14:0.000398 15:0.000398 16:0.272727 17:0.272727 18:0.15 
16 1:0.709982 2:0.758404 3:0.655901 4:0.852835 5:0.861585 6:0.732412 7:0.152435 8:0.222749 9:0.283844 10:3e-05 11:4.2e-05 12:5.9e-05 13:6.7e-05 14:5.5e-05 15:8.7e-05 16:0.363636 17:0.363636 18:0.2 
16 1:0.214318 2:0.297958 3:0.245866 4:0.563221 5:0.638055 6:0.592073 7:0.680693 8:0.708736 9:0.69408 10:0.002027 11:0.001628 12:0.001715 13:0.001707 14:0.001458 15:0.001445 16:0.090909 17:0.090909 18:0.05 
16 1:0.6483 2:0.676638 3:0.524665 4:0.795144 5:0.791533 6:0.730082 7:0.364406 8:0.441483 9:0.468493 10:8e-05 11:0.000124 12:0.00013 13:0.000216 14:0.000235 15:0.000274 16:0.818182 17:0.818182 18:0.45 
16 1:0.767735 2:0.791476 3:0.7673 4:0.95865 5:0.917093 6:0.837141 7:0.369016 8:0.37599 9:0.425563 10:0.000163 11:0.000174 12:0.000175 13:0.000341 14:0.000213 15:0.000222 16:0.545455 17:0.272727 18:0.15 
16 1:0.433299 2:0.532379 3:0.466814 4:0.631 5:0.853055 6:0.777506 7:0.446647 8:0.489736 9:0.459513 10:0.000234 11:0.000129 12:0.000156 13:0.000343 14:0.000288 15:0.000298 16:0.545455 17:0.727273 18:0.4 
16 1:0.33 2:0.356989 3:0.313897 4:0.565792 5:0.786088 6:0.6251 7:0.620215 8:0.59521 9:0.711984 10:0.000454 11:0.000344 12:0.000548 13:0.000754 14:0.000763 15:0.000904 16:0.454545 17:0.545455 18:0.25 
16 1:0.110112 2:0.256084 3:0.161986 4:0.644858 5:0.701829 6:0.582753 7:0.679459 8:0.608084 9:0.665089 10:0.00108 11:0.000744 12:0.000997 13:0.001094 14:0.000829 15:0.000989 16:0.090909 17:0.090909 18:0.05 
16 1:0.342163 2:0.402931 3:0.388495 4:0.704002 5:0.718243 6:0.74844 7:0.418768 8:0.425427 9:0.482471 10:0.000218 11:0.000156 12:0.000216 13:0.000278 14:0.000259 15:0.000377 16:0.181818 17:0.272727 18:0.15 
16 1:0.312078 2:0.367269 3:0.315731 4:0.546047 5:0.548432 6:0.448424 7:0.670789 8:0.672759 9:0.711984 10:0.000575 11:0.000556 12:0.000484 13:0.001145 14:0.001122 15:0.001066 16:0.454545 17:0.454545 18:0.25 
16 1:0.323211 2:0.365088 3:0.352196 4:0.547062 5:0.637876 6:0.577447 7:0.691753 8:0.714098 9:0.781066 10:0.001444 11:0.001431 12:0.00169 13:0.001738 14:0.001651 15:0.001707 16:0.272727 17:0.272727 18:0.15 
16 1:0.327812 2:0.417636 3:0.348732 4:0.561828 5:0.611529 6:0.571402 7:0.644461 8:0.664994 9:0.695141 10:0.00103 11:0.000926 12:0.000985 13:0.001383 14:0.001301 15:0.001355 16:0.090909 17:0.090909 18:0.05 
16 1:0.139393 2:0.19725 3:0.186327 4:0.397839 5:0.428389 6:0.424202 7:0.811466 8:0.843147 9:0.833251 10:0.004631 11:0.004235 12:0.004099 13:0.003902 14:0.003615 15:0.003549 16:0.454545 17:0.454545 18:0.25 
15.47642750161368 1:0.173846 2:0.387311 3:0.295834 4:0.537832 5:0.570461 6:0.554871 7:0.717233 8:0.705508 9:0.727565 10:0.000808 11:0.000513 12:0.000535 13:0.00188 14:0.001493 15:0.001488 16:0.363636 17:0.636364 18:0.35 
16 1:0.398202 2:0.287187 3:0.265198 4:0.796309 5:0.736121 6:0.638797 7:0.620215 8:0.65606 9:0.667261 10:0.000475 11:0.000496 12:0.000504 13:0.000767 14:0.000711 15:0.000711 16:0.636364 17:0.545455 18:0.3 
16 1:0.21343 2:0.320036 3:0.196762 4:0.688493 5:0.720796 6:0.704963 7:0.676987 8:0.682674 9:0.744985 10:0.002374 11:0.002229 12:0.002603 13:0.002523 14:0.002084 15:0.002541 16:0.090909 17:0.090909 18:0.05 
16 1:0.671513 2:0.619286 3:0.787203 4:0.693661 5:0.707016 6:0.684532 7:0.440822 8:0.433481 9:0.528339 10:4.2e-05 11:5.6e-05 12:6.7e-05 13:0.000267 14:0.000271 15:0.000338 16:0.818182 17:0.818182 18:0.45 
16 1:0.576331 2:0.666396 3:0.553712 4:0.793268 5:0.863931 6:0.763796 7:0.574446 8:0.561832 9:0.545252 10:0.000246 11:0.000177 12:0.000239 13:0.000535 14:0.000529 15:0.00052 16:0.454545 17:0.545455 18:0.3 
16 1:0.310461 2:0.421655 3:0.299633 4:0.679467 5:0.762478 6:0.593544 7:0.713621 8:0.653816 9:0.787959 10:0.001876 11:0.001298 12:0.002623 13:0.001656 14:0.001154 15:0.00204 16:0.181818 17:0.181818 18:0.1 
16 1:0.151264 2:0.200214 3:0.143178 4:0.366034 5:0.49026 6:0.293317 7:0.718435 8:0.68924 9:0.725499 10:0.001954 11:0.001463 12:0.002243 13:0.002326 14:0.001573 15:0.002226 16:0.090909 17:0.090909 18:0.05 
16 1:0.551032 2:0.617553 3:0.59905 4:0.770311 5:0.840135 6:0.80075 7:0.629196 8:0.602248 9:0.630925 10:0.000965 11:0.000951 12:0.000892 13:0.0008 14:0.000767 15:0.00074 16:0.090909 17:0.090909 18:0.05 
16 1:0.638713 2:0.907171 3:0.758271 4:0.66315 5:0.759107 6:0.912298 7:0.486765 8:0.374589 9:0.424238 10:0.00041 11:0.000122 12:0.000139 13:0.000632 14:0.000184 15:0.000233 16:0.090909 17:0.363636 18:0.2 
16 1:0.58223 2:0.688384 3:0.53701 4:0.737119 5:0.711409 6:0.783917 7:0.602083 8:0.635722 9:0.666176 10:0.000685 11:0.000652 12:0.000789 13:0.001018 14:0.000998 15:0.00113 16:0.272727 17:0.272727 18:0.1 
16 1:0.311076 2:0.39145 3:0.302747 4:0.622148 5:0.6989 6:0.622077 7:0.485351 8:0.457337 9:0.491283 10:0.000357 11:0.000282 12:0.000396 13:0.000409 14:0.000299 15:0.00044 16:0.181818 17:0.181818 18:0.1 
16 1:0.215692 2:0.305287 3:0.202141 4:0.473001 5:0.557195 6:0.384587 7:0.711207 8:0.645932 9:0.728597 10:0.002496 11:0.002 12:0.002308 13:0.002012 14:0.001606 15:0.001857 16:0.090909 17:0.090909 18:0.05 
16 1:0.243294 2:0.355365 3:0.266856 4:0.540273 5:0.634701 6:0.522598 7:0.791055 8:0.751006 9:0.786977 10:0.004223 11:0.002696 12:0.003568 13:0.003535 14:0.00228 15:0.003016 16:0.090909 17:0.090909 18:0.05 
16 1:0.466439 2:0.593142 3:0.432952 4:0.773164 5:0.706156 6:0.639715 7:0.600779 8:0.578632 9:0.625323 10:0.000794 11:0.000767 12:0.001093 13:0.001057 14:0.000856 15:0.001183 16:0.181818 17:0.090909 18:0.05 
16 1:0.618943 2:0.788404 3:0.651458 4:0.838406 5:0.855498 6:0.825982 7:0.406865 8:0.407799 9:0.36585 10:0.000133 11:9e-05 12:0.000108 13:0.000224 14:0.000201 15:0.000192 16:0.272727 17:0.545455 18:0.3 
16 1:0.414801 2:0.300367 3:0.456985 4:0.778815 5:0.604699 6:0.816256 7:0.63812 8:0.733215 9:0.544052 10:0.000992 11:0.001126 12:0.000395 13:0.001011 14:0.001383 15:0.0004 16:0.090909 17:0.090909 18:0.1 
16 1:0.610889 2:0.777843 3:0.530879 4:0.827789 5:0.765705 6:0.798227 7:0.303084 8:0.357649 9:0.445265 10:0.000193 11:0.000147 12:0.000226 13:0.000186 14:0.000188 15:0.000282 16:0.181818 17:0.272727 18:0.1 
16 1:0.733913 2:0.653768 3:0.514629 4:0.820286 5:0.863012 6:0.742928 7:0.211875 8:0.429461 9:0.408225 10:3e-05 11:0.00022 12:3.2e-05 13:7.8e-05 14:0.000238 15:0.000144 16:0.909091 17:0.363636 18:0.6 
16 1:0.591421 2:0.750709 3:0.826558 4:0.874695 5:0.919121 6:0.955148 7:0.390335 8:0.337593 9:0.205447 10:0.000157 11:8e-05 12:3.1e-05 13:0.000269 14:0.000165 15:0.000111 16:0.272727 17:0.363636 18:0.35 
16 1:0.537492 2:0.567942 3:0.515915 4:0.65445 5:0.826922 6:0.811013 7:0.415801 8:0.482036 9:0.447868 10:0.000252 11:0.000257 12:0.000207 13:0.000291 14:0.00028 15:0.000259 16:0.272727 17:0.181818 18:0.15 
16 1:0.126461 2:0.112454 3:0.234962 4:0.635318 5:0.614114 6:0.531302 7:0.742266 8:0.788879 9:0.818979 10:0.003414 11:0.002819 12:0.003847 13:0.002932 14:0.002468 15:0.004315 16:0.090909 17:0.090909 18:0.05 
16 1:0.538973 2:0.520196 3:0.61209 4:0.829574 5:0.812733 6:0.703885 7:0.583718 8:0.617364 9:0.558377 10:0.000198 11:0.00022 12:0.00025 13:0.000494 14:0.000542 15:0.00053 16:0.545455 17:0.545455 18:0.35 
16 1:0.654789 2:0.563522 3:0.435131 4:0.732264 5:0.860913 6:0.82214 7:0.453894 8:0.391304 9:0.659644 10:0.000148 11:0.000185 12:0.000258 13:0.000247 14:0.000254 15:0.000653 16:0.454545 17:0.363636 18:0.3 
16 1:0.286978 2:0.374543 3:0.199581 4:0.687862 5:0.609221 6:0.615517 7:0.536745 8:0.537436 9:0.566656 10:0.000257 11:0.000326 12:0.000309 13:0.000449 14:0.000456 15:0.000513 16:0.272727 17:0.181818 18:0.1 
16 1:0.42665 2:0.584872 3:0.433059 4:0.623923 5:0.709579 6:0.740664 7:0.406865 8:0.456023 9:0.54285 10:0.000151 11:0.000196 12:0.000423 13:0.000295 14:0.000321 15:0.000607 16:0.454545 17:0.363636 18:0.1 
16 1:0.716983 2:0.916935 3:0.839194 4:0.892969 5:0.964402 6:0.941913 7:0.472566 8:0.478168 9:0.513653 10:0.000205 11:0.000109 12:0.000141 13:0.00047 14:0.00033 15:0.000359 16:0.545455 17:0.727273 18:0.35 
16 1:0.79378 2:0.838666 3:0.702564 4:0.856154 5:0.908782 6:0.759558 7:0.24739 8:0.339036 9:0.331995 10:8.6e-05 11:8.7e-05 12:9.8e-05 13:0.000158 14:0.000184 15:0.000185 16:0.363636 17:0.454545 18:0.25 
16 1:0.284559 2:0.40925 3:0.431196 4:0.321447 5:0.308903 6:0.329327 7:0.543551 8:0.55213 9:0.610637 10:0.001165 11:0.001009 12:0.001004 13:0.001273 14:0.001021 15:0.001121 16:0.090909 17:0.090909 18:0.05 
16 1:0.380405 2:0.469646 3:0.372297 4:0.727415 5:0.783491 6:0.746199 7:0.525789 8:0.583391 9:0.587688 10:0.000293 11:0.000263 12:0.000327 13:0.00046 14:0.00046 15:0.000507 16:0.454545 17:0.545455 18:0.25 
-16 1:0.10068 2:0.243053 3:0.240484 4:0.427628 5:0.483102 6:0.468643 7:0.76919 8:0.694686 9:0.757132 10:0.002489 11:0.001933 12:0.001773 13:0.001859 14:0.001301 15:0.001181 16:0.090909 17:0.090909 18:0.05 
-16 1:0.147258 2:0.214936 3:0.185864 4:0.522193 5:0.551742 6:0.519018 7:0.891378 8:0.92899 9:0.880554 10:0.007094 11:0.00715 12:0.0072 13:0.008343 14:0.008427 15:0.008483 16:0.727273 17:0.727273 18:0.4 
-16 1:0.356825 2:0.418732 3:0.299161 4:0.667677 5:0.695688 6:0.634579 7:0.777284 8:0.703351 9:0.750061 10:0.001742 11:0.00172 12:0.001941 13:0.001637 14:0.001573 15:0.001732 16:0.090909 17:0.090909 18:0.05 
-16 1:0.115782 2:0.177557 3:0.17447 4:0.428861 5:0.467128 6:0.417384 7:0.878545 8:0.856595 9:0.839854 10:0.007999 11:0.006346 12:0.006697 13:0.006146 14:0.005242 15:0.005456 16:0.090909 17:0.090909 18:0.05 
-16 1:0.908395 2:0.79077 3:0.812299 4:1 5:0.874223 6:0.882145 7:0.567786 8:0.575051 9:0.544052 10:0.000141 11:0.000174 12:0.000191 13:0.000515 14:0.000509 15:0.000503 16:0.909091 17:0.909091 18:0.5 
-16 1:0.567342 2:0.593015 3:0.511325 4:0.722281 5:0.702054 6:0.582593 7:0.579751 8:0.594033 9:0.698317 10:0.000861 11:0.000642 12:0.001116 13:0.00093 14:0.000814 15:0.001258 16:0.090909 17:0.090909 18:0.05 
-16 1:0.479551 2:0.671355 3:0.466524 4:0.767825 5:0.808237 6:0.737611 7:0.466847 8:0.542353 9:0.563115 10:0.000338 11:0.000253 12:0.00032 13:0.000452 14:0.000405 15:0.000447 16:0.090909 17:0.272727 18:0.1 
-16 1:0.37096 2:0.364151 3:0.207791 4:0.745945 5:0.793206 6:0.664019 7:0.635576 8:0.64367 9:0.659644 10:0.00068 11:0.000705 12:0.000627 13:0.000887 14:0.000828 15:0.000897 16:0.454545 17:0.454545 18:0.25 
-16 1:0.531874 2:0.706324 3:0.661574 4:0.701815 5:0.840755 6:0.745665 7:0.41134 8:0.457337 9:0.425563 10:0.000216 11:0.000208 12:0.000119 13:0.000346 14:0.000351 15:0.000268 16:0.272727 17:0.272727 18:0.25 
-16 1:0.427483 2:0.443993 3:0.343077 4:0.685908 5:0.697288 6:0.547695 7:0.728015 8:0.65606 9:0.748033 10:0.001113 11:0.000548 12:0.000847 13:0.001407 14:0.001024 15:0.00124 16:0.181818 17:0.363636 18:0.1 
-16 1:0.562285 2:0.676413 3:0.520397 4:0.89143 5:0.920233 6:0.666172 7:0.259035 8:0.398203 9:0.385171 10:5.1e-05 11:7.8e-05 12:0.000171 13:0.000156 14:0.000198 15:0.000275 16:0.636364 17:0.545455 18:0.15 
-16 1:0.399596 2:0.49488 3:0.421606 4:0.764758 5:0.797805 6:0.793731 7:0.498024 8:0.449435 9:0.533196 10:0.000262 11:0.000178 12:0.00027 13:0.000329 14:0.000265 15:0.000348 16:0.181818 17:0.272727 18:0.1 
-16 1:0.578586 2:0.618089 3:0.564718 4:0.653319 5:0.765604 6:0.773183 7:0.553024 8:0.532499 9:0.551236 10:0.00025 11:0.000274 12:0.000292 13:0.000484 14:0.000417 15:0.000444 16:0.727273 17:0.727273 18:0.4 
-16 1:0.761175 2:0.925177 3:0.677987 4:0.897008 5:0.900494 6:0.875291 7:0.446647 8:0.512556 9:0.462085 10:0.000133 11:0.000176 12:0.000155 13:0.000292 14:0.000285 15:0.000279 16:0.818182 17:0.909091 18:0.45 
-16 1:0.145314 2:0.20993 3:0.202243 4:0.709707 5:0.679345 6:0.620093 7:0.583718 8:0.547251 9:0.571361 10:0.000457 11:0.000495 12:0.000501 13:0.000657 14:0.000486 15:0.000473 16:0.454545 17:0.545455 18:0.3 
-16 1:0.116637 2:0.215308 3:0.177789 4:0.643771 5:0.714682 6:0.647584 7:0.719636 8:0.716237 9:0.729627 10:0.002293 11:0.001495 12:0.001828 13:0.001979 14:0.001463 15:0.001677 16:0.181818 17:0.181818 18:0.1 
-16 1:0.65177 2:0.626476 3:0.575053 4:0.760262 5:0.772595 6:0.772821 7:0.390335 8:0.472993 9:0.467214 10:6.3e-05 11:0.000113 12:9.1e-05 13:0.000257 14:0.000292 15:0.000255 16:0.727273 17:0.545455 18:0.35 
-16 1:0.445167 2:0.381535 3:0.432663 4:0.603321 5:0.5689 6:0.602537 7:0.458224 8:0.526301 9:0.503761 10:0.000262 11:0.000325 12:0.00031 13:0.000297 14:0.000336 15:0.000348 16:0.181818 17:0.181818 18:0.1 
-16 1:0.333015 2:0.370498 3:0.370116 4:0.761957 5:0.817382 6:0.796026 7:0.462542 8:0.542353 9:0.547649 10:0.000347 11:0.000468 12:0.000553 13:0.00045 14:0.000527 15:0.000564 16:0.454545 17:0.363636 18:0.2 
-16 1:0.413442 2:0.558056 3:0.362211 4:0.775251 5:0.76569 6:0.664504 7:0.599474 8:0.59521 9:0.651979 10:0.000632 11:0.000597 12:0.00067 13:0.000688 14:0.000691 15:0.000792 16:0.181818 17:0.090909 18:0.05 
-16 1:0.41371 2:0.431325 3:0.41837 4:0.762871 5:0.75812 6:0.674583 7:0.574446 8:0.609247 9:0.599217 10:0.00022 11:0.000239 12:0.000257 13:0.000515 14:0.00053 15:0.000548 16:0.636364 17:0.636364 18:0.35 
-16 1:0.189433 2:0.23967 3:0.204552 4:0.451729 5:0.592099 6:0.506162 7:0.812591 8:0.817785 9:0.787959 10:0.005532 11:0.003361 12:0.003658 13:0.005473 14:0.00339 15:0.003691 16:0.090909 17:0.090909 18:0.05 
-16 1:0.757137 2:0.758328 3:0.693883 4:0.898388 5:0.89492 6:0.847533 7:0.24906 8:0.29051 9:0.341968 10:7.3e-05 11:8.7e-05 12:0.000111 13:0.00012 14:0.000124 15:0.000144 16:0.454545 17:0.454545 18:0.25 
-16 1:0.149335 2:0.174367 3:0.12695 4:0.515208 5:0.619995 6:0.501144 7:0.856896 8:0.740571 9:0.804537 10:0.003678 11:0.002348 12:0.00341 13:0.002771 14:0.001712 15:0.002606 16:0.090909 17:0.090909 18:0.05 
-16 1:0.488043 2:0.609226 3:0.4696 4:0.67541 5:0.823805 6:0.636634 7:0.554373 8:0.573855 9:0.644265 10:0.000621 11:0.000409 12:0.000674 13:0.000715 14:0.000503 15:0.00082 16:0.090909 17:0.090909 18:0.05 
-16 1:0.450234 2:0.478382 3:0.340575 4:0.846363 5:0.876737 6:0.749895 7:0.44955 8:0.550912 9:0.563115 10:0.000255 11:0.000251 12:0.000399 13:0.000405 14:0.000444 15:0.000534 16:0.181818 17:0.272727 18:0.15 
-11.62161333395957 1:0 2:0.019187 3:0.043405 4:0 5:0 6:0 7:0.815962 8:0.851809 9:0.83041 10:0.046337 11:0.046632 12:0.046193 13:0.038292 14:0.038314 15:0.038212 16:0.090909 17:0.090909 18:0.05 
-16 1:0.360523 2:0.530121 3:0.457611 4:0.683523 5:0.710544 6:0.729129 7:0.663316 8:0.609247 9:0.65088 10:0.000554 11:0.000401 12:0.00041 13:0.000903 14:0.000693 15:0.000604 16:0.181818 17:0.181818 18:0.15 
-16 1:0.736167 2:0.666141 3:0.56841 4:0.851886 5:0.896907 6:0.797087 7:0.370549 8:0.508782 9:0.484995 10:0.000178 11:0.000288 12:0.000322 13:0.0003 14:0.000326 15:0.00043 16:0.272727 17:0.272727 18:0.1 
-16 1:0.599517 2:0.868934 3:0.736697 4:0.744508 5:0.965135 6:0.812376 7:0.280413 8:0.360488 9:0.255227 10:9.6e-05 11:4.3e-05 12:4.4e-05 13:0.000139 14:0.000184 15:9.7e-05 16:0.363636 17:0.545455 18:0.2 
-12.54591119852949 1:0.872396 2:0.316426 3:0.406893 4:0.777087 5:0.604706 6:0.587356 7:0.237333 8:0.753083 9:0.661825 10:9e-06 11:0.001568 12:0.00103 13:0.00011 14:0.00149 15:0.000974 16:0.818182 17:0.090909 18:0.05 
-16 1:0.551555 2:0.688036 3:0.629485 4:0.878316 5:0.917883 6:0.794329 7:0.370549 8:0.287508 9:0.368629 10:0.000128 11:0.000108 12:0.000176 13:0.00022 14:0.000169 15:0.000303 16:0.181818 17:0.272727 18:0.1 
-16 1:0.287748 2:0.375597 3:0.286163 4:0.755912 5:0.797181 6:0.697517 7:0.44955 8:0.465189 9:0.53077 10:0.000238 11:0.000265 12:0.000261 13:0.000294 14:0.00034 15:0.000364 16:0.727273 17:0.727273 18:0.4 
-16 1:0.276417 2:0.331296 3:0.310152 4:0.558507 5:0.483358 6:0.517547 7:0.6942 8:0.692511 9:0.686631 10:0.00099 11:0.001077 12:0.000928 13:0.00114 14:0.001119 15:0.001148 16:0.090909 17:0.090909 18:0.05 
-16 1:0.39086 2:0.45397 3:0.400701 4:0.817514 5:0.798867 6:0.791975 7:0.489588 8:0.526301 9:0.561932 10:0.000444 11:0.000554 12:0.000539 13:0.000646 14:0.00077 15:0.000717 16:0.090909 17:0.090909 18:0.05 
-16 1:0.189537 2:0.306239 3:0.261694 4:0.590973 5:0.671221 6:0.600961 7:0.72443 8:0.613892 9:0.682353 10:0.002103 11:0.001488 12:0.00171 13:0.001531 14:0.001116 15:0.001265 16:0.090909 17:0.090909 18:0.05 
-16 1:0.470627 2:0.559019 3:0.537208 4:0.760131 5:0.883769 6:0.776008 7:0.461104 8:0.44679 9:0.501276 10:0.000498 11:0.000492 12:0.000444 13:0.000335 14:0.000321 15:0.000312 16:0.818182 17:0.818182 18:0.45 
-16 1:0.484711 2:0.522241 3:0.457011 4:0.837092 5:0.786972 6:0.71353 7:0.458224 8:0.504995 9:0.492537 10:0.000247 11:0.000199 12:0.000123 13:0.000373 14:0.000376 15:0.000327 16:0.272727 17:0.454545 18:0.35 
-16 1:0.340609 2:0.27134 3:0.309478 4:0.470683 5:0.20909 6:0.594251 7:0.69908 8:0.718371 9:0.703592 10:0.002246 11:0.003514 12:0.002234 13:0.001926 14:0.003286 15:0.001537 16:0.090909 17:0.090909 18:0 
-16 1:0.43542 2:0.513813 3:0.38949 4:0.745478 5:0.833526 6:0.773131 7:0.463978 8:0.489736 9:0.514883 10:0.000215 11:0.000155 12:0.000251 13:0.000339 14:0.000248 15:0.000331 16:0.181818 17:0.272727 18:0.1 
-16 1:0.321644 2:0.389455 3:0.289143 4:0.686717 5:0.719181 6:0.669581 7:0.557065 8:0.599906 9:0.662914 10:0.000525 11:0.000535 12:0.00054 13:0.000728 14:0.000735 15:0.000729 16:0.090909 17:0.181818 18:0.05 
-16 1:0.593969 2:0.584223 3:0.50036 4:0.898353 5:0.953506 6:0.920105 7:0.299867 8:0.37739 9:0.443962 10:7.1e-05 11:9e-05 12:0.0001 13:0.000201 14:0.000234 15:0.000248 16:0.454545 17:0.545455 18:0.35 
-16 1:0.448419 2:0.541423 3:0.595117 4:0.789775 5:0.852896 6:0.880382 7:0.372081 8:0.422731 9:0.425563 10:0.000145 11:9.9e-05 12:0.000108 13:0.000237 14:0.000199 15:0.000205 16:0.545455 17:0.727273 18:0.4 
-16 1:0.149638 2:0.193416 3:0.15872 4:0.031956 5:0.168782 6:0.302731 7:0.6942 8:0.645932 9:0.775127 10:0.008439 11:0.003531 12:0.007732 13:0.011117 14:0.003341 15:0.007392 16:0.181818 17:0.090909 18:0.05 
-16 1:0.734333 2:0.801517 3:0.62476 4:0.845289 5:0.847411 6:0.886483 7:0.421728 8:0.513812 9:0.584208 10:8.8e-05 11:0.000126 12:0.000183 13:0.00031 14:0.000293 15:0.000391 16:0.454545 17:0.363636 18:0.15 
-16 1:0.390387 2:0.324134 3:0.347473 4:0.725257 5:0.738758 6:0.735207 7:0.511974 8:0.547251 9:0.635388 10:0.000366 11:0.000367 12:0.000367 13:0.00057 14:0.000547 15:0.000581 16:0.636364 17:0.636364 18:0.35 
-16 1:0.539241 2:0.674332 3:0.532196 4:0.840247 5:0.892644 6:0.805004 7:0.56645 8:0.523813 9:0.574878 10:0.000182 11:0.000227 12:0.000309 13:0.000515 14:0.000522 15:0.000545 16:0.454545 17:0.545455 18:0.25 
-16 1:0.411819 2:0.443303 3:0.262014 4:0.722816 5:0.203511 6:0.524218 7:0.59293 8:0.65606 9:0.738865 10:0.000358 11:0.001701 12:0.0019 13:0.000683 14:0.002046 15:0.00191 16:0.272727 17:0.090909 18:0.05 
-16 1:0.623635 2:0.599629 3:0.473679 4:0.862667 5:0.88367 6:0.817676 7:0.440822 8:0.513812 9:0.539239 10:0.000211 11:0.000242 12:0.000253 13:0.00034 14:0.000352 15:0.000374 16:0.909091 17:0.909091 18:0.5 
-16 1:0.719219 2:0.608159 3:0.731866 4:0.842702 5:0.876472 6:0.899668 7:0.461104 8:0.425427 9:0.453057 10:0.000102 11:0.000139 12:0.000174 13:0.000325 14:0.000285 15:0.000336 16:0.545455 17:0.545455 18:0.3 
-16 1:0.655851 2:0.69726 3:0.694937 4:0.74947 5:0.93681 6:0.798983 7:0.295029 8:0.3128 9:0.40284 10:4e-05 11:5.3e-05 12:6.7e-05 13:0.000144 14:0.000126 15:0.000157 16:0.636364 17:0.818182 18:0.45 
-16 1:0.35426 2:0.464503 3:0.399787 4:0.771414 5:0.859264 6:0.776108 7:0.608585 8:0.547251 9:0.638724 10:0.000395 11:0.000299 12:0.000418 13:0.000557 14:0.000453 15:0.000695 16:0.454545 17:0.636364 18:0.25 
-16 1:0.680799 2:0.705884 3:0.605822 4:0.765868 5:0.719284 6:0.774767 7:0.527163 8:0.461269 9:0.477406 10:0.000154 11:0.000122 12:0.000175 13:0.000305 14:0.000241 15:0.000315 16:0.363636 17:0.454545 18:0.2 
-16 1:0.825808 2:0.673295 3:0.874384 4:0.837649 5:0.694397 6:0.914697 7:0.373611 8:0.388533 9:0.422912 10:4e-05 11:6.3e-05 12:6.6e-05 13:0.000221 14:0.000197 15:0.000238 16:0.727273 17:0.727273 18:0.4 
-16 1:0.394164 2:0.510286 3:0.35088 4:0.706854 5:0.827724 6:0.658987 7:0.56912 8:0.512556 9:0.665089 10:0.000658 11:0.000467 12:0.000613 13:0.000601 14:0.000439 15:0.000611 16:0.090909 17:0.090909 18:0.05 
-16 1:0.361755 2:0.469003 3:0.407107 4:0.63589 5:0.676017 6:0.632754 7:0.683158 8:0.582203 9:0.689829 10:0.000676 11:0.000527 12:0.000673 13:0.000857 14:0.000643 15:0.000893 16:0.090909 17:0.181818 18:0.1 
-16 1:0.377834 2:0.471466 3:0.331094 4:0.703664 5:0.763348 6:0.614646 7:0.430573 8:0.659417 9:0.585369 10:0.000463 11:0.000913 12:0.000645 13:0.000513 14:0.000969 15:0.000688 16:0.090909 17:0.090909 18:0.05 
-16 1:0.446032 2:0.552966 3:0.475038 4:0.660915 5:0.60805 6:0.636676 7:0.751689 8:0.760324 9:0.732715 10:0.001498 11:0.001362 12:0.001365 13:0.002218 14:0.002145 15:0.00211 16:0.181818 17:0.181818 18:0.1 
-16 1:0.259308 2:0.301102 3:0.296795 4:0.639618 5:0.650676 6:0.597523 7:0.616349 8:0.682674 9:0.697259 10:0.001155 11:0.001408 12:0.001892 13:0.000969 14:0.001058 15:0.001395 16:0.090909 17:0.090909 18:0.05 
-16 1:0.484721 2:0.506155 3:0.50685 4:0.705516 5:0.687809 6:0.80659 7:0.542192 8:0.583391 9:0.577217 10:0.000411 11:0.000227 12:0.000212 13:0.000537 14:0.000573 15:0.000484 16:0.363636 17:0.454545 18:0.3 
-16 1:0.757925 2:0.607657 3:0.759193 4:0.831765 5:0.81895 6:0.741415 7:0.323818 8:0.382974 9:0.324821 10:1.8e-05 11:7.8e-05 12:5.6e-05 13:0.000138 14:0.000189 15:0.000166 16:0.636364 17:0.545455 18:0.35 
-16 1:0.474923 2:0.80357 3:0.972667 4:0.599983 5:0.79404 6:0.960181 7:0.547619 8:0.494843 9:0.464652 10:0.000279 11:0.000189 12:6.7e-05 13:0.000363 14:0.000322 15:0.000239 16:0.181818 17:0.272727 18:0.45 
-16 1:0.57747 2:0.744568 3:0.529124 4:0.747193 5:0.767405 6:0.709118 7:0.396368 8:0.42408 9:0.433482 10:0.000111 11:0.000111 12:0.000113 13:0.000284 14:0.000246 15:0.000264 16:0.545455 17:0.636364 18:0.3 
-16 1:0.330534 2:0.440983 3:0.393266 4:0.47588 5:0.2721 6:0.36362 7:0.624071 8:0.662766 9:0.609499 10:0.002708 11:0.002033 12:0.001196 13:0.001678 14:0.0022 15:0.001531 16:0 17:0.090909 18:0.05 
-16 1:0.089425 2:0.079541 3:0.058973 4:0.378976 5:0.292951 6:0.302297 7:0.78648 8:0.702271 9:0.794813 10:0.0026 11:0.00221 12:0.002828 13:0.001943 14:0.001485 15:0.002005 16:0.090909 17:0.090909 18:0.05 
-16 1:0.406355 2:0.512514 3:0.371964 4:0.753128 5:0.719418 6:0.678288 7:0.328561 8:0.469097 9:0.524684 10:8.5e-05 11:0.000151 12:0.000162 13:0.000229 14:0.000336 15:0.000352 16:0.727273 17:0.545455 18:0.25 
-16 1:0.632516 2:0.611954 3:0.519917 4:0.745245 5:0.771346 6:0.782933 7:0.362866 8:0.370375 9:0.374168 10:8e-05 11:0.000136 12:0.000189 13:0.000186 14:0.000162 15:0.000185 16:0.363636 17:0.272727 18:0.15 
-16 1:0.513279 2:0.456672 3:0.437581 4:0.764904 5:0.74547 6:0.659315 7:0.571786 8:0.438822 9:0.590002 10:0.000236 11:0.000279 12:0.000259 13:0.000487 14:0.000315 15:0.000453 16:0.454545 17:0.818182 18:0.3 
-16 1:0.413802 2:0.442597 3:0.333281 4:0.724219 5:0.720872 6:0.72609 7:0.608585 8:0.687055 9:0.656365 10:0.00069 11:0.000577 12:0.000749 13:0.000932 14:0.000847 15:0.000899 16:0.363636 17:0.363636 18:0.2 
-12.70848280617234 1:0.361019 2:0.469259 3:0.382516 4:0.58025 5:0.605833 6:0.626662 7:0.408358 8:0.454708 9:0.473594 10:0.000233 11:0.000141 12:0.000163 13:0.000291 14:0.000255 15:0.000305 16:0.272727 17:0.363636 18:0.15 
-16 1:0.341882 2:0.338059 3:0.385113 4:0.74774 5:0.705584 6:0.690278 7:0.688076 8:0.664994 9:0.632042 10:0.001444 11:0.001321 12:0.001271 13:0.001119 14:0.001012 15:0.000945 16:0.090909 17:0.090909 18:0.05 
-16 1:0.472021 2:0.499666 3:0.365992 4:0.692788 5:0.816595 6:0.745018 7:0.602083 8:0.558202 9:0.60494 10:0.000387 11:0.000334 12:0.000333 13:0.000611 14:0.000476 15:0.000574 16:0.363636 17:0.454545 18:0.2 
-16 1:0.377647 2:0.522599 3:0.444146 4:0.671212 5:0.762058 6:0.697314 7:0.673272 8:0.674969 9:0.634274 10:0.000637 11:0.000599 12:0.000663 13:0.00081 14:0.00078 15:0.00076 16:0.272727 17:0.272727 18:0.15 
-16 1:0.402205 2:0.731375 3:0.48527 4:0.796576 5:0.789966 6:0.738785 7:0.644461 8:0.633442 9:0.619696 10:0.000405 11:0.000351 12:0.000391 13:0.000604 14:0.000592 15:0.000601 16:0.272727 17:0.454545 18:0.2 
-16 1:0.589451 2:0.567743 3:0.425005 4:0.786261 5:0.812027 6:0.722184 7:0.518898 8:0.531262 9:0.546451 10:0.000473 11:0.000489 12:0.0006 13:0.000517 14:0.00062 15:0.000778 16:0.090909 17:0.181818 18:0.1 
-16 1:0.090933 2:0.178545 3:0.136652 4:0.552123 5:0.619904 6:0.507319 7:0.659565 8:0.639135 9:0.689829 10:0.001846 11:0.00131 12:0.001506 13:0.001382 14:0.000999 15:0.001246 16:0.090909 17:0.090909 18:0.05 
-16 1:0.427169 2:0.545051 3:0.44802 4:0.682989 5:0.718775 6:0.639578 7:0.391845 8:0.430802 9:0.561932 10:0.000144 11:0.000153 12:0.000352 13:0.000284 14:0.000239 15:0.000337 16:0.181818 17:0.181818 18:0.1 
-16 1:0.550244 2:0.609503 3:0.563127 4:0.740975 5:0.685856 6:0.620291 7:0.382757 8:0.428118 9:0.477406 10:0.000145 11:0.000181 12:0.000194 13:0.000273 14:0.000285 15:0.00029 16:0.272727 17:0.272727 18:0.15 
-16 1:0.294591 2:0.288564 3:0.275141 4:0.643853 5:0.713561 6:0.708038 7:0.686848 8:0.603417 9:0.634274 10:0.001295 11:0.00074 12:0.00072 13:0.001012 14:0.000668 15:0.000678 16:0.090909 17:0.090909 18:0.05 
-16 1:0.006126 2:0 3:0 4:0.445302 5:0.372409 6:0.407194 7:0.844849 8:0.83831 9:0.858524 10:0.015189 11:0.015035 12:0.015216 13:0.015058 14:0.014312 15:0.014973 16:0 17:0 18:0 
-16 1:0.287505 2:0.394674 3:0.341326 4:0.758169 5:0.794928 6:0.755315 7:0.598167 8:0.633442 9:0.647577 10:0.000534 11:0.000537 12:0.000499 13:0.00083 14:0.000718 15:0.000724 16:0.818182 17:0.818182 18:0.45 
