svm_type c_svc
kernel_type rbf
gamma 0.125
nr_class 2
total_sv 166
rho 5.19649
label 1 0
probA -0.337306
probB 0.0054846
nr_sv 81 85
SV
512 1:0.754246 2:0.685703 3:0.905291 4:0.899557 5:0.915636 6:0.819024 7:0.004351 8:0.002989 9:0.002458 10:0.294118 11:0.294118 12:0.375 
512 1:0.673422 2:0.667066 3:0.598628 4:0.882797 5:0.758164 6:0.76877 7:0.003504 8:0.002982 9:0.009988 10:0.294118 11:0.411765 12:0.1875 
512 1:0.131234 2:0.176841 3:0.159877 4:0.722528 5:0.675562 6:0.665703 7:0.08815 8:0.073924 9:0.129347 10:0.176471 11:0.176471 12:0.125 
512 1:0.228765 2:0.46469 3:0.585221 4:0.699791 5:0.789477 6:0.734904 7:0.083786 8:0.027062 9:0.034847 10:0.058824 11:0.176471 12:0.125 
512 1:0.319505 2:0.313253 3:0.467572 4:0.594509 5:0.662765 6:0.640939 7:0.037536 8:0.031152 9:0.033141 10:0.176471 11:0.411765 12:0.4375 
189.1167060981649 1:0.446765 2:0.446987 3:0.506529 4:0.811989 5:0.727883 6:0.737213 7:0.033308 8:0.040108 9:0.032977 10:0.411765 11:0.352941 12:0.4375 
512 1:0.434786 2:0.580751 3:0.457356 4:0.763465 5:0.578063 6:0.704828 7:0.053439 8:0.035329 9:0.045312 10:0.117647 11:0.176471 12:0.0625 
512 1:0.718403 2:0.40974 3:0.468213 4:0.831226 5:0.862215 6:0.690306 7:0.026637 8:0.018325 9:0.032707 10:0.470588 11:0.411765 12:0.25 
512 1:0.397103 2:0.477492 3:0.368345 4:0.863203 5:0.865644 6:0.767103 7:0.051855 8:0.051799 9:0.05699 10:0.058824 11:0.117647 12:0.0625 
512 1:0.441684 2:0.44465 3:0.399206 4:0.901863 5:0.792436 6:0.791925 7:0.071801 8:0.050948 9:0.057511 10:0.117647 11:0.117647 12:0.125 
512 1:0.171538 2:0.293897 3:0.239995 4:0.618838 5:0.563489 6:0.528758 7:0.126151 8:0.082201 9:0.095718 10:0.058824 11:0.058824 12:0.0625 
512 1:0.386529 2:0.404282 3:0.365923 4:0.731577 5:0.8013 6:0.679828 7:0.080468 8:0.048261 9:0.053376 10:0.058824 11:0.058824 12:0.0625 
512 1:0.203014 2:0.271751 3:0.22273 4:0.202761 5:0.214979 6:0.222361 7:0.279995 8:0.26788 9:0.2566 10:0.058824 11:0.058824 12:0.0625 
512 1:0.685787 2:0.710631 3:0.737442 4:0.866022 5:0.935373 6:0.816025 7:0.012213 8:0.012611 9:0.013635 10:0.352941 11:0.411765 12:0.4375 
469.038065726319 1:0.335172 2:0.31793 3:0.288247 4:0.267724 5:0.363666 6:0.336696 7:0.098902 8:0.109947 9:0.104667 10:0.176471 11:0.117647 12:0.125 
512 1:0.65653 2:0.470372 3:0.597424 4:0.704799 5:0.773978 6:0.738477 7:0.076846 8:0.054229 9:0.057196 10:0.176471 11:0.235294 12:0.1875 
512 1:0.48817 2:0.530215 3:0.663217 4:0.866445 5:0.836729 6:0.895203 7:0.052653 8:0.043923 9:0.038131 10:0.117647 11:0.176471 12:0.25 
512 1:0.434036 2:0.410255 3:0.378813 4:0.809233 5:0.801718 6:0.75603 7:0.031051 8:0.043638 9:0.062256 10:0.117647 11:0.117647 12:0.0625 
512 1:0.36475 2:0.436148 3:0.551839 4:0.790583 5:0.714437 6:0.728582 7:0.073875 8:0.055978 9:0.064484 10:0.058824 11:0.117647 12:0.125 
512 1:0.479537 2:0.607437 3:0.681335 4:0.848863 5:0.911502 6:0.93463 7:0.009766 8:0.011245 9:0.011353 10:0.470588 11:0.470588 12:0.5 
512 1:0.369815 2:0.414937 3:0.31043 4:0.841865 5:0.868148 6:0.797327 7:0.076192 8:0.083953 9:0.110745 10:0.058824 11:0.117647 12:0.0625 
41.90765885777391 1:0.555427 2:0.59466 3:0.521807 4:0.653986 5:0.676268 6:0.661032 7:0.025032 8:0.024327 9:0.029121 10:0.411765 11:0.470588 12:0.4375 
512 1:0.402398 2:0.501306 3:0.541482 4:0.761542 5:0.75772 6:0.838346 7:0.013692 8:0.018542 9:0.018395 10:0.235294 11:0.235294 12:0.1875 
512 1:0.414016 2:0.427825 3:0.398719 4:0.764099 5:0.761332 6:0.731715 7:0.044032 8:0.046363 9:0.044942 10:0.470588 11:0.411765 12:0.5 
512 1:0.692812 2:0.674519 3:0.543807 4:0.965602 5:0.973237 6:0.726878 7:0.012191 8:0.006058 9:0.007473 10:0.470588 11:0.529412 12:0.5 
512 1:0.40826 2:0.422622 3:0.341984 4:0.724944 5:0.755574 6:0.678988 7:0.037919 8:0.043122 9:0.045102 10:0.411765 11:0.411765 12:0.4375 
512 1:0.705908 2:0.735135 3:0.593707 4:0.891481 5:0.846035 6:0.81858 7:0.002521 8:0.004742 9:0.003007 10:0.470588 11:0.470588 12:0.5 
512 1:0.4293 2:0.528235 3:0.568857 4:0.815918 5:0.801514 6:0.750292 7:0.014739 8:0.01822 9:0.013466 10:0.352941 11:0.352941 12:0.375 
512 1:0.478329 2:0.553908 3:0.510165 4:0.761844 5:0.75723 6:0.720282 7:0.024669 8:0.027281 9:0.025984 10:0.352941 11:0.352941 12:0.375 
222.7448148346634 1:0.351997 2:0.353571 3:0.426066 4:0.800335 5:0.78205 6:0.757418 7:0.063972 8:0.072304 9:0.069471 10:0.352941 11:0.352941 12:0.375 
512 1:0.747966 2:0.638885 3:0.624676 4:0.708333 5:0.864705 6:0.856455 7:0.010438 8:0.007856 9:0.007651 10:0.352941 11:0.470588 12:0.4375 
512 1:0.419062 2:0.4569 3:0.515696 4:0.636777 5:0.656409 6:0.599314 7:0.011394 8:0.010138 9:0.008839 10:0.235294 11:0.235294 12:0.25 
295.4995248416603 1:0.475983 2:0.45837 3:0.485402 4:0.458625 5:0.441742 6:0.572846 7:0.023675 8:0.042587 9:0.018784 10:0.294118 11:0.176471 12:0.375 
506.3996115981384 1:0.156096 2:0.157404 3:0.202787 4:0.384146 5:0.400511 6:0.377208 7:0.503433 8:0.502274 9:0.513148 10:0.058824 11:0.058824 12:0.0625 
512 1:0.608936 2:0.614189 3:0.587091 4:0.69797 5:0.750387 6:0.697841 7:0.023298 8:0.022559 9:0.019152 10:0.529412 11:0.529412 12:0.5625 
512 1:0.060087 2:0.08284 3:0.05356 4:0.359355 5:0.340828 6:0.323271 7:0.260843 8:0.255526 9:0.263941 10:0 11:0 12:0.0625 
447.3420317733709 1:0.189662 2:0.305897 3:0.165967 4:0.741551 5:0.729021 6:0.674366 7:0.053624 8:0.070433 9:0.057637 10:0.352941 11:0.352941 12:0.375 
512 1:0.451519 2:0.446078 3:0.414509 4:0.713065 5:0.774455 6:0.727023 7:0.019968 8:0.026852 9:0.021676 10:0.352941 11:0.352941 12:0.3125 
512 1:0.376847 2:0.553111 3:0.497192 4:0.804118 5:0.733766 6:0.771853 7:0.055125 8:0.042988 9:0.040066 10:0.117647 11:0.294118 12:0.3125 
512 1:0.242846 2:0.220816 3:0.227219 4:0.744873 5:0.753692 6:0.694308 7:0.05699 8:0.046372 9:0.050814 10:0.058824 11:0.058824 12:0.0625 
512 1:0.302652 2:0.277773 3:0.298038 4:0.593748 5:0.567035 6:0.548036 7:0.049462 8:0.04767 9:0.043833 10:0.176471 11:0.176471 12:0.1875 
486.009397116052 1:0.765679 2:0.78318 3:0.872738 4:0.947635 5:0.952507 6:0.963491 7:0.013808 8:0.018044 9:0.016211 10:0.529412 11:0.529412 12:0.625 
512 1:0.599292 2:0.556731 3:0.494622 4:0.831585 5:0.815207 6:0.735155 7:0.038643 8:0.040315 9:0.035207 10:0.176471 11:0.176471 12:0.1875 
512 1:0.66453 2:0.610189 3:0.703827 4:0.962261 5:0.930883 6:0.9389 7:0.004245 8:0.004625 9:0.006399 10:0.294118 11:0.235294 12:0.1875 
512 1:0.267609 2:0.350744 3:0.307964 4:0.701327 5:0.729133 6:0.685275 7:0.064067 8:0.060791 9:0.054798 10:0.058824 11:0.058824 12:0.0625 
512 1:0.48083 2:0.558498 3:0.488879 4:0.777944 5:0.783141 6:0.669161 7:0.009431 8:0.013698 9:0.015102 10:0.294118 11:0.352941 12:0.25 
512 1:0.571473 2:0.546165 3:0.652516 4:0.892769 5:0.787512 6:0.751726 7:0.045345 8:0.039494 9:0.037705 10:0.117647 11:0.058824 12:0.0625 
512 1:0.513398 2:0.562128 3:0.483067 4:0.666783 5:0.679712 6:0.751029 7:0.012715 8:0.010079 9:0.004526 10:0.352941 11:0.411765 12:0.5 
512 1:0.371413 2:0.35004 3:0.465821 4:0.691536 5:0.612083 6:0.656342 7:0.046655 8:0.038359 9:0.039707 10:0.294118 11:0.352941 12:0.4375 
512 1:0.159839 2:0.260989 3:0.11965 4:0.533514 5:0.478117 6:0.468553 7:0.065369 8:0.051527 9:0.066337 10:0.058824 11:0.058824 12:0.0625 
512 1:0.498963 2:0.717758 3:0.681911 4:0.777929 5:0.871575 6:0.702056 7:0.014309 8:0.00795 9:0.005185 10:0.117647 11:0.294118 12:0.3125 
512 1:0.359836 2:0.398401 3:0.331234 4:0.683443 5:0.696211 6:0.6999 7:0.065891 8:0.063141 9:0.058051 10:0.176471 11:0.235294 12:0.1875 
512 1:0.484863 2:0.536999 3:0.435649 4:0.676212 5:0.679913 6:0.589123 7:0.04744 8:0.04652 9:0.044931 10:0.176471 11:0.176471 12:0.1875 
512 1:0.535983 2:0.437203 3:0.355067 4:0.788076 5:0.67908 6:0.62369 7:0.021732 8:0.026421 9:0.033423 10:0.176471 11:0.117647 12:0.125 
512 1:0.354146 2:0.380113 3:0.367462 4:0.787546 5:0.773833 6:0.741091 7:0.068811 8:0.070924 9:0.065291 10:0.352941 11:0.352941 12:0.375 
512 1:0.247791 2:0.354801 3:0.394431 4:0.590902 5:0.599898 6:0.586999 7:0.184831 8:0.124924 9:0.123545 10:0.058824 11:0.058824 12:0.0625 
512 1:0.293223 2:0.227595 3:0.240248 4:0.567101 5:0.555644 6:0.656547 7:0.044844 8:0.048298 9:0.045915 10:0.411765 11:0.352941 12:0.375 
512 1:0.53129 2:0.555299 3:0.580258 4:0.78639 5:0.78068 6:0.715047 7:0.057699 8:0.039298 9:0.035739 10:0.235294 11:0.352941 12:0.4375 
512 1:0.788405 2:0.728544 3:0.732398 4:0.830005 5:0.88458 6:0.802935 7:0.002989 8:0.004889 9:0.003392 10:0.529412 11:0.529412 12:0.5625 
512 1:0.639822 2:0.631193 3:0.618487 4:0.762375 5:0.797146 6:0.789056 7:0.016416 8:0.016802 9:0.017375 10:0.411765 11:0.411765 12:0.4375 
512 1:0.283397 2:0.360044 3:0.267106 4:0.656889 5:0.690454 6:0.47088 7:0.126662 8:0.079518 9:0.105814 10:0.058824 11:0.058824 12:0.0625 
512 1:0.528985 2:0.63904 3:0.680496 4:0.847514 5:0.805437 6:0.788567 7:0.042199 8:0.035005 9:0.045016 10:0.058824 11:0.117647 12:0.0625 
512 1:0.440711 2:0.580174 3:0.42119 4:0.746412 5:0.838588 6:0.805071 7:0.058125 8:0.027816 9:0.05144 10:0.117647 11:0.117647 12:0.125 
512 1:0.463603 2:0.529442 3:0.54873 4:0.851686 5:0.876888 6:0.826118 7:0.024819 8:0.028443 9:0.027959 10:0.176471 11:0.235294 12:0.25 
512 1:0.101135 2:0.237129 3:0.132053 4:0.485535 5:0.550671 6:0.425349 7:0.058264 8:0.046381 9:0.05561 10:0.058824 11:0.058824 12:0.0625 
512 1:0.378631 2:0.388696 3:0.37384 4:0.718618 5:0.66494 6:0.616843 7:0.078769 8:0.075682 9:0.077892 10:0.058824 11:0.058824 12:0.0625 
512 1:0.374602 2:0.409296 3:0.351574 4:0.759977 5:0.819286 6:0.722083 7:0.169813 8:0.093817 9:0.135579 10:0.058824 11:0.058824 12:0.0625 
512 1:0.779321 2:0.834485 3:0.845178 4:0.974266 5:0.893548 6:0.802019 7:0.007371 8:0.010599 9:0.015088 10:0.352941 11:0.235294 12:0.1875 
512 1:0.500505 2:0.345705 3:0.778834 4:0.642356 5:0.626649 6:0.849785 7:0.033283 8:0.09348 9:0.007949 10:0.117647 11:0.058824 12:0.25 
512 1:0.589563 2:0.652207 3:0.60689 4:0.713663 5:0.866179 6:0.849554 7:0.011885 8:0.005531 9:0.006368 10:0.176471 11:0.235294 12:0.1875 
286.6514092530073 1:0.728309 2:0.717766 3:0.996691 4:0.663228 5:0.773294 6:0.618598 7:0.009529 8:0.018653 9:0.007742 10:0.176471 11:0.117647 12:0.375 
512 1:0.796948 2:0.9914 3:0.957666 4:0.696071 5:0.82462 6:0.77069 7:0.010352 8:0.009017 9:0.008401 10:0.235294 11:0.352941 12:0.375 
512 1:0.75761 2:0.838568 3:0.859612 4:0.777007 5:0.748098 6:0.786884 7:0.011102 8:0.010767 9:0.009341 10:0.176471 11:0.176471 12:0.1875 
512 1:0.418295 2:0.428265 3:0.482637 4:0.649008 5:0.67067 6:0.668867 7:0.016254 8:0.018001 9:0.028721 10:0.352941 11:0.352941 12:0.375 
512 1:0.657066 2:0.681176 3:0.537219 4:0.826959 5:0.814986 6:0.680033 7:0.012964 8:0.020319 9:0.014734 10:0.470588 11:0.352941 12:0.4375 
512 1:0.203824 2:0.281921 3:0.258857 4:0.621414 5:0.696737 6:0.610194 7:0.054503 8:0.042462 9:0.052298 10:0.058824 11:0.117647 12:0.0625 
512 1:0.39363 2:0.514391 3:0.382913 4:0.727252 5:0.790248 6:0.679828 7:0.007821 8:0.008732 9:0.020622 10:0.411765 11:0.411765 12:0.1875 
259.5991765129319 1:0.661659 2:0.72904 3:0.834804 4:0.966423 5:1 6:0.925996 7:0.007041 8:0.008413 9:0.00623 10:1 11:1 12:1 
512 1:0.930907 2:0.791473 3:0.726509 4:0.888299 5:0.812145 6:0.830044 7:0.006048 8:0.013435 9:0.009975 10:0.235294 11:0.117647 12:0.1875 
512 1:0.147828 2:0.188337 3:0.190816 4:0.630993 5:0.703049 6:0.679018 7:0.117586 8:0.095785 9:0.086777 10:0 11:0.058824 12:0.0625 
512 1:0.392843 2:0.377983 3:0.39049 4:0.72783 5:0.751298 6:0.689367 7:0.026227 8:0.025805 9:0.021737 10:0.470588 11:0.470588 12:0.5 
-399.0729594759231 1:0.249898 2:0.371462 3:0.399207 4:0.592715 5:0.718741 6:0.686825 7:0.111895 8:0.053592 9:0.043746 10:0.058824 11:0.058824 12:0.0625 
-512 1:0.184114 2:0.197719 3:0.198571 4:0.625679 5:0.6262 6:0.580735 7:0.457116 8:0.478825 9:0.468666 10:0.470588 11:0.470588 12:0.5 
-512 1:0.507412 2:0.560287 3:0.477153 4:0.602682 5:0.690269 6:0.590402 7:0.058459 8:0.055819 9:0.054844 10:0.117647 11:0.117647 12:0.125 
-512 1:0.298698 2:0.378584 3:0.394669 4:0.767679 5:0.793773 6:0.777461 7:0.066379 8:0.048845 9:0.049172 10:0.117647 11:0.176471 12:0.1875 
-512 1:0.931163 2:0.814571 3:0.800361 4:0.858554 5:0.919369 6:0.919477 7:0.026255 8:0.029662 9:0.028449 10:0.588235 11:0.588235 12:0.625 
-512 1:0.668243 2:0.78929 3:0.744228 4:0.802346 5:0.864475 6:0.790148 7:0 8:0 9:0.000282 10:0.352941 11:0.470588 12:0.3125 
-377.3890313622676 1:0.41962 2:0.62222 3:0.490546 4:0.854579 5:0.816226 6:0.842961 7:0.027579 8:0.022798 9:0.016496 10:0.058824 11:0.117647 12:0.125 
-512 1:0.431281 2:0.445339 3:0.360867 4:0.761792 5:0.830267 6:0.734775 7:0.030084 8:0.030276 9:0.031551 10:0.352941 11:0.352941 12:0.375 
-512 1:0.719248 2:0.73647 3:0.85223 4:0.782715 5:0.881353 6:0.833801 7:0.00808 8:0.009354 9:0.009373 10:0.411765 11:0.470588 12:0.625 
-512 1:0.547512 2:0.505019 3:0.534692 4:0.790325 5:0.759855 6:0.757635 7:0.05269 8:0.043435 9:0.049954 10:0.176471 11:0.235294 12:0.1875 
-512 1:0.549658 2:0.527596 3:0.529582 4:0.816771 5:0.83328 6:0.820988 7:0.012054 8:0.01442 9:0.011527 10:0.470588 11:0.470588 12:0.375 
-512 1:0.311465 2:0.388436 3:0.368576 4:0.537454 5:0.689962 6:0.723586 7:0.019308 8:0.020309 9:0.018209 10:0.411765 11:0.411765 12:0.4375 
-512 1:0.723992 2:0.70662 3:0.575455 4:0.858578 5:0.89831 6:0.832206 7:0.014287 8:0.010885 9:0.016531 10:0.352941 11:0.529412 12:0.375 
-512 1:0.150833 2:0.251648 3:0.222341 4:0.718048 5:0.755392 6:0.694129 7:0.051314 8:0.036463 9:0.043203 10:0.117647 11:0.294118 12:0.1875 
-512 1:0.181223 2:0.196972 3:0.178225 4:0.585482 5:0.655364 6:0.598896 7:0.198896 8:0.143562 9:0.145809 10:0.058824 11:0.058824 12:0.0625 
-512 1:0.718344 2:0.553811 3:0.580099 4:0.660281 5:0.736672 6:0.671354 7:0.0078 8:0.009715 9:0.008639 10:0.411765 11:0.294118 12:0.4375 
-512 1:0.282283 2:0.361241 3:0.277773 4:0.766057 5:0.658932 6:0.686813 7:0.075025 8:0.049953 9:0.05987 10:0.058824 11:0.117647 12:0.0625 
-512 1:0.259522 2:0.29886 3:0.354567 4:0.631702 5:0.636514 6:0.549432 7:0.026443 8:0.03012 9:0.029376 10:0.352941 11:0.352941 12:0.4375 
-512 1:0.427978 2:0.590557 3:0.601379 4:0.759666 5:0.825943 6:0.671136 7:0.127192 8:0.045114 9:0.043788 10:0.058824 11:0.058824 12:0.0625 
-512 1:0.712565 2:0.742585 3:0.713098 4:0.799129 5:0.762195 6:0.781265 7:0.007024 8:0.008914 9:0.007757 10:0.176471 11:0.176471 12:0.1875 
-512 1:0.450363 2:0.602484 3:0.356471 4:0.85359 5:0.841821 6:0.679543 7:0.07886 8:0.043813 9:0.076732 10:0.058824 11:0.058824 12:0.0625 
-512 1:0.571995 2:0.671093 3:0.65083 4:0.82028 5:0.864859 6:0.72474 7:0.015473 8:0.01767 9:0.022387 10:0.117647 11:0.176471 12:0.125 
-512 1:0.35177 2:0.426744 3:0.581008 4:0.771302 5:0.744604 6:0.680831 7:0.008992 8:0.015471 9:0.002937 10:0.235294 11:0.235294 12:0.375 
-299.9757809403758 1:0.514864 2:0.481812 3:0.475559 4:0.8826 5:0.880778 6:0.840327 7:0.019173 8:0.021947 9:0.019164 10:0.117647 11:0.117647 12:0.1875 
-77.42740769725788 1:0.439624 2:0.349895 3:0.376991 4:0.3968 5:0.195233 6:0.111342 7:0.059598 8:0.298561 9:0.223158 10:0.058824 11:0.058824 12:0.0625 
-512 1:0.315262 2:0.279138 3:0.276007 4:0.619087 5:0.592907 6:0.494756 7:0.268709 8:0.182615 9:0.205599 10:0.058824 11:0.058824 12:0.0625 
-512 1:0.713827 2:0.779599 3:0.700099 4:0.88466 5:0.972146 6:0.815377 7:0.009624 8:0.013234 9:0.010581 10:0.176471 11:0.294118 12:0.1875 
-512 1:0.861062 2:0.739091 3:0.703412 4:0.816169 5:0.70876 6:0.710835 7:0.009759 8:0.012277 9:0.016983 10:0.411765 11:0.235294 12:0.1875 
-14.11990397813211 1:0.774653 2:0.129427 3:0.32622 4:0.916274 5:0.594146 6:0.672114 7:0.007635 8:0.290627 9:0.073186 10:0.235294 11:0.058824 12:0.125 
-512 1:0.320627 2:0.278345 3:0.350733 4:0.760976 5:0.750564 6:0.71067 7:0.027406 8:0.029322 9:0.024783 10:0.470588 11:0.470588 12:0.5 
-512 1:0.302517 2:0.479169 3:0.439593 4:0.603099 5:0.624342 6:0.573813 7:0.054397 8:0.034652 9:0.02778 10:0.117647 11:0.117647 12:0.125 
-512 1:0.448119 2:0.649907 3:0.888635 4:0.909864 5:0.840947 6:0.954399 7:0.007733 8:0.011465 9:0 10:0.235294 11:0.235294 12:0.4375 
-512 1:0.453194 2:0.477096 3:0.491887 4:0.762559 5:0.751078 6:0.724672 7:0.019927 8:0.022501 9:0.026451 10:0.235294 11:0.235294 12:0.1875 
-9.389077697412885 1:0.624499 2:0.773874 3:0.553447 4:0.73958 5:0.681345 6:0.709237 7:0.002888 8:0.002164 9:0.006793 10:0.176471 11:0.352941 12:0.125 
-460.9238438806546 1:0.323315 2:0.366577 3:0.325878 4:0.437681 5:0.157561 6:0.235478 7:0.307111 8:0.41787 9:0.271765 10:0.058824 11:0.058824 12:0.0625 
-184.5660129717418 1:0.13158 2:0.137762 3:0.131443 4:0.015376 5:0 6:0 7:0.461169 8:0.486775 9:0.482747 10:0.058824 11:0.058824 12:0.0625 
-512 1:0.313073 2:0.342766 3:0.347016 4:0.602848 5:0.592307 6:0.630693 7:0.093784 8:0.097925 9:0.07801 10:0.058824 11:0.058824 12:0.0625 
-512 1:0.449718 2:0.486555 3:0.533151 4:0.816443 5:0.800046 6:0.74782 7:0.027712 8:0.024679 9:0.026447 10:0.117647 11:0.176471 12:0.1875 
-512 1:0.475456 2:0.541246 3:0.546248 4:0.782545 5:0.769633 6:0.616081 7:0.011401 8:0.012033 9:0.009205 10:0.470588 11:0.470588 12:0.5 
-512 1:0.328181 2:0.475324 3:0.34317 4:0.722704 5:0.479751 6:0.703563 7:0.05682 8:0.079979 9:0.047782 10:0.058824 11:0.117647 12:0.0625 
-512 1:0.833915 2:0.876974 3:0.964719 4:0.957894 5:0.903665 6:0.832669 7:0.000849 8:0.004124 9:0.002259 10:0.294118 11:0.294118 12:0.3125 
-512 1:0.185477 2:0.245406 3:0.207596 4:0.48478 5:0.481568 6:0.456228 7:0.110168 8:0.075198 9:0.081335 10:0.058824 11:0.058824 12:0.0625 
-258.8604303607103 1:0.482317 2:0.459106 3:0.484725 4:0.749436 5:0.739027 6:0.662033 7:0.018277 8:0.016773 9:0.013264 10:0.176471 11:0.176471 12:0.1875 
-512 1:0.710041 2:0.699084 3:0.694088 4:0.757976 5:0.830212 6:0.782064 7:0.004984 8:0.007481 9:0.008581 10:0.529412 11:0.470588 12:0.5 
-512 1:0.577001 2:0.516833 3:0.517709 4:0.91315 5:0.872591 6:0.690034 7:0.009647 8:0.013856 9:0.010114 10:0.470588 11:0.470588 12:0.5 
-488.6705711962827 1:0.216699 2:0.256039 3:0.250124 4:0.621817 5:0.626149 6:0.503753 7:0.128619 8:0.058245 9:0.099333 10:0.058824 11:0.058824 12:0.0625 
-512 1:0.380851 2:0.366776 3:0.394408 4:0.574961 5:0.594357 6:0.650652 7:0.030452 8:0.031122 9:0.028618 10:0.235294 11:0.235294 12:0.25 
-512 1:0.568429 2:0.557088 3:0.481573 4:0.7461 5:0.843634 6:0.725467 7:0.007312 8:0.00859 9:0.006403 10:0.529412 11:0.529412 12:0.5625 
-512 1:0.817909 2:0.68973 3:0.859208 4:0.913058 5:0.875128 6:0.911006 7:0.015248 8:0.011143 9:0.013317 10:0.176471 11:0.176471 12:0.25 
-512 1:0.620984 2:0.721492 3:0.670669 4:0.694623 5:0.783818 6:0.790506 7:0.001985 8:0.000973 9:0.001506 10:0.352941 11:0.352941 12:0.375 
-512 1:0.323639 2:0.370804 3:0.338778 4:0.778584 5:0.7866 6:0.753668 7:0.043095 8:0.035392 9:0.04992 10:0.117647 11:0.117647 12:0.125 
-512 1:0.30273 2:0.24556 3:0.182868 4:0.683938 5:0.650042 6:0.603999 7:0.06184 8:0.088155 9:0.114371 10:0.058824 11:0.058824 12:0.0625 
-512 1:0.437298 2:0.486227 3:0.52713 4:0.703176 5:0.644431 6:0.610357 7:0.032532 8:0.027267 9:0.032138 10:0.117647 11:0.176471 12:0.125 
-512 1:0.870278 2:0.53848 3:0.75557 4:0.959102 5:0.703291 6:0.82772 7:0.003221 8:0.007588 9:0.003522 10:0.529412 11:0.529412 12:0.5625 
-489.7593275694041 1:0.548507 2:0.697502 3:0.68771 4:0.712336 5:0.859201 6:0.82441 7:0.012332 8:0.010974 9:0.008742 10:0.176471 11:0.176471 12:0.25 
-512 1:0.496891 2:0.545074 3:0.548548 4:0.736563 5:0.805313 6:0.717819 7:0.025585 8:0.034 9:0.02043 10:0.117647 11:0.117647 12:0.1875 
-512 1:0.310727 2:0.259138 3:0.331709 4:0.740523 5:0.697025 6:0.677473 7:0.053491 8:0.080452 9:0.081693 10:0.058824 11:0.058824 12:0.0625 
-512 1:0.560509 2:0.606135 3:0.579676 4:0.867646 5:0.869792 6:0.815165 7:0.010701 8:0.018133 9:0.017788 10:0.470588 11:0.470588 12:0.5 
-512 1:0.325755 2:0.325499 3:0.402918 4:0.632077 5:0.74663 6:0.679154 7:0.035363 8:0.023669 9:0.01372 10:0.235294 11:0.235294 12:0.3125 
-463.6810212600609 1:0.494136 2:0.381302 3:0.476488 4:0.852177 5:0.83222 6:0.811724 7:0.020182 8:0.024279 9:0.016038 10:0.176471 11:0.176471 12:0.1875 
-512 1:0.591628 2:0.667297 3:0.749423 4:0.885326 5:0.70798 6:0.856752 7:0.015113 8:0.013067 9:0.025347 10:0.235294 11:0.235294 12:0.1875 
-512 1:0.64977 2:0.602879 3:0.555634 4:0.811062 5:0.721512 6:0.738685 7:0.008999 8:0.010504 9:0.011341 10:0.294118 11:0.294118 12:0.3125 
-264.3179631342158 1:0.134649 2:0.245858 3:0.187965 4:0.527373 5:0.220248 6:0.284514 7:0.217139 8:0.199407 9:0.221266 10:0.058824 11:0.058824 12:0.0625 
-414.2402869816536 1:0.610441 2:0.62598 3:0.543701 4:0.76475 5:0.815567 6:0.787251 7:0.004794 8:0.008882 9:0.009118 10:0.352941 11:0.176471 12:0.1875 
-512 1:0.148691 2:0.155112 3:0.13984 4:0.482634 5:0.431854 6:0.413494 7:0.132888 8:0.109479 9:0.158612 10:0.058824 11:0.058824 12:0.0625 
-512 1:0.562601 2:0.454563 3:0.559289 4:0.64038 5:0.812929 6:0.705073 7:0.010835 8:0.014275 9:0.013925 10:0.529412 11:0.411765 12:0.5 
-512 1:0.439215 2:0.507296 3:0.386462 4:0.792958 5:0.788181 6:0.699268 7:0.066589 8:0.049199 9:0.05809 10:0.058824 11:0.058824 12:0.0625 
-512 1:0.581047 2:0.586791 3:0.486245 4:0.899992 5:0.73141 6:0.828817 7:0.009101 8:0.011199 9:0.011442 10:0.352941 11:0.411765 12:0.3125 
-512 1:0.397274 2:0.366875 3:0.318506 4:0.815194 5:0.797005 6:0.800594 7:0.025565 8:0.02839 9:0.035392 10:0.411765 11:0.411765 12:0.4375 
-60.87933599300396 1:0.357543 2:0.391459 3:0.398643 4:0.79346 5:0.780122 6:0.730617 7:0.030171 8:0.022598 9:0.014289 10:0.117647 11:0.117647 12:0.25 
-512 1:0.424285 2:0.394415 3:0.532575 4:0.793589 5:0.798483 6:0.708218 7:0.074134 8:0.061197 9:0.068058 10:0.058824 11:0.058824 12:0.0625 
-512 1:0.407642 2:0.484917 3:0.432312 4:0.74776 5:0.821214 6:0.78928 7:0.026846 8:0.013194 9:0.015979 10:0.176471 11:0.352941 12:0.25 
-512 1:0.361131 2:0.431615 3:0.383757 4:0.717381 5:0.763529 6:0.747211 7:0.032309 8:0.030094 9:0.025193 10:0.176471 11:0.176471 12:0.1875 
-512 1:0.59551 2:0.807378 3:0.609929 4:0.740872 5:0.955299 6:0.859731 7:0.015554 8:0.008993 9:0.00936 10:0.411765 11:0.588235 12:0.5625 
-176.8833053725652 1:0.763206 2:0.694665 3:0.568423 4:0.923342 5:0.854318 6:0.6059 7:0.012142 8:0.00955 9:0.020672 10:0.176471 11:0.117647 12:0.0625 
-512 1:0.076962 2:0.120653 3:0.095096 4:0.518024 5:0.541495 6:0.434792 7:0.154189 8:0.106993 9:0.145491 10:0.058824 11:0.058824 12:0.0625 
-512 1:0.343877 2:0.356702 3:0.321735 4:0.792764 5:0.821881 6:0.716423 7:0.028162 8:0.036752 9:0.043719 10:0.176471 11:0.117647 12:0.125 
-512 1:0.558921 2:0.741271 3:0.725502 4:0.730818 5:0.839313 6:0.724012 7:0.013894 8:0.009527 9:0.007455 10:0.117647 11:0.176471 12:0.1875 
-498.8031054818199 1:0.411452 2:0.498682 3:0.441785 4:0.652993 5:0.706017 6:0.76911 7:0.024771 8:0.013661 9:0.016697 10:0.176471 11:0.176471 12:0.1875 
-512 1:0.338616 2:0.460856 3:0.68188 4:0.880338 5:0.827472 6:0.894901 7:0.015942 8:0.015774 9:0.026328 10:0.235294 11:0.294118 12:0.1875 
-313.3490312586003 1:0.203331 2:0.201102 3:0.133825 4:0.363907 5:0.475274 6:0.396224 7:0.186373 8:0.065757 9:0.097029 10:0 11:0.058824 12:0.0625 
-512 1:0.665516 2:0.695521 3:0.621999 4:0.744668 5:0.864661 6:0.788274 7:0.00811 8:0.006719 9:0.007233 10:0.470588 11:0.529412 12:0.5625 
-512 1:0.317682 2:0.339314 3:0.378138 4:0.642597 5:0.684978 6:0.676897 7:0.05503 8:0.035278 9:0.032119 10:0.117647 11:0.235294 12:0.1875 
-512 1:0.235183 2:0.212962 3:0.184121 4:0.521574 5:0.534048 6:0.463519 7:0.202601 8:0.169831 9:0.213318 10:0.058824 11:0.058824 12:0.0625 
-512 1:0.311212 2:0.335523 3:0.3487 4:0.766384 5:0.831552 6:0.764969 7:0.02012 8:0.016037 9:0.016238 10:0.411765 11:0.529412 12:0.4375 
