svm_type c_svc
kernel_type rbf
gamma 2
nr_class 2
total_sv 149
rho 2.82884
label 1 0
probA -0.0699945
probB 0.0286275
nr_sv 74 75
SV
175.8929629350409 1:0.07335 2:0.093503 3:0.047968 4:0.343177 5:0.416677 6:0.278158 7:0.040332 8:0.033075 9:0.046781 10:0.052632 11:0.090909 12:0.047619 
9.67945134168953 1:0.919646 2:0.804635 3:0.895832 4:0.979514 5:0.79618 6:0.967695 7:0.002757 8:0.002827 9:0.002519 10:1 11:0.454545 12:0.238095 
177.4057639172191 1:0.274189 2:0.215284 3:0.248091 4:0.601623 5:0.589895 6:0.466923 7:0.017994 8:0.011186 9:0.020312 10:0.052632 11:0.181818 12:0.047619 
7.705493044963999 1:0.197894 2:0.231898 3:0.159118 4:0.675935 5:0.678312 6:0.660165 7:0.03424 8:0.033704 9:0.03365 10:0.157895 11:0.272727 12:0.142857 
128.6192667716069 1:0.438528 2:0.596479 3:0.492953 4:0.801197 5:0.90328 6:0.78458 7:0.007987 8:0.00397 9:0.006422 10:0.105263 11:0.272727 12:0.095238 
191.4703992618721 1:0.475953 2:0.516019 3:0.529561 4:0.848746 5:0.827648 6:0.83751 7:0.007838 8:0.00728 9:0.007946 10:0.157895 11:0.363636 12:0.142857 
256 1:0.520008 2:0.57488 3:0.507335 4:0.773443 5:0.7882 6:0.792389 7:0.002904 8:0.003451 9:0.003303 10:0.368421 11:0.636364 12:0.333333 
139.6675824663988 1:0.45918 2:0.619408 3:0.648139 4:0.743267 5:0.795362 6:0.792991 7:0.002568 8:0.002174 9:0.001484 10:0.157895 11:0.363636 12:0.190476 
256 1:0.483767 2:0.527545 3:0.521234 4:0.796064 5:0.782494 6:0.734352 7:0.01748 8:0.011289 9:0.013439 10:0.105263 11:0.181818 12:0.095238 
256 1:0.515231 2:0.440003 3:0.445886 4:0.803796 5:0.744062 6:0.776122 7:0.007419 8:0.005714 9:0.007427 10:0.105263 11:0.181818 12:0.047619 
131.027231515847 1:0.122086 2:0.067916 3:0.006863 4:0.354439 5:0.378367 6:0.353779 7:0.058378 8:0.056636 9:0.094707 10:0.052632 11:0.090909 12:0.047619 
225.3266532252163 1:0.344762 2:0.39155 3:0.346899 4:0.761777 5:0.782972 6:0.745056 7:0.018884 8:0.012605 9:0.013686 10:0.105263 11:0.181818 12:0.095238 
66.17016534529293 1:0.176099 2:0.293989 3:0.249677 4:0.284104 5:0.325718 6:0.425179 7:0.031179 8:0.023828 9:0.020364 10:0.105263 11:0.181818 12:0.095238 
179.3987526895667 1:0.564606 2:0.689065 3:0.638455 4:0.790024 5:0.836228 6:0.77459 7:0.00218 8:0.002541 9:0.002196 10:0.263158 11:0.454545 12:0.238095 
67.37206593126589 1:0.621339 2:0.661473 3:0.405342 4:0.730036 5:0.658255 6:0.819328 7:0.005456 8:0.006734 9:0.021448 10:0.368421 11:0.636364 12:0.142857 
250.9932246591696 1:0.508958 2:0.598607 3:0.66642 4:0.62253 5:0.78286 6:0.895534 7:0.002571 8:0.003004 9:0.002969 10:0.421053 11:0.636364 12:0.380952 
256 1:0.24197 2:0.322881 3:0.307962 4:0.757391 5:0.828406 6:0.761815 7:0.011989 8:0.012647 9:0.012123 10:0.421053 11:0.727273 12:0.380952 
84.58011189140646 1:0.063179 2:0.076973 3:0.058708 4:0.575603 5:0.580253 6:0.559131 7:0.061014 8:0.058603 9:0.05966 10:0.157895 11:0.272727 12:0.142857 
92.7678092100785 1:0.475856 2:0.503709 3:0.693123 4:0.806086 5:0.680205 6:0.623715 7:0.004226 8:0.005113 9:0.005319 10:0.315789 11:0.545455 12:0.285714 
26.33786273697569 1:0.317099 2:0.310137 3:0.258853 4:0.719251 5:0.751895 6:0.713 7:0.048815 8:0.048237 9:0.047159 10:0.578947 11:0.818182 12:0.428571 
187.3399353916888 1:0.530044 2:0.715803 3:0.659778 4:0.79281 5:0.886018 6:0.787985 7:0.001881 8:0.001747 9:0.002628 10:0.421053 11:0.727273 12:0.380952 
51.44663233845265 1:0.57386 2:0.695853 3:0.661889 4:0.510681 5:0.62585 6:0.550318 7:0.004659 8:0.005507 9:0.006275 10:0.263158 11:0.363636 12:0.142857 
139.7622881563608 1:0.539332 2:0.56257 3:0.570696 4:0.692556 5:0.789597 6:0.767862 7:0.005359 8:0.004906 9:0.004944 10:0.473684 11:0.818182 12:0.380952 
188.0128768786702 1:0.47304 2:0.589315 3:0.691185 4:0.857359 5:0.915221 6:0.94084 7:0.00163 8:0.001482 9:0.001745 10:0.210526 11:0.454545 12:0.238095 
150.8361609015878 1:0.378049 2:0.443811 3:0.416273 4:0.786757 5:0.878603 6:0.796884 7:0.005771 8:0.006778 9:0.005853 10:0.315789 11:0.818182 12:0.380952 
256 1:0.555365 2:0.632888 3:0.608462 4:0.7729 5:0.792021 6:0.853056 7:0.00263 8:0.002337 9:0.002217 10:0.210526 11:0.363636 12:0.142857 
183.328131468796 1:0.362651 2:0.442129 3:0.453431 4:0.678614 5:0.792707 6:0.720937 7:0.00312 8:0.002325 9:0.002815 10:0.210526 11:0.545455 12:0.285714 
256 1:0.459896 2:0.481404 3:0.504557 4:0.78622 5:0.776742 6:0.762017 7:0.009399 8:0.00948 9:0.008714 10:0.368421 11:0.636364 12:0.333333 
249.6953409825423 1:0.310253 2:0.371196 3:0.457399 4:0.747551 5:0.818458 6:0.810097 7:0.023896 8:0.023613 9:0.022982 10:0.105263 11:0.181818 12:0.095238 
90.43596693897747 1:0.250471 2:0.264183 3:0.23161 4:0.784723 5:0.785636 6:0.751273 7:0.019626 8:0.021064 9:0.020526 10:0.315789 11:0.545455 12:0.285714 
256 1:0.301962 2:0.382211 3:0.367318 4:0.763491 5:0.819241 6:0.672376 7:0.00635 8:0.004767 9:0.005361 10:0.105263 11:0.181818 12:0.095238 
30.48991254514188 1:0.316409 2:0.443128 3:0.533298 4:0.661058 5:0.486036 6:0.808033 7:0.010644 8:0.0139 9:0.005303 10:0.157895 11:0.181818 12:0.238095 
25.36901117073076 1:0.316577 2:0.368728 3:0.362332 4:0.622294 5:0.556024 6:0.528356 7:0.047186 8:0.041339 9:0.040161 10:0.157895 11:0.363636 12:0.142857 
154.2197702498465 1:0.433784 2:0.464506 3:0.494835 4:0.736325 5:0.792668 6:0.717874 7:0.002672 8:0.003021 9:0.00288 10:0.315789 11:0.454545 12:0.285714 
256 1:0.266593 2:0.276968 3:0.270233 4:0.545136 5:0.585507 6:0.532807 7:0.056785 8:0.047398 9:0.056719 10:0.052632 11:0.090909 12:0.047619 
256 1:0.294701 2:0.288238 3:0.305485 4:0.610535 5:0.663743 6:0.617303 7:0.009409 8:0.009829 9:0.008834 10:0.263158 11:0.454545 12:0.238095 
256 1:0.349678 2:0.36046 3:0.399093 4:0.791895 5:0.801967 6:0.697649 7:0.005832 8:0.006122 9:0.006299 10:0.157895 11:0.272727 12:0.142857 
256 1:0.242254 2:0.283254 3:0.231847 4:0.536748 5:0.604579 6:0.583616 7:0.008541 8:0.006451 9:0.007726 10:0.052632 11:0.090909 12:0.047619 
185.6507854617337 1:0.255118 2:0.303394 3:0.242428 4:0.685059 5:0.753563 6:0.703674 7:0.02448 8:0.020257 9:0.022057 10:0.052632 11:0.090909 12:0.047619 
12.57007346175359 1:1 2:1 3:1 4:0.942695 5:0.965461 6:0.989052 7:0.001969 8:0.002597 9:0.002568 10:0.578947 11:1 12:1 
256 1:0.27527 2:0.291511 3:0.309742 4:0.694239 5:0.772322 6:0.715819 7:0.008472 8:0.006049 9:0.006523 10:0.052632 11:0.090909 12:0.047619 
13.44392155354774 1:0.46653 2:0.535145 3:0.401176 4:0.601963 5:0.752142 6:0.237443 7:0.000979 8:0.001293 9:0.008688 10:0.473684 11:0.818182 12:0.095238 
170.4793784726498 1:0.601796 2:0.472578 3:0.444128 4:0.65695 5:0.730757 6:0.662182 7:0.007604 8:0.007282 9:0.00832 10:0.105263 11:0.090909 12:0.047619 
73.19982719877623 1:0.329619 2:0.36752 3:0.488259 4:0.827007 5:0.893599 6:0.833106 7:0.004963 8:0.004117 9:0.004648 10:0.157895 11:0.272727 12:0.142857 
20.46283689271811 1:0.278912 2:0.407352 3:0.460509 4:0.583858 5:0.642235 6:0.600132 7:0.008553 8:0.008677 9:0.00803 10:0.315789 11:0.727273 12:0.380952 
6.829597406507665 1:0.067749 2:0.075895 3:0.048149 4:0 5:0 6:0 7:0.0842 8:0.079928 9:0.095324 10:0.052632 11:0.090909 12:0.047619 
20.66413313534626 1:0.244414 2:0.269489 3:0.335132 4:0.622494 5:0.732192 6:0.701584 7:0.014428 8:0.01259 9:0.011738 10:0.157895 11:0.363636 12:0.190476 
46.11470458481206 1:0.316257 2:0.313966 3:0.284843 4:0.515202 5:0.62621 6:0.640695 7:0.025828 8:0.022685 9:0.023516 10:0.157895 11:0.272727 12:0.142857 
256 1:0.220052 2:0.210457 3:0.183605 4:0.593926 5:0.580618 6:0.532053 7:0.036195 8:0.035706 9:0.034576 10:0.052632 11:0.090909 12:0.047619 
3.194524562147236 1:0.228924 2:0.362355 3:0.331621 4:0.735906 5:0.804609 6:0.775838 7:0.041514 8:0.032193 9:0.030777 10:0.052632 11:0.090909 12:0.047619 
4.297030178695852 1:0.207565 2:0.248483 3:0.246332 4:0.420068 5:0.439742 6:0.365896 7:0.07266 8:0.071345 9:0.076993 10:0.105263 11:0.181818 12:0.047619 
256 1:0.623831 2:0.558238 3:0.673233 4:0.795581 5:0.752499 6:0.825029 7:0.001009 8:0.001198 9:0.001287 10:0.421053 11:0.727273 12:0.380952 
94.00874647598309 1:0.644539 2:0.669555 3:0.724706 4:0.913514 5:0.966477 6:0.896447 7:0.000964 8:0.001431 9:0.000722 10:0.368421 11:0.636364 12:0.380952 
256 1:0.334983 2:0.415557 3:0.328627 4:0.704206 5:0.704694 6:0.665986 7:0.016134 8:0.009561 9:0.020514 10:0.105263 11:0.181818 12:0.095238 
256 1:0.14134 2:0.200507 3:0.189771 4:0.591993 5:0.678112 6:0.576359 7:0.039601 8:0.026539 9:0.037407 10:0.052632 11:0.090909 12:0.047619 
29.32506447510635 1:0.378734 2:0.577003 3:0.44373 4:0.267336 5:0.549757 6:0.140724 7:0.023003 8:0.003355 9:0.018322 10:0.052632 11:0.181818 12:0.047619 
256 1:0.303525 2:0.248318 3:0.291337 4:0.569483 5:0.569134 6:0.632578 7:0.003038 8:0.0033 9:0.002916 10:0.105263 11:0.181818 12:0.095238 
191.1950496828835 1:0.185808 2:0.246365 3:0.19562 4:0.676463 5:0.665808 6:0.563773 7:0.033019 8:0.024306 9:0.028754 10:0.052632 11:0.090909 12:0.047619 
20.11700497985063 1:0.355395 2:0.426993 3:0.335988 4:0.612569 5:0.734964 6:0.656623 7:0.030182 8:0.016826 9:0.024383 10:0.052632 11:0.090909 12:0.047619 
238.9210820832398 1:0.474387 2:0.631382 3:0.534412 4:0.815514 5:0.846722 6:0.819263 7:0.005589 8:0.004137 9:0.0081 10:0.157895 11:0.454545 12:0.142857 
256 1:0.51438 2:0.563391 3:0.527845 4:0.848702 5:0.890751 6:0.819239 7:0.00402 8:0.003659 9:0.004341 10:0.105263 11:0.181818 12:0.095238 
130.8199410302497 1:0.542626 2:0.466009 3:0.697509 4:0.712151 5:0.737696 6:0.806475 7:0.007736 8:0.013071 9:0.005549 10:0.105263 11:0.090909 12:0.142857 
256 1:0.563129 2:0.57281 3:0.59692 4:0.776484 5:0.78981 6:0.718618 7:0.000265 8:0.000633 9:0.001894 10:0.157895 11:0.363636 12:0.142857 
43.01723658969574 1:0.627641 2:0.641514 3:0.759045 4:0.909014 5:0.889718 6:0.871937 7:0.000163 8:0.000958 9:0.000604 10:0.315789 11:0.727273 12:0.47619 
239.2115782299129 1:0.638893 2:0.767745 3:0.820812 4:0.793091 5:0.897131 6:0.864496 7:0.001503 8:0.000509 9:0.001093 10:0.210526 11:0.636364 12:0.238095 
17.39144085373924 1:0.257207 2:0.171855 3:0.282662 4:0.706101 5:0.631331 6:0.57883 7:0.033228 8:0.03363 9:0.030293 10:0.052632 11:0.090909 12:0.047619 
100.3843221792448 1:0.520622 2:0.762093 3:0.785481 4:0.764438 5:1 6:0.909277 7:0.004032 8:0.001638 9:0.003035 10:0.210526 11:0.636364 12:0.285714 
100.899251365317 1:0.519253 2:0.508029 3:0.445261 4:0.927349 5:0.96447 6:0.800929 7:0.0003 8:0.001224 9:0.003142 10:0.421053 11:0.727273 12:0.333333 
160.2122994082219 1:0.259321 2:0.298709 3:0.245495 4:0.695394 5:0.774947 6:0.653554 7:0.005896 8:0.006897 9:0.006757 10:0.052632 11:0.090909 12:0.047619 
205.6805743960032 1:0.452108 2:0.363828 3:0.432925 4:0.720813 5:0.74607 6:0.778109 7:0.002007 8:0.002359 9:0.001573 10:0.368421 11:0.636364 12:0.285714 
4.103459994438537 1:0.578397 2:0.605415 3:0.676613 4:0.899979 5:0.920293 6:0.962436 7:0.002722 8:0.001512 9:0.002087 10:0.263158 11:0.909091 12:0.238095 
256 1:0.640826 2:0.726067 3:0.752616 4:0.848319 5:0.971539 6:0.827828 7:0.000487 8:0.001944 9:0.000709 10:0.263158 11:0.272727 12:0.238095 
252.0618610695165 1:0.37349 2:0.686979 3:0.596966 4:0.646733 5:0.81229 6:0.704006 7:0.009742 8:0.004948 9:0.006036 10:0.052632 11:0.090909 12:0.047619 
170.0820103809944 1:0.396058 2:0.379192 3:0.298862 4:0.716302 5:0.701496 6:0.726349 7:0.005119 8:0.005144 9:0.005106 10:0.473684 11:0.727273 12:0.333333 
-53.00353148659413 1:0.30802 2:0.315894 3:0.30907 4:0.694384 5:0.728584 6:0.69569 7:0.176761 8:0.176688 9:0.176296 10:0.473684 11:0.818182 12:0.428571 
-33.33257175382684 1:0.767538 2:0.844069 3:0.936565 4:0.967996 5:0.935333 6:0.968203 7:0.002332 8:0.001586 9:0.002108 10:0.526316 11:0.909091 12:0.428571 
-170.1649923983165 1:0.599796 2:0.726993 3:0.590117 4:0.809699 5:0.759493 6:0.729256 7:0.0008 8:0.00111 9:0.001611 10:0.263158 11:0.363636 12:0.142857 
-234.5354810355378 1:0.418021 2:0.460602 3:0.4259 4:0.78587 5:0.838282 6:0.791995 7:0.008916 8:0.007482 9:0.008342 10:0.052632 11:0.090909 12:0.047619 
-256 1:0.248954 2:0.297284 3:0.293075 4:0.687246 5:0.763103 6:0.623158 7:0.021838 8:0.021923 9:0.022197 10:0.263158 11:0.454545 12:0.238095 
-110.4544690742611 1:0.537186 2:0.660777 3:0.733561 4:0.816554 5:0.796769 6:0.854677 7:0.001378 8:0.001224 9:0.000886 10:0.315789 11:0.636364 12:0.47619 
-256 1:0.161945 2:0.214863 3:0.26375 4:0.702394 5:0.723417 6:0.704251 7:0.032453 8:0.031051 9:0.032047 10:0.052632 11:0.090909 12:0.047619 
-222.3188544996927 1:0.51395 2:0.507464 3:0.506912 4:0.79725 5:0.724506 6:0.71616 7:0.000709 8:0.001104 9:0.001259 10:0.473684 11:0.818182 12:0.333333 
-256 1:0.319386 2:0.347534 3:0.295397 4:0.810757 5:0.857553 6:0.81698 7:0.009756 8:0.0101 9:0.0102 10:0.421053 11:0.727273 12:0.380952 
-49.5964746440255 1:0.659593 2:0.649154 3:0.635627 4:0.932977 5:0.725607 6:0.830681 7:0.001526 8:0.00181 9:0.002119 10:0.263158 11:0.545455 12:0.238095 
-182.6269193722333 1:0.224435 2:0.259265 3:0.235709 4:0.593367 5:0.697367 6:0.608795 7:0.00666 8:0.006976 9:0.007005 10:0.315789 11:0.545455 12:0.285714 
-256 1:0.273495 2:0.350965 3:0.345339 4:0.649528 5:0.695194 6:0.641069 7:0.01532 8:0.011301 9:0.012367 10:0.105263 11:0.272727 12:0.142857 
-205.2909802683955 1:0.58093 2:0.542686 3:0.630347 4:0.706542 5:0.680249 6:0.78143 7:0.000287 8:0.000863 9:0.00071 10:0.421053 11:0.727273 12:0.380952 
-143.9604128039263 1:0.315716 2:0.400886 3:0.358493 4:0.682281 5:0.757681 6:0.758933 7:0.012637 8:0.014044 9:0.012876 10:0.052632 11:0.090909 12:0.047619 
-256 1:0.328788 2:0.329764 3:0.376384 4:0.726405 5:0.730583 6:0.69363 7:0.015782 8:0.014045 9:0.013665 10:0.052632 11:0.090909 12:0.047619 
-60.83582997979489 1:0.444731 2:0.485802 3:0.488486 4:0.605224 5:0.557336 6:0.639276 7:0.006055 8:0.006336 9:0.006289 10:0.315789 11:0.545455 12:0.285714 
-157.9046058198017 1:0.107322 2:0.157459 3:0.12013 4:0.536645 5:0.621226 6:0.597784 7:0.067924 8:0.033015 9:0.034775 10:0.052632 11:0.090909 12:0.047619 
-180.5472081637658 1:0.663325 2:0.731034 3:0.76773 4:0.775055 5:0.898236 6:0.839601 7:0.000817 8:0.001759 9:0.001055 10:0.263158 11:0.272727 12:0.238095 
-20.76266014323548 1:0.550339 2:0.572181 3:0.716681 4:0.644563 5:0.702009 6:0.956587 7:0.000321 8:0.000556 9:0.000813 10:0.315789 11:0.545455 12:0.238095 
-133.9140829865817 1:0.51114 2:0.570193 3:0.649004 4:0.683154 5:0.783401 6:0.65292 7:0.002111 8:0.002804 9:0.003217 10:0.105263 11:0.181818 12:0.095238 
-143.4242821565247 1:0.504997 2:0.466547 3:0.528423 4:0.807035 5:0.833367 6:0.843361 7:0.006035 8:0.002988 9:0.004802 10:0.105263 11:0.363636 12:0.095238 
-256 1:0.410889 2:0.568423 3:0.517522 4:0.807447 5:0.862866 6:0.804123 7:0.005876 8:0.00419 9:0.004105 10:0.052632 11:0.181818 12:0.095238 
-77.71795010518188 1:0.650382 2:0.849212 3:0.913715 4:0.808859 5:0.953028 6:0.897887 7:0.002338 8:0.001954 9:0.00136 10:0.157895 11:0.545455 12:0.190476 
-68.09402477706598 1:0.762593 2:0.684012 3:0.55075 4:0.942517 5:0.873642 6:0.703161 7:0.002631 8:0.002013 9:0.005006 10:0.157895 11:0.181818 12:0.095238 
-42.25296700772593 1:0.646616 2:0.691696 3:0.830522 4:0.652004 5:0.679466 6:0.690885 7:0.000567 8:0.000445 9:0.000768 10:0.315789 11:0.545455 12:0.285714 
-10.38444940076986 1:0.686352 2:0.183748 3:0.3717 4:0.689873 5:0.303487 6:0.575086 7:0.001009 8:0.028044 9:0.011182 10:0.210526 11:0.181818 12:0.047619 
-256 1:0.060743 2:0.056042 3:0.046409 4:0.358117 5:0.377382 6:0.346955 7:0.060508 8:0.063217 9:0.062485 10:0.052632 11:0.090909 12:0.047619 
-11.8252664584232 1:0.700028 2:0.833088 3:0.667656 4:0.877295 5:0.915313 6:0.849583 7:0.000826 8:0.001952 9:0.002967 10:0.263158 11:0.272727 12:0.095238 
-256 1:0.353493 2:0.380138 3:0.424649 4:0.72586 5:0.763546 6:0.76901 7:0.001803 8:0.002184 9:0.002099 10:0.421053 11:0.727273 12:0.380952 
-42.6267679916846 1:0.255415 2:0.306511 3:0.230094 4:0.501497 5:0.604745 6:0.375474 7:0.014702 8:0.012975 9:0.016184 10:0.052632 11:0.090909 12:0.047619 
-256 1:0.57439 2:0.545552 3:0.589983 4:0.793855 5:0.896662 6:0.887438 7:0.000434 8:0.000838 9:0.000991 10:0.263158 11:0.454545 12:0.238095 
-256 1:0.508151 2:0.536101 3:0.557979 4:0.770829 5:0.771866 6:0.812995 7:0.000595 8:0.000775 9:0.001178 10:0.263158 11:0.545455 12:0.238095 
-155.1821805041838 1:0.520407 2:0.568449 3:0.587502 4:0.870437 5:0.731135 6:0.660882 7:0.000434 8:0.000456 9:0.000436 10:0.157895 11:0.454545 12:0.190476 
-82.89007773457644 1:0.523122 2:0.544961 3:0.563317 4:0.719405 5:0.744524 6:0.787281 7:0.006172 8:0.006628 9:0.006735 10:0.473684 11:0.818182 12:0.428571 
-190.374640634593 1:0.472964 2:0.536161 3:0.48257 4:0.76708 5:0.827326 6:0.796623 7:0.00161 8:0.002101 9:0.002076 10:0.473684 11:0.727273 12:0.380952 
-10.88637226492385 1:0.327773 2:0.352164 3:0.330101 4:0.496472 5:0.204871 6:0.499678 7:0.02878 8:0.0529 9:0.023588 10:0.052632 11:0.090909 12:0.047619 
-44.11439516014952 1:0.18837 2:0.225567 3:0.176044 4:0.22038 5:0.251038 6:0.217675 7:0.017551 8:0.014275 9:0.012702 10:0.052632 11:0.090909 12:0.047619 
-172.4201529504353 1:0.163592 2:0.195921 3:0.206882 4:0.454453 5:0.531835 6:0.425171 7:0.029957 8:0.021602 9:0.033032 10:0.052632 11:0.090909 12:0.047619 
-70.23401931149728 1:0.586215 2:0.715369 3:0.733172 4:0.924514 5:0.972625 6:0.979113 7:1.5e-05 8:0 9:0 10:0.157895 11:0.454545 12:0.333333 
-1.667095420936183 1:0.276955 2:0.278968 3:0.293136 4:0.124076 5:0.248786 6:0.160285 7:0.351072 8:0.061808 9:0.166613 10:0.052632 11:0.090909 12:0.047619 
-256 1:0.471489 2:0.5717 3:0.595878 4:0.739234 5:0.795455 6:0.7389 7:0.00983 8:0.005066 9:0.0084 10:0.105263 11:0.272727 12:0.095238 
-0.3441308638423491 1:0.478725 2:0.559987 3:0.417683 4:0.71607 5:0.736276 6:0.655912 7:0.002178 8:0.002467 9:0.004055 10:0.105263 11:0.181818 12:0.095238 
-127.0063578384179 1:0.260601 2:0.230115 3:0.293462 4:0.704536 5:0.683242 6:0.662189 7:0.009258 8:0.009457 9:0.011602 10:0.210526 11:0.363636 12:0.142857 
-256 1:0.305247 2:0.199568 3:0.231681 4:0.586635 5:0.581536 6:0.499535 7:0.009703 8:0.020135 9:0.022583 10:0.052632 11:0.090909 12:0.047619 
-24.43238654536658 1:0.683503 2:0.700431 3:0.927817 4:1 5:0.981786 6:1 7:0 8:0.001065 9:0.001027 10:0.421053 11:0.454545 12:0.285714 
-145.7569283878986 1:0.345474 2:0.511364 3:0.50189 4:0.63696 5:0.734268 6:0.674455 7:0.006265 8:0.004377 9:0.004524 10:0.105263 11:0.181818 12:0.095238 
-256 1:0.534205 2:0.65585 3:0.685417 4:0.770886 5:0.964653 6:0.902068 7:8.5e-05 8:3.6e-05 9:0.000387 10:0.315789 11:0.636364 12:0.333333 
-256 1:0.349028 2:0.382391 3:0.356545 4:0.688853 5:0.70196 6:0.659539 7:0.005131 8:0.004403 9:0.006496 10:0.157895 11:0.363636 12:0.142857 
-88.31118124234541 1:0.557228 2:0.545973 3:0.656689 4:0.632525 5:0.692918 6:0.823698 7:0.00184 8:0.001589 9:0.001705 10:0.368421 11:0.454545 12:0.380952 
-31.92627950230808 1:0.869131 2:0.695735 3:0.942717 4:0.914905 5:0.943617 6:0.957789 7:0.000894 8:0.001076 9:0.001137 10:0.526316 11:0.818182 12:0.47619 
-256 1:0.172905 2:0.241519 3:0.161231 4:0.684762 5:0.664655 6:0.60022 7:0.012944 8:0.013676 9:0.018067 10:0.052632 11:0.090909 12:0.047619 
-11.77952245361552 1:0.453727 2:0.450027 3:0.501423 4:0.725698 5:0.676087 6:0.632008 7:0.001525 8:0.00326 9:0.002893 10:0.210526 11:0.272727 12:0.190476 
-224.5893834062661 1:0.37446 2:0.367657 3:0.297968 4:0.553682 5:0.653806 6:0.56704 7:0.009222 8:0.008489 9:0.010074 10:0.105263 11:0.090909 12:0.095238 
-87.09304085377485 1:0.373154 2:0.623889 3:0.439717 4:0.811096 5:0.864912 6:0.774122 7:0.000865 8:0.005643 9:0.003236 10:0.105263 11:0.181818 12:0.047619 
-256 1:0.196706 2:0.254986 3:0.216816 4:0.544493 5:0.623985 6:0.601548 7:0.047017 8:0.041877 9:0.050719 10:0.052632 11:0.090909 12:0.047619 
-256 1:0.534846 2:0.677508 3:0.621082 4:0.762399 5:0.777246 6:0.806038 7:0.001029 8:0.001097 9:0.001396 10:0.368421 11:0.636364 12:0.333333 
-38.30459579777445 1:0.514883 2:0.717772 3:0.501927 4:0.797378 5:0.916603 6:0.611774 7:0.006946 8:0.005012 9:0.007351 10:0.052632 11:0.090909 12:0.047619 
-63.68092906945837 1:0.470084 2:0.433899 3:0.483365 4:0.738355 5:0.734059 6:0.87731 7:0.001935 8:0.002402 9:0.001939 10:0.315789 11:0.454545 12:0.380952 
-256 1:0.444131 2:0.499863 3:0.493364 4:0.766391 5:0.799622 6:0.7504 7:0.004884 8:0.005029 9:0.006049 10:0.105263 11:0.181818 12:0.095238 
-54.25677737650498 1:0.48815 2:0.712583 3:0.906088 4:0.768078 5:0.89269 6:0.877399 7:0.002802 8:0.002456 9:0.001438 10:0.105263 11:0.272727 12:0.333333 
-134.2757425548077 1:0.503296 2:0.508712 3:0.454249 4:0.627121 5:0.614221 6:0.757208 7:0.004752 8:0.005106 9:0.006813 10:0.105263 11:0.181818 12:0.047619 
-23.69572242709384 1:0.372553 2:0.469457 3:0.438711 4:0.071042 5:0.479007 6:0.247323 7:0.039116 8:0.008452 9:0.019658 10:0.105263 11:0.181818 12:0.095238 
-173.7062008674368 1:0.219646 2:0.297136 3:0.156578 4:0.548371 5:0.584451 6:0.546107 7:0.056983 8:0.047441 9:0.080618 10:0.052632 11:0.090909 12:0 
-15.93381668763512 1:0.439812 2:0.382416 3:0.458127 4:0.713156 5:0.798371 6:0.757571 7:0.001368 8:0.00285 9:0.003204 10:0.368421 11:0.454545 12:0.190476 
-256 1:0.42818 2:0.371535 3:0.422911 4:0.824074 5:0.775224 6:0.741608 7:0.002754 8:0.003803 9:0.00474 10:0.157895 11:0.181818 12:0.095238 
-256 1:0.446916 2:0.486337 3:0.561007 4:0.816316 5:0.87364 6:0.860987 7:0.001268 8:0.000993 9:0.002951 10:0.263158 11:0.545455 12:0.190476 
-256 1:0.431703 2:0.4868 3:0.42774 4:0.778589 5:0.842771 6:0.805141 7:0.000968 8:0.001433 9:0.001609 10:0.315789 11:0.545455 12:0.285714 
-256 1:0.319583 2:0.252725 3:0.241758 4:0.60209 5:0.635136 6:0.555347 7:0.00469 8:0.003664 9:0.005914 10:0.105263 11:0.181818 12:0.095238 
-28.89453007448351 1:0.557913 2:0.469065 3:0.653394 4:0.862969 5:0.839977 6:0.87712 7:0.00761 8:0.006066 9:0.004398 10:0.105263 11:0.181818 12:0.095238 
-222.5985035390796 1:0.508799 2:0.725746 3:0.602498 4:0.781822 5:0.992434 6:0.739351 7:0.003027 8:0.001616 9:0.002371 10:0.263158 11:0.727273 12:0.333333 
-256 1:0.387774 2:0.530234 3:0.519564 4:0.796734 5:0.841854 6:0.745051 7:0.002285 8:0.001835 9:0.003811 10:0.157895 11:0.181818 12:0.095238 
-51.19469557777503 1:0.410515 2:0.604652 3:0.728248 4:0.73011 5:0.861562 6:0.839412 7:0.006559 8:0.003743 9:0.003139 10:0.052632 11:0.090909 12:0.095238 
-229.550047236573 1:0.602635 2:0.66834 3:0.715928 4:0.773357 5:0.896174 6:0.856922 7:0.000568 8:0.000893 9:0.001169 10:0.210526 11:0.454545 12:0.142857 
-75.0140714583726 1:0.378607 2:0.364032 3:0.406313 4:0.764294 5:0.787086 6:0.729067 7:0.00984 8:0.008481 9:0.008994 10:0.052632 11:0.090909 12:0.047619 
-256 1:0.341467 2:0.320888 3:0.330678 4:0.781487 5:0.807213 6:0.76241 7:0.009552 8:0.005141 9:0.007536 10:0.105263 11:0.181818 12:0.095238 
