svm_type c_svc
kernel_type rbf
gamma 0.015625
nr_class 2
total_sv 177
rho 13.8308
label 1 0
probA -0.496965
probB -0.023755
nr_sv 87 90
SV
128 1:0.498462 2:0.484605 3:0.580683 4:0.516739 5:0.541336 6:0.497769 7:0.064079 8:0.057759 9:0.059038 10:0.090909 11:0.083333 12:0.047619 
128 1:0.395691 2:0.44299 3:0.570144 4:0.728122 5:0.749938 6:0.618789 7:0.013761 8:0.011089 9:0.01626 10:0.454545 11:0.583333 12:0.238095 
128 1:0.749391 2:0.506695 3:0.722192 4:1 5:0.803763 6:0.852208 7:0.034686 8:0.035977 9:0.035869 10:0.454545 11:0.416667 12:0.190476 
128 1:0.216016 2:0.22724 3:0.270091 4:0.442108 5:0.544554 6:0.497689 7:0.168706 8:0.142251 9:0.195072 10:0.090909 11:0.083333 12:0.047619 
128 1:0.243684 2:0.264528 3:0.266925 4:0.514693 5:0.578443 6:0.564475 7:0.129461 8:0.142598 9:0.14025 10:0.272727 11:0.25 12:0.142857 
128 1:0.47992 2:0.504604 3:0.68434 4:0.712734 5:0.872102 6:0.801473 7:0.054491 8:0.028447 9:0.024596 10:0.090909 11:0.166667 12:0.095238 
128 1:0.31128 2:0.407566 3:0.447408 4:0.57868 5:0.799238 6:0.703256 7:0.046896 8:0.041839 9:0.038994 10:0.363636 11:0.583333 12:0.238095 
128 1:0.603756 2:0.483305 3:0.542673 4:0.749445 5:0.859458 6:0.79816 7:0.034799 8:0.032496 9:0.037209 10:0.545455 11:0.583333 12:0.285714 
128 1:0.591054 2:0.480058 3:0.553962 4:0.727714 5:0.753838 6:0.74228 7:0.040832 8:0.046712 9:0.042628 10:0.636364 11:0.583333 12:0.333333 
128 1:0.529274 2:0.593116 3:0.649441 4:0.503672 5:0.824612 6:0.767417 7:0.028267 8:0.014615 9:0.013595 10:0.272727 11:0.333333 12:0.238095 
128 1:0.356256 2:0.369408 3:0.503779 4:0.710068 5:0.626253 6:0.605933 7:0.091279 8:0.027448 9:0.038616 10:0.272727 11:0.583333 12:0.238095 
128 1:0.532774 2:0.701918 3:0.528794 4:0.744357 5:0.90802 6:0.767315 7:0.045045 8:0.039507 9:0.037807 10:0.181818 11:0.416667 12:0.190476 
128 1:0.590516 2:0.651067 3:0.703284 4:0.688299 5:0.66007 6:0.716062 7:0.022638 8:0.018734 9:0.025905 10:0.363636 11:0.416667 12:0.190476 
128 1:0.526009 2:0.477248 3:0.62864 4:0.810786 5:0.820061 6:0.787629 7:0.05923 8:0.032952 9:0.04083 10:0.363636 11:0.416667 12:0.190476 
128 1:0.502648 2:0.854525 3:0.966262 4:0.483169 5:0.904248 6:0.844838 7:0.025593 8:0.005663 9:0.005464 10:0.272727 11:0.666667 12:0.380952 
128 1:0.396994 2:0.386957 3:0.376365 4:0.706054 5:0.712567 6:0.686726 7:0.035787 8:0.034409 9:0.038236 10:0.272727 11:0.166667 12:0.095238 
128 1:0.380242 2:0.349235 3:0.50587 4:0.687585 5:0.66434 6:0.791018 7:0.056263 8:0.058805 9:0.03803 10:0.090909 11:0.083333 12:0.047619 
128 1:0.461701 2:0.340379 3:0.402213 4:0.614348 5:0.697024 6:0.668665 7:0.038083 8:0.034513 9:0.034266 10:0.363636 11:0.25 12:0.142857 
128 1:0.292465 2:0.3341 3:0.357894 4:0.32003 5:0.477098 6:0.499921 7:0.140833 8:0.107512 9:0.072435 10:0.090909 11:0.083333 12:0.047619 
128 1:0.29564 2:0.325005 3:0.373011 4:0.312185 5:0.373118 6:0.373747 7:0.065656 8:0.059244 9:0.060388 10:0.181818 11:0.166667 12:0.095238 
128 1:0.63875 2:0.526452 3:0.596173 4:0.761224 5:0.763625 6:0.770779 7:0.021321 8:0.019386 9:0.017257 10:0.454545 11:0.416667 12:0.238095 
1.666152684509995 1:0.296075 2:0.248831 3:0.335148 4:0.002288 5:0.056034 6:0.059452 7:1 8:1 9:1 10:0.090909 11:0.083333 12:0.047619 
128 1:0.507278 2:0.473002 3:0.640543 4:0.822767 5:0.877148 6:0.843473 7:0.02421 8:0.027892 9:0.034988 10:0.454545 11:0.416667 12:0.238095 
128 1:0.326998 2:0.313298 3:0.297547 4:0.562078 5:0.578637 6:0.513164 7:0.061533 8:0.074617 9:0.102816 10:0.090909 11:0.083333 12:0.047619 
128 1:0.378942 2:0.361371 3:0.354123 4:0.606945 5:0.646336 6:0.634443 7:0.060588 8:0.062545 9:0.05784 10:0.454545 11:0.5 12:0.238095 
128 1:0.182048 2:0.197346 3:0.204484 4:0.562826 5:0.592914 6:0.570981 7:0.28817 8:0.298899 9:0.28867 10:0.272727 11:0.25 12:0.142857 
128 1:0.536351 2:0.490461 3:0.640976 4:0.600036 5:0.656166 6:0.665009 7:0.052487 8:0.054286 9:0.050473 10:0.181818 11:0.166667 12:0.142857 
128 1:0.662905 2:0.597422 3:0.663905 4:0.718861 5:0.839974 6:0.901722 7:0.014466 8:0.014912 9:0.014761 10:0.727273 11:0.666667 12:0.380952 
128 1:0.441042 2:0.462526 3:0.535386 4:0.572341 5:0.624219 6:0.540833 7:0.042716 8:0.041934 9:0.042396 10:0.272727 11:0.25 12:0.142857 
128 1:0.552762 2:0.568774 3:0.712179 4:0.765618 5:0.859558 6:0.828035 7:0.007256 8:0.006245 9:0.009618 10:0.545455 11:0.5 12:0.238095 
128 1:0.73431 2:0.667926 3:0.661963 4:0.706862 5:0.800035 6:0.737024 7:0.018465 8:0.014407 9:0.014244 10:0.272727 11:0.333333 12:0.142857 
128 1:0.179799 2:0.171469 3:0.172585 4:0.551111 5:0.523011 6:0.559778 7:0.248925 8:0.262431 9:0.252001 10:0.090909 11:0.083333 12:0.047619 
128 1:0.299784 2:0.382591 3:0.468768 4:0.719879 5:0.549618 6:0.658508 7:0.027421 8:0.009002 9:0.00985 10:0.272727 11:0.5 12:0.285714 
128 1:0.486816 2:0.457827 3:0.497922 4:0.708515 5:0.768819 6:0.775844 7:0.032444 8:0.035583 9:0.034198 10:0.636364 11:0.583333 12:0.285714 
128 1:0.342743 2:0.356811 3:0.499397 4:0.514175 5:0.589644 6:0.710511 7:0.122434 8:0.11948 9:0.115947 10:0.181818 11:0.166667 12:0.095238 
128 1:0.734627 2:0.768747 3:0.707472 4:0.648906 5:0.712387 6:0.691842 7:0.015319 8:0.00981 9:0.013062 10:0.363636 11:0.666667 12:0.333333 
128 1:0.572727 2:0.592001 3:0.603338 4:0.712969 5:0.723748 6:0.705581 7:0.018611 8:0.006954 9:0.006405 10:0.181818 11:0.333333 12:0.190476 
128 1:0.146951 2:0.249012 3:0.241285 4:0.4546 5:0.475662 6:0.525124 7:0.361239 8:0.305785 9:0.257984 10:0.090909 11:0.083333 12:0.047619 
128 1:0.318458 2:0.343328 3:0.357277 4:0.533574 5:0.613947 6:0.580066 7:0.147952 8:0.162903 9:0.159877 10:0.181818 11:0.166667 12:0.047619 
128 1:0.491963 2:0.474212 3:0.571641 4:0.712957 5:0.719283 6:0.679799 7:0.026714 8:0.020112 9:0.017349 10:0.272727 11:0.25 12:0.142857 
128 1:0.263754 2:0.257306 3:0.263941 4:0.479425 5:0.531566 6:0.503328 7:0.211272 8:0.1817 9:0.206115 10:0.090909 11:0.083333 12:0.047619 
128 1:0.420842 2:0.327046 3:0.405331 4:0.54639 5:0.498559 6:0.561724 7:0.04897 8:0.04386 9:0.047381 10:0.454545 11:0.5 12:0.238095 
128 1:0.288567 2:0.292729 3:0.294186 4:0.614699 5:0.637391 6:0.595081 7:0.045341 8:0.049917 9:0.051781 10:0.454545 11:0.416667 12:0.238095 
128 1:0.477359 2:0.434382 3:0.364963 4:0.70409 5:0.706862 6:0.659529 7:0.096367 8:0.07693 9:0.129371 10:0.090909 11:0.166667 12:0.047619 
128 1:0.496082 2:0.389454 3:0.459486 4:0.515559 5:0.578634 6:0.512979 7:0.136083 8:0.115421 9:0.163112 10:0.454545 11:0.416667 12:0.142857 
128 1:0.315316 2:0.324784 3:0.308801 4:0.610978 5:0.726303 6:0.646522 7:0.055696 8:0.044562 9:0.050769 10:0.090909 11:0.083333 12:0.047619 
128 1:0.240578 2:0.294538 3:0.298841 4:0.627521 5:0.685796 6:0.68636 7:0.052022 8:0.039568 9:0.039609 10:0.181818 11:0.166667 12:0.095238 
128 1:0.633999 2:0.588039 3:0.532618 4:0.730513 5:0.818061 6:0.687189 7:0.036639 8:0.037241 9:0.035851 10:0.272727 11:0.25 12:0.142857 
128 1:0.764669 2:0.649339 3:0.748962 4:0.809805 5:0.775144 6:0.897531 7:0.002378 8:0.001006 9:0.003043 10:0.363636 11:0.416667 12:0.238095 
128 1:0.316814 2:0.26806 3:0.299171 4:0.610705 5:0.702831 6:0.627239 7:0.085674 8:0.059586 9:0.073463 10:0.090909 11:0.166667 12:0.047619 
128 1:0.675516 2:0.61965 3:0.694296 4:0.619398 5:0.509894 6:0.553137 7:0.006344 8:0.005617 9:0.006311 10:0.818182 11:0.75 12:0.428571 
128 1:0.857086 2:0.58008 3:0.729688 4:0.933538 5:0.789082 6:0.884347 7:0.018872 8:0.016005 9:0.015581 10:0.272727 11:0.166667 12:0.142857 
128 1:0.236042 2:0.339043 3:0.272165 4:0.441428 5:0.517328 6:0.481573 7:0.03461 8:0.033785 9:0.033066 10:0.272727 11:0.25 12:0.142857 
128 1:0.435946 2:0.497116 3:0.779606 4:0.566984 5:0.711922 6:0.69603 7:0.011821 8:0.010105 9:0.00957 10:0.181818 11:0.166667 12:0.142857 
128 1:0.366758 2:0.349022 3:0.412036 4:0.433814 5:0.483915 6:0.465304 7:0.042607 8:0.043125 9:0.040229 10:0.636364 11:0.583333 12:0.333333 
128 1:0.351822 2:0.407113 3:0.439551 4:0.399356 5:0.453578 6:0.472005 7:0.131471 8:0.119211 9:0.120239 10:0.272727 11:0.25 12:0.142857 
128 1:0.311805 2:0.231064 3:0.30638 4:0.617349 5:0.635591 6:0.615037 7:0.071592 8:0.069932 9:0.069409 10:0.090909 11:0.083333 12:0.047619 
128 1:0.301336 2:0.325756 3:0.351189 4:0.619453 5:0.682587 6:0.645596 7:0.070352 8:0.055748 9:0.045856 10:0.181818 11:0.25 12:0.190476 
128 1:0.550722 2:0.355217 3:0.306967 4:0.805508 5:0.761999 6:0.722279 7:0.017832 8:0.018225 9:0.018547 10:0.545455 11:0.5 12:0.285714 
116.2271288179276 1:0.171427 2:0.163746 3:0.157744 4:0.513097 5:0.628292 6:0.543629 7:0.580675 8:0.427454 9:0.376938 10:0.090909 11:0.083333 12:0.047619 
128 1:0.226259 2:0.24421 3:0.244653 4:0.468144 5:0.574054 6:0.528216 7:0.098964 8:0.107685 9:0.10723 10:0.181818 11:0.166667 12:0.047619 
128 1:0.701994 2:0.620295 3:0.791052 4:0.795066 5:0.830285 6:0.655036 7:0.00634 8:0.006993 9:0.007174 10:0.818182 11:0.75 12:0.428571 
128 1:0.708989 2:0.644378 3:0.74678 4:0.663368 5:0.599142 6:0.621278 7:0.009981 8:0.008632 9:0.008975 10:0.636364 11:0.583333 12:0.333333 
128 1:0.372793 2:0.414448 3:0.252998 4:0.563167 5:0.615224 6:0.548977 7:0.172908 8:0.11396 9:0.21911 10:0.181818 11:0.166667 12:0.095238 
128 1:0.118589 2:0.228344 3:0.209838 4:0.381561 5:0.553467 6:0.489411 7:0.313239 8:0.174915 9:0.199697 10:0.090909 11:0.083333 12:0.047619 
128 1:0.470056 2:0.515957 3:0.498148 4:0.68378 5:0.742152 6:0.655048 7:0.164475 8:0.119352 9:0.129813 10:0.454545 11:0.416667 12:0.238095 
128 1:0.637237 2:0.597204 3:0.595366 4:0.819774 5:0.906987 6:0.838749 7:0.058031 8:0.043943 9:0.053447 10:0.181818 11:0.25 12:0.095238 
128 1:0.552397 2:0.584359 3:0.785589 4:0.68879 5:0.629973 6:0.653653 7:0.027385 8:0.028037 9:0.023665 10:0.272727 11:0.25 12:0.142857 
128 1:0.513669 2:0.696984 3:0.805625 4:0.699744 5:0.841491 6:0.842769 7:0.029746 8:0.00755 9:0.006512 10:0.181818 11:0.25 12:0.142857 
128 1:0.532614 2:0.473868 3:0.558916 4:0.813747 5:0.857255 6:0.796179 7:0.031397 8:0.035331 9:0.031293 10:0.181818 11:0.166667 12:0.095238 
128 1:0.254908 2:0.358924 3:0.286626 4:0.482784 5:0.600532 6:0.56575 7:0.053958 8:0.053615 9:0.053918 10:0.181818 11:0.166667 12:0.095238 
128 1:0.176855 2:0.187785 3:0.143026 4:0.403905 5:0.45856 6:0.412442 7:0.399974 8:0.31486 9:0.361602 10:0 11:0 12:0 
128 1:0.502045 2:0.496543 3:0.530857 4:0.551273 5:0.73461 6:0.585287 7:0.155162 8:0.096922 9:0.127257 10:0.090909 11:0.083333 12:0.047619 
128 1:0.766256 2:0.53698 3:0.550727 4:0.885142 5:0.81508 6:0.771712 7:0.015179 8:0.02583 9:0.024031 10:0.363636 11:0.166667 12:0.142857 
128 1:0.848609 2:0.763754 3:0.848517 4:0.734409 5:0.825652 6:0.791159 7:0.021057 8:0.023795 9:0.020311 10:0.181818 11:0.083333 12:0.095238 
128 1:0.746085 2:0.503314 3:0.741244 4:0.729254 5:0.624072 6:0.789849 7:0.056454 8:0.110583 9:0.055471 10:0.090909 11:0.083333 12:0.047619 
128 1:0.56601 2:0.44379 3:0.465099 4:0.708182 5:0.784337 6:0.760363 7:0.01338 8:0.023715 9:0.023536 10:0.272727 11:0.166667 12:0.095238 
128 1:0.767549 2:0.907565 3:0.936494 4:0.675369 5:0.931285 6:0.807176 7:0.006253 8:0.001832 9:0.002233 10:0.454545 11:0.5 12:0.333333 
128 1:0.776435 2:0.749905 3:0.884947 4:0.801296 5:0.924804 6:0.891161 7:0.0053 8:0.00811 9:0.008293 10:0.272727 11:0.25 12:0.142857 
128 1:0.236575 2:0.166004 3:0.25935 4:0.572379 5:0.53143 6:0.591951 7:0.206782 8:0.185518 9:0.386643 10:0.090909 11:0.083333 12:0.047619 
128 1:0.513415 2:0.498944 3:0.591237 4:0.491205 5:0.711887 6:0.784558 7:0.025358 8:0.018736 9:0.024084 10:0.454545 11:0.416667 12:0.190476 
128 1:0.662178 2:0.595408 3:0.444119 4:0.61576 5:0.71099 6:0.747899 7:0.017597 8:0.004634 9:0.01954 10:0.636364 11:0.666667 12:0.333333 
128 1:0.408744 2:0.430792 3:0.415803 4:0.442154 5:0.637179 6:0.506361 7:0.017134 8:0.016834 9:0.018861 10:0.181818 11:0.166667 12:0.047619 
128 1:0.517512 2:0.479682 3:0.467926 4:0.555824 5:0.718437 6:0.691878 7:0.011148 8:0.009566 9:0.014179 10:0.454545 11:0.416667 12:0.190476 
128 1:0.781929 2:0.871664 3:0.90708 4:0.84282 5:0.885256 6:0.709685 7:0.001918 8:0.002158 9:0.003253 10:0.545455 11:0.666667 12:0.238095 
128 1:0.304363 2:0.37726 3:0.471692 4:0.529453 5:0.655251 6:0.538014 7:0.138267 8:0.076246 9:0.091302 10:0 11:0 12:0 
128 1:0.295946 2:0.277103 3:0.30532 4:0.652965 5:0.700905 6:0.695378 7:0.070151 8:0.061798 9:0.084692 10:0.181818 11:0.166667 12:0.095238 
-128 1:0.256396 2:0.281087 3:0.355416 4:0.449519 5:0.58165 6:0.567735 7:0.103215 8:0.065475 9:0.047864 10:0.090909 11:0.083333 12:0.047619 
-128 1:0.250384 2:0.282357 3:0.287971 4:0.449598 5:0.499121 6:0.464509 7:0.44205 8:0.45256 9:0.43497 10:0.636364 11:0.583333 12:0.333333 
-128 1:0.594545 2:0.537242 3:0.55477 4:0.763451 5:0.794605 6:0.745506 7:0.038504 8:0.038217 9:0.051923 10:0.181818 11:0.166667 12:0.095238 
-128 1:0.187777 2:0.24666 3:0.296008 4:0.39038 5:0.513428 6:0.460295 7:0.180557 8:0.121672 9:0.121721 10:0.090909 11:0.083333 12:0.047619 
-128 1:0.919902 2:0.803781 3:0.895613 4:0.99276 5:1 6:0.949911 7:0.017666 8:0.016363 9:0.013729 10:0.818182 11:0.75 12:0.428571 
-53.02972853440447 1:0.719835 2:0.684729 3:0.742345 4:0.881108 5:0.921699 6:0.851922 7:0.01926 8:0.021894 9:0.028774 10:0.272727 11:0.166667 12:0.095238 
-128 1:0.606971 2:0.606499 3:0.669922 4:0.828558 5:0.911382 6:0.851707 7:0.007352 8:0.006861 9:0.008501 10:0.181818 11:0.166667 12:0.095238 
-128 1:0.359454 2:0.400948 3:0.455407 4:0.65698 5:0.708757 6:0.738273 7:0.070205 8:0.057085 9:0.051281 10:0.090909 11:0.083333 12:0.047619 
-128 1:0.295575 2:0.287077 3:0.287291 4:0.619696 5:0.670769 6:0.59098 7:0.119701 8:0.119522 9:0.119615 10:0.454545 11:0.416667 12:0.238095 
-128 1:0.749674 2:0.76267 3:0.874042 4:0.704316 5:0.893773 6:0.631928 7:0.006008 8:0.004452 9:0.003357 10:0.454545 11:0.5 12:0.47619 
-128 1:0.06421 2:0.198059 3:0.162112 4:0.425047 5:0.502334 6:0.406958 7:0.37809 8:0.285635 9:0.304756 10:0.090909 11:0.083333 12:0.047619 
-128 1:0.668809 2:0.593749 3:0.609156 4:0.818082 5:0.884028 6:0.804288 7:0.00819 8:0.008048 9:0.007164 10:0.909091 11:0.833333 12:0.47619 
-128 1:0.287089 2:0.3692 3:0.467011 4:0.679371 5:0.747603 6:0.692394 7:0.065699 8:0.048081 9:0.055065 10:0.090909 11:0.083333 12:0.047619 
-128 1:0.497083 2:0.489561 3:0.510908 4:0.704051 5:0.799067 6:0.754054 7:0.032851 8:0.035331 9:0.034069 10:0.636364 11:0.666667 12:0.380952 
-128 1:0.545982 2:0.498978 3:0.553485 4:0.606495 5:0.738999 6:0.657474 7:0.010308 8:0.009067 9:0.007786 10:0.272727 11:0.333333 12:0.190476 
-128 1:0.593315 2:0.646559 3:0.704849 4:0.808788 5:0.802747 6:0.77759 7:0.010613 8:0.004649 9:0.008169 10:0.454545 11:0.666667 12:0.285714 
-128 1:0.231745 2:0.220652 3:0.288163 4:0.562885 5:0.685066 6:0.626027 7:0.032921 8:0.033144 9:0.032734 10:0.363636 11:0.416667 12:0.238095 
-128 1:0.221776 2:0.249801 3:0.27801 4:0.523753 5:0.565307 6:0.520386 7:0.182727 8:0.137566 9:0.155017 10:0.181818 11:0.166667 12:0.095238 
-128 1:0.603418 2:0.456712 3:0.732153 4:0.608319 5:0.741361 6:0.819675 7:0.006949 8:0.008536 9:0.008599 10:0.818182 11:0.666667 12:0.428571 
-128 1:0.47163 2:0.466439 3:0.437827 4:0.601146 5:0.578417 6:0.636356 7:0.01648 8:0.016724 9:0.015031 10:0.181818 11:0.166667 12:0.095238 
-128 1:0.342232 2:0.348783 3:0.338285 4:0.703355 5:0.773184 6:0.736907 7:0.029655 8:0.017653 9:0.025859 10:0.636364 11:0.75 12:0.380952 
-128 1:0.436439 2:0.469765 3:0.445189 4:0.493042 5:0.599839 6:0.612972 7:0.060014 8:0.040265 9:0.045355 10:0.181818 11:0.166667 12:0.095238 
-128 1:0.573252 2:0.481349 3:0.557827 4:0.6251 5:0.646177 6:0.649935 7:0.013624 8:0.014845 9:0.016357 10:0.545455 11:0.5 12:0.285714 
-128 1:0.524722 2:0.472117 3:0.519585 4:0.626802 5:0.70547 6:0.647072 7:0.017492 8:0.016913 9:0.017834 10:0.727273 11:0.666667 12:0.380952 
-128 1:0.618768 2:0.706272 3:0.848493 4:0.798897 5:0.891697 6:0.830976 7:0.001184 8:0.000141 9:0.002175 10:0.818182 11:0.75 12:0.428571 
-128 1:0.188296 2:0.260997 3:0.216157 4:0.562962 5:0.69492 6:0.590752 7:0.166092 8:0.106668 9:0.135519 10:0.090909 11:0.083333 12:0.047619 
-128 1:0.720024 2:0.75593 3:0.847822 4:0.858788 5:0.870208 6:0.919215 7:0.007383 8:0.006235 9:0.005931 10:0.272727 11:0.416667 12:0.333333 
-128 1:0.311919 2:0.382112 3:0.523856 4:0.637001 5:0.613559 6:0.768933 7:0.029467 8:0.016893 9:0.020736 10:0.090909 11:0.25 12:0.095238 
-128 1:0.64529 2:0.591355 3:0.732319 4:0.689991 5:0.775237 6:0.836257 7:0.01544 8:0.014071 9:0.014535 10:0.272727 11:0.25 12:0.142857 
-128 1:0.665861 2:0.745343 3:0.731201 4:0.711645 5:0.846397 6:0.725506 7:0.006504 8:0.00427 9:0.004347 10:0.272727 11:0.583333 12:0.190476 
-89.28520325571375 1:1 2:0.710271 3:0.750047 4:0.856726 5:0.870304 6:0.80948 7:0.0092 8:0.007358 9:0.016513 10:0.636364 11:0.25 12:0.095238 
-128 1:0.309612 2:0.26676 3:0.308808 4:0.322071 5:0.376475 6:0.333565 7:0.147566 8:0.149587 9:0.150059 10:0.090909 11:0.083333 12:0.047619 
-47.18269714970319 1:0.775205 2:0.270137 3:0.378733 4:0.750707 5:0.71391 6:0.419498 7:0.014676 8:0.083095 9:0.078706 10:0.272727 11:0.166667 12:0.047619 
-116.3986001919366 1:0.195209 2:0.277187 3:0.296395 4:0.446858 5:0.554764 6:0.470732 7:0.089469 8:0.037917 9:0.033197 10:0.090909 11:0.083333 12:0.047619 
-128 1:0.489237 2:0.434674 3:0.473431 4:0.687768 5:0.721101 6:0.696386 7:0.013373 8:0.015328 9:0.014288 10:0.727273 11:0.666667 12:0.380952 
-128 1:0.174541 2:0.176463 3:0.159691 4:0.526239 5:0.620079 6:0.546137 7:0.08687 8:0.078003 9:0.083999 10:0.181818 11:0.166667 12:0.095238 
-128 1:0.748181 2:0.785975 3:0.877447 4:0.810487 5:0.911375 6:0.879747 7:0.002767 8:0.002997 9:0.0012 10:0.454545 11:0.416667 12:0.285714 
-128 1:0.786107 2:0.636233 3:0.69495 4:0.55324 5:0.578266 6:0.635662 7:0.004189 8:0.003792 9:0.006252 10:0.636364 11:0.583333 12:0.285714 
-128 1:0.621744 2:0.548995 3:0.615189 4:0.764122 5:0.840239 6:0.780401 7:0.010644 8:0.010431 9:0.015302 10:0.181818 11:0.166667 12:0.047619 
-128 1:0.22158 2:0.223533 3:0.285005 4:0.008526 5:0.051634 6:0.111016 7:0.529518 8:0.754323 9:0.351931 10:0.090909 11:0.083333 12:0.047619 
-128 1:0.140601 2:0.152767 3:0.18406 4:0.403377 5:0.443185 6:0.414029 7:0.590629 8:0.617754 9:0.599946 10:0.090909 11:0.083333 12:0.047619 
-128 1:0.276366 2:0.341085 3:0.350711 4:0.587638 5:0.670049 6:0.634301 7:0.127701 8:0.0931 9:0.108442 10:0.090909 11:0.083333 12:0.047619 
-128 1:0.561351 2:0.534756 3:0.689786 4:0.656178 5:0.713641 6:0.602459 7:0.010608 8:0.008155 9:0.012264 10:0.454545 11:0.5 12:0.285714 
-128 1:0.466067 2:0.415818 3:0.430951 4:0.516379 5:0.609447 6:0.519313 7:0.031974 8:0.034958 9:0.023253 10:0.181818 11:0.25 12:0.190476 
-128 1:0.568486 2:0.400766 3:0.60451 4:0.774672 5:0.134761 6:0.834868 7:0.03348 8:0.066591 9:0.025649 10:0.090909 11:0.166667 12:0.047619 
-128 1:0.37749 2:0.336176 3:0.279047 4:0.542032 5:0.569155 6:0.454621 7:0.077474 8:0.067763 9:0.091435 10:0.090909 11:0.083333 12:0.047619 
-128 1:0.41666 2:0.445814 3:0.559935 4:0.692966 5:0.757791 6:0.722628 7:0.017997 8:0.016625 9:0.016604 10:0.363636 11:0.333333 12:0.190476 
-128 1:0.289072 2:0.312369 3:0.312961 4:0.526558 5:0.714569 6:0.64912 7:0.082092 8:0.05588 9:0.08888 10:0.090909 11:0.083333 12:0.047619 
-128 1:0.594933 2:0.513962 3:0.607849 4:0.589622 5:0.767491 6:0.739855 7:0.024685 8:0.013434 9:0.013385 10:0.181818 11:0.333333 12:0.190476 
-128 1:0.661188 2:0.666616 3:0.699418 4:0.841135 5:0.863749 6:0.825863 7:0.001861 8:0.001166 9:0.000729 10:0.181818 11:0.25 12:0.142857 
-128 1:0.302617 2:0.429217 3:0.362864 4:0.001469 5:0.452909 6:0.162654 7:0.402734 8:0.052288 9:0.250715 10:0.090909 11:0.166667 12:0.047619 
-128 1:0.459852 2:0.445469 3:0.48543 4:0.740282 5:0.791796 6:0.651994 7:0.035289 8:0.02011 9:0.034704 10:0.181818 11:0.25 12:0.047619 
-128 1:0.674107 2:0.721968 3:0.745253 4:0.827124 5:0.922206 6:0.791067 7:0.004363 8:0.000999 9:0.003046 10:0.272727 11:0.333333 12:0.142857 
-128 1:0.444466 2:0.346806 3:0.472812 4:0.549239 5:0.622371 6:0.689605 7:0.030718 8:0.03333 9:0.034117 10:0.636364 11:0.583333 12:0.285714 
-128 1:0.330503 2:0.279156 3:0.311372 4:0.549389 5:0.67248 6:0.445562 7:0.065871 8:0.126664 9:0.262794 10:0.090909 11:0.083333 12:0 
-128 1:0.778823 2:0.658303 3:1 4:0.784994 5:0.959661 6:1 7:0.004728 8:0.005684 9:0.004787 10:0.727273 11:0.5 12:0.380952 
-128 1:0.486157 2:0.450742 3:0.450214 4:0.678567 5:0.78878 6:0.733205 7:0.022396 8:0.016576 9:0.012861 10:0.090909 11:0.166667 12:0.095238 
-128 1:0.449087 2:0.462476 3:0.455231 4:0.703846 5:0.746186 6:0.733543 7:0.034581 8:0.027858 9:0.039591 10:0.272727 11:0.333333 12:0.142857 
-128 1:0.495475 2:0.457902 3:0.549222 4:0.774292 5:0.780353 6:0.741692 7:0.025671 8:0.026694 9:0.035641 10:0.090909 11:0.166667 12:0.047619 
-128 1:0.726221 2:0.852006 3:0.846665 4:0.756983 5:0.933355 6:0.843675 7:0.03247 8:0.012038 9:0.016689 10:0.181818 11:0.416667 12:0.190476 
-128 1:0.89722 2:0.605451 3:0.937382 4:0.890216 5:0.800275 6:0.915447 7:0.007001 8:0.004246 9:0.009733 10:0.818182 11:0.666667 12:0.380952 
-128 1:0.478716 2:0.492319 3:0.635014 4:0.590607 5:0.745992 6:0.760901 7:0.021299 8:0.023141 9:0.021848 10:0.090909 11:0.166667 12:0.095238 
-128 1:0.451931 2:0.434814 3:0.499475 4:0.525289 5:0.54394 6:0.656047 7:0.02396 8:0.020857 9:0.025692 10:0.272727 11:0.333333 12:0.095238 
-31.05366857658555 1:0.398193 2:0.41345 3:0.457319 4:0.525535 5:0.510074 6:0.579123 7:0.044353 8:0.04562 9:0.043422 10:0.181818 11:0.083333 12:0.095238 
-128 1:0.392809 2:0.48222 3:0.473101 4:0.464129 5:0.764521 6:0.614378 7:0.0314 8:0.054355 9:0.025295 10:0.090909 11:0.166667 12:0.095238 
-128 1:0.408726 2:0.455259 3:0.477378 4:0.530968 5:0.578249 6:0.536376 7:0.162033 8:0.163572 9:0.160208 10:0.090909 11:0.083333 12:0.047619 
-128 1:0.375579 2:0.387381 3:0.431943 4:0.747487 5:0.772999 6:0.696755 7:0.036806 8:0.033285 9:0.037919 10:0.181818 11:0.166667 12:0.095238 
-128 1:0.481593 2:0.451059 3:0.479849 4:0.617805 5:0.708115 6:0.608695 7:0.023861 8:0.02281 9:0.024876 10:0.363636 11:0.333333 12:0.142857 
-128 1:0.247975 2:0.175093 3:0.27674 4:0.434588 5:0.460924 6:0.410121 7:0.19746 8:0.139967 9:0.188499 10:0.090909 11:0.083333 12:0.047619 
-128 1:0.482226 2:0.522928 3:0.672074 4:0.651754 5:0.697794 6:0.705876 7:0.013734 8:0.022032 9:0.023219 10:0.272727 11:0.166667 12:0.142857 
-128 1:0.573375 2:0.507536 3:0.589101 4:0.64187 5:0.575003 6:0.547349 7:0.01161 8:0.009695 9:0.013591 10:0.454545 11:0.416667 12:0.142857 
-128 1:0.580967 2:0.544809 3:0.522562 4:0.783021 5:0.859067 6:0.771643 7:0.014893 8:0.008475 9:0.018931 10:0.272727 11:0.25 12:0.047619 
-128 1:0.244167 2:0.18443 3:0.198256 4:0.240065 5:0.289349 6:0.44143 7:0.126424 8:0.121626 9:0.135043 10:0.090909 11:0.083333 12:0.047619 
-128 1:0.062786 2:0.044642 3:0.033125 4:0.293734 5:0.363729 6:0.375675 7:0.294196 8:0.254897 9:0.359543 10:0.090909 11:0.083333 12:0.047619 
-128 1:0.456496 2:0.481783 3:0.57177 4:0.555169 5:0.643271 6:0.724565 7:0.014107 8:0.013471 9:0.013426 10:0.181818 11:0.25 12:0.047619 
-128 1:0.545974 2:0.487796 3:0.534932 4:0.797059 5:0.846725 6:0.779312 7:0.015542 8:0.014753 9:0.018352 10:0.181818 11:0.166667 12:0.095238 
-91.12896964662841 1:0.333075 2:0.359549 3:0.300348 4:0.459992 5:0.331251 6:0.573362 7:0.049453 8:0.057237 9:0.050706 10:0.090909 11:0.083333 12:0.047619 
-128 1:0.404188 2:0.392749 3:0.510363 4:0.656704 5:0.619238 6:0.595753 7:0.062505 8:0.05463 9:0.061266 10:0.181818 11:0.166667 12:0.095238 
-128 1:0.420386 2:0.426059 3:0.387011 4:0.544794 5:0.735567 6:0.665139 7:0.02768 8:0.016248 9:0.017689 10:0.181818 11:0.25 12:0.142857 
-128 1:0.554618 2:0.461592 3:0.533215 4:0.791668 5:0.802007 6:0.837058 7:0.027505 8:0.024705 9:0.029646 10:0.181818 11:0.166667 12:0.095238 
-1.046229237462544 1:0.426886 2:0.414661 3:0.481279 4:0.590262 5:0.806678 6:0.67177 7:0.044945 8:0.036422 9:0.032389 10:0.090909 11:0.083333 12:0.095238 
-128 1:0.526437 2:0.500781 3:0.527404 4:0.78108 5:0.822944 6:0.776995 7:0.027455 8:0.033818 9:0.036025 10:0.363636 11:0.25 12:0.142857 
-128 1:0.535659 2:0.652058 3:0.454963 4:0.813102 5:0.953033 6:0.766539 7:0.020415 8:0.020979 9:0.024281 10:0.727273 11:0.666667 12:0.380952 
-128 1:0.464534 2:0.517546 3:0.544157 4:0.753974 5:0.593526 6:0.702996 7:0.015557 8:0.00657 9:0.017624 10:0.363636 11:0.416667 12:0.095238 
-128 1:0.537411 2:0.510049 3:0.777285 4:0.825509 5:0.828003 6:0.866044 7:0.005187 8:0.006742 9:0.007961 10:0.272727 11:0.25 12:0.190476 
-72.76818491000327 1:0.461808 2:0.619791 3:0.601286 4:0.627161 5:0.75406 6:0.628061 7:0.038133 8:0.030329 9:0.033219 10:0.090909 11:0.166667 12:0.047619 
-128 1:0.472015 2:0.407732 3:0.335883 4:0.570915 5:0.49291 6:0.561131 7:0.038205 8:0.050844 9:0.05992 10:0.181818 11:0.083333 12:0.047619 
-128 1:0.194356 2:0.178028 3:0.149001 4:0.581627 5:0.588205 6:0.514728 7:0.143729 8:0.092316 9:0.151521 10:0.090909 11:0.083333 12:0.047619 
-128 1:0.351456 2:0.37007 3:0.422668 4:0.670878 5:0.736429 6:0.678174 7:0.031884 8:0.031488 9:0.033373 10:0.272727 11:0.333333 12:0.142857 
-128 1:0.579731 2:0.546476 3:0.570332 4:0.776803 5:0.84899 6:0.784151 7:0.012169 8:0.007355 9:0.010827 10:0.181818 11:0.25 12:0.095238 
