svm_type c_svc
kernel_type rbf
gamma 0.25
nr_class 2
total_sv 185
rho -0.0887759
label 1 0
probA -0.738805
probB -0.083177
nr_sv 93 92
SV
1 1:0.529441 2:0.560638 3:0.683148 4:0.859765 5:0.838444 6:0.89669 7:0.00045 8:0.000476 9:0.000452 10:0.133333 11:0.076923 12:0.230769 
1 1:0.472927 2:0.464832 3:0.416315 4:0.802809 5:0.76007 6:0.695863 7:0.000319 8:0.000346 9:0.000499 10:0.4 11:0.461538 12:0.384615 
1 1:0.230862 2:0.307154 3:0.299235 4:0.713573 5:0.730942 6:0.761106 7:0.009648 8:0.008904 9:0.008737 10:0.2 11:0.230769 12:0.307692 
1 1:0.783087 2:0.590465 3:0.744702 4:0.966458 5:0.784789 6:0.992737 7:0.001402 8:0.00076 9:0.001561 10:1 11:0.230769 12:0.307692 
1 1:0.13453 2:0.135864 3:0.115172 4:0.593901 5:0.574596 6:0.63462 7:0.011073 8:0.009738 9:0.012533 10:0 11:0.076923 12:0.076923 
1 1:0.217411 2:0.251321 3:0.180741 4:0.551693 5:0.52156 6:0.588257 7:0.018981 8:0.018567 9:0.018273 10:0.133333 11:0.153846 12:0.230769 
1 1:0.193193 2:0.311268 3:0.284962 4:0.343267 5:0.395697 6:0.257964 7:0.014884 8:0.009217 9:0.01064 10:0 11:0.076923 12:0.153846 
1 1:0.368993 2:0.562763 3:0.420612 4:0.753887 5:0.879307 6:0.823099 7:0.00186 8:0.001049 9:0.002463 10:0.133333 11:0.384615 12:0.230769 
1 1:0.400123 2:0.46285 3:0.459644 4:0.781777 5:0.684768 6:0.788243 7:0.002453 8:0.002364 9:0.002324 10:0.333333 11:0.384615 12:0.461538 
1 1:0.461953 2:0.564192 3:0.541089 4:0.635208 5:0.623126 6:0.575826 7:0.001747 8:0.001673 9:0.00166 10:0.4 11:0.461538 12:0.538462 
1 1:0.464746 2:0.680772 3:0.569845 4:0.844837 5:0.829637 6:0.835423 7:0.001692 8:0.00046 9:0.000743 10:0.133333 11:0.307692 12:0.307692 
1 1:0.517087 2:0.295266 3:0.359287 4:0.652357 5:0.584261 6:0.586411 7:0.002426 8:0.001737 9:0.001973 10:0.333333 11:0.384615 12:0.461538 
1 1:0.420356 2:0.540263 3:0.427402 4:0.836928 5:0.848855 6:0.834587 7:0.002149 8:0.002223 9:0.00309 10:0.2 11:0.384615 12:0.153846 
1 1:0.748863 2:0.657868 3:0.64877 4:0.98301 5:0.918307 6:0.951855 7:0.001453 8:0.001442 9:0.001234 10:0.4 11:0.461538 12:0.538462 
1 1:0.555546 2:0.49677 3:0.401922 4:0.850155 5:0.625495 6:0.66976 7:0.001333 8:0.001158 9:0.001253 10:0.266667 11:0.307692 12:0.384615 
1 1:0.546168 2:0.745147 3:0.706813 4:0.803823 5:0.884187 6:0.928363 7:0.008476 8:0.00125 9:0.001323 10:0.066667 11:0.384615 12:0.461538 
1 1:0.337545 2:0.403398 3:0.327886 4:0.768484 5:0.808571 6:0.809447 7:0.004565 8:0.003613 9:0.004517 10:0 11:0 12:0.076923 
1 1:0.144762 2:0.160123 3:0.082656 4:0.271717 5:0.251083 6:0.1418 7:0.014402 8:0.018607 9:0.046847 10:0 11:0 12:0.076923 
1 1:0.430708 2:0.49688 3:0.537775 4:0.736536 5:0.714313 6:0.652053 7:0.002284 8:0.001336 9:0.001495 10:0.133333 11:0.153846 12:0.230769 
1 1:0.175846 2:0.202235 3:0.27734 4:0.545545 5:0.660176 6:0.719078 7:0.013192 8:0.010058 9:0.006744 10:0 11:0 12:0.076923 
1 1:0.489117 2:0.524903 3:0.529468 4:0.827428 5:0.756655 6:0.758232 7:0.000645 8:0.00058 9:0.000568 10:0.333333 11:0.384615 12:0.461538 
1 1:0.519347 2:0.52675 3:0.458741 4:0.804223 5:0.695454 6:0.729039 7:0.001702 8:0.001182 9:0.001458 10:0.466667 11:0.461538 12:0.461538 
1 1:0.646033 2:0.571859 3:0.601859 4:0.859114 5:0.693487 6:0.627449 7:0.003551 8:0.00226 9:0.003665 10:0.466667 11:0.538462 12:0.307692 
1 1:0.409054 2:0.371536 3:0.41973 4:0.827852 5:0.829958 6:0.883311 7:0.002934 8:0.002938 9:0.00383 10:0.133333 11:0.076923 12:0.153846 
1 1:0.405875 2:0.41058 3:0.412952 4:0.647439 5:0.653408 6:0.721463 7:0.002037 8:0.002579 9:0.003159 10:0.066667 11:0.076923 12:0.153846 
1 1:0.316533 2:0.418024 3:0.371263 4:0.741252 5:0.777943 6:0.82197 7:0.005769 8:0.006195 9:0.005987 10:0.333333 11:0.384615 12:0.461538 
1 1:0.11333 2:0.128417 3:0.158873 4:0.643903 5:0.616767 6:0.651902 7:0.045124 8:0.044347 9:0.043986 10:0.066667 11:0.076923 12:0.153846 
1 1:0.368034 2:0.369042 3:0.441325 4:0.639805 5:0.679381 6:0.672781 7:0.006779 8:0.006597 9:0.006573 10:0 11:0 12:0.153846 
1 1:0.240412 2:0.258551 3:0.245722 4:0.765399 5:0.754357 6:0.759905 7:0.006285 8:0.006525 9:0.006899 10:0.266667 11:0.230769 12:0.307692 
1 1:0.47432 2:0.648801 3:0.699935 4:0.827923 5:0.854185 6:0.948331 7:0.00172 8:0.001641 9:0.001506 10:0.466667 11:0.538462 12:0.615385 
1 1:0.242211 2:0.306489 3:0.333409 4:0.810012 5:0.791122 6:0.813732 7:0.008843 8:0.006411 9:0.006193 10:0 11:0.076923 12:0.153846 
1 1:0.495122 2:0.465934 3:0.472281 4:0.854552 5:0.800058 6:0.831193 7:0.007386 8:0.007539 9:0.007234 10:0.266667 11:0.230769 12:0.384615 
1 1:0.436465 2:0.519199 3:0.55174 4:0.722636 5:0.752761 6:0.824351 7:0.000599 8:0.000503 9:0.000655 10:0.333333 11:0.384615 12:0.461538 
1 1:0.45862 2:0.52194 3:0.549519 4:0.905886 5:0.855544 6:0.864617 7:0.001479 8:0.001551 9:0.00165 10:0.333333 11:0.461538 12:0.538462 
1 1:0.56138 2:0.486906 3:0.426548 4:0.890982 5:0.714696 6:0.713168 7:0.000139 8:0.000289 9:0.000108 10:0.466667 11:0.461538 12:0.692308 
1 1:0.334285 2:0.398366 3:0.320163 4:0.754217 5:0.816175 6:0.790287 7:0.001098 8:0.001139 9:0.001214 10:0.333333 11:0.384615 12:0.461538 
1 1:0.504798 2:0.585085 3:0.567492 4:0.620352 5:0.582356 6:0.643675 7:0.002825 8:0.003013 9:0.003045 10:0.4 11:0.461538 12:0.538462 
1 1:0.32032 2:0.377884 3:0.320451 4:0.675084 5:0.675813 6:0.718179 7:0.014858 8:0.015262 9:0.016757 10:0 11:0 12:0.076923 
1 1:0.132308 2:0.129366 3:0.146667 4:0.699388 5:0.656725 6:0.685016 7:0.005638 8:0.005687 9:0.005573 10:0.266667 11:0.307692 12:0.384615 
1 1:0.095156 2:0.077369 3:0.022571 4:0.659718 5:0.630594 6:0.681451 7:0.074757 8:0.075199 9:0.076544 10:0.266667 11:0.307692 12:0.384615 
1 1:0.482874 2:0.531828 3:0.427738 4:0.794251 5:0.823687 6:0.82111 7:0.000994 8:0.000553 9:0.001401 10:0.133333 11:0.230769 12:0.230769 
1 1:0.195504 2:0.369718 3:0.399784 4:0.569009 5:0.605434 6:0.628652 7:0.001213 8:0.000852 9:0.000888 10:0.133333 11:0.230769 12:0.307692 
1 1:0.394715 2:0.507032 3:0.456012 4:0.841317 5:0.807568 6:0.789078 7:0.002564 8:0.00164 9:0.001475 10:0.2 11:0.307692 12:0.384615 
1 1:0.155224 2:0.226544 3:0.131393 4:0.667954 5:0.634024 6:0.677778 7:0.023872 8:0.024159 9:0.026538 10:0.066667 11:0.076923 12:0.153846 
1 1:0.243611 2:0.26222 3:0.257085 4:0.627337 5:0.603779 6:0.591524 7:0.01568 8:0.012962 9:0.015691 10:0 11:0 12:0.076923 
1 1:0.359158 2:0.295424 3:0.330595 4:0.679903 5:0.571517 6:0.634817 7:0.005358 8:0.004491 9:0.004386 10:0.133333 11:0.384615 12:0.384615 
1 1:0.393622 2:0.436945 3:0.407165 4:0.653398 5:0.581544 6:0.647233 7:0.001658 8:0.001593 9:0.001455 10:0.333333 11:0.384615 12:0.461538 
1 1:0.187961 2:0.239531 3:0.200801 4:0.753272 5:0.769603 6:0.744601 7:0.002355 8:0.002253 9:0.002527 10:0.133333 11:0.153846 12:0.230769 
1 1:0.560762 2:0.546986 3:0.437608 4:0.814562 5:0.738704 6:0.755202 7:0.014143 8:0.014046 9:0.014834 10:0.4 11:0.461538 12:0.538462 
1 1:0.347556 2:0.412165 3:0.391938 4:0.641955 5:0.663448 6:0.724756 7:0.003189 8:0.002344 9:0.002418 10:0 11:0 12:0.076923 
1 1:0.354483 2:0.416114 3:0.402747 4:0.734679 5:0.657023 6:0.666885 7:0.000894 8:0.000619 9:0.000789 10:0.266667 11:0.384615 12:0.461538 
0.5215792843772465 1:0.798098 2:1 3:1 4:0.916329 5:0.769544 6:0.937406 7:0.000801 8:0.000641 9:0.000794 10:0.6 11:0.692308 12:1 
1 1:0.630959 2:0.662579 3:0.596374 4:0.737417 5:0.717958 6:0.805855 7:0.002151 8:0.00244 9:0.002329 10:0.133333 11:0.153846 12:0.230769 
1 1:0.242461 2:0.292556 3:0.27653 4:0.226723 5:0.210702 6:0.214895 7:0.010423 8:0.00971 9:0.009744 10:0 11:0 12:0.076923 
1 1:0.171362 2:0.236448 3:0.192797 4:0.540698 5:0.569806 6:0.577549 7:0.01426 8:0.010767 9:0.011917 10:0 11:0 12:0.076923 
1 1:0.363248 2:0.453488 3:0.318251 4:0.850489 5:0.825829 6:0.657937 7:0.000779 8:0.000624 9:0.002688 10:0.533333 11:0.615385 12:0.153846 
1 1:0.682886 2:0.6655 3:0.622803 4:1 5:0.845062 6:0.894529 7:0.001186 8:0.000949 9:0.001013 10:0.133333 11:0.076923 12:0.153846 
1 1:0.086925 2:0.152665 3:0.014442 4:0.422239 5:0.433333 6:0.459063 7:0.016925 8:0.013487 9:0.017214 10:0 11:0 12:0.076923 
0.5444337798384542 1:0.007429 2:0.020413 3:0.03833 4:0 5:0 6:0 7:0.029193 8:0.029759 9:0.029164 10:0 11:0 12:0.076923 
1 1:0.291704 2:0.34935 3:0.316344 4:0.503283 5:0.50405 6:0.518956 7:0.004105 8:0.003935 9:0.005243 10:0.266667 11:0.307692 12:0.230769 
1 1:0.2593 2:0.248282 3:0.262678 4:0.601098 5:0.623602 6:0.607371 7:0.007528 8:0.006271 9:0.007557 10:0.066667 11:0.076923 12:0.153846 
1 1:0.345155 2:0.300548 3:0.263806 4:0.74467 5:0.685867 6:0.670326 7:0.001061 8:0.001116 9:0.000922 10:0.333333 11:0.384615 12:0.461538 
1 1:0.383096 2:0.441161 3:0.481344 4:0.846351 5:0.781564 6:0.830145 7:0.005982 8:0.006069 9:0.006367 10:0.333333 11:0.384615 12:0.461538 
1 1:0.352161 2:0.427097 3:0.376476 4:0.700645 5:0.674125 6:0.735552 7:0.007849 8:0.004562 9:0.005048 10:0 11:0.076923 12:0.076923 
1 1:0.438374 2:0.324744 3:0.351584 4:0.729097 5:0.647559 6:0.640397 7:0.00298 8:0.002982 9:0.003078 10:0.4 11:0.461538 12:0.538462 
1 1:0.54047 2:0.614648 3:0.621341 4:0.859063 5:0.842713 6:0.787539 7:0.002087 8:0.001693 9:0.001373 10:0.466667 11:0.615385 12:0.615385 
1 1:0.208986 2:0.289635 3:0.195765 4:0.822183 5:0.762144 6:0.793387 7:0.004885 8:0.004691 9:0.004326 10:0.066667 11:0.076923 12:0.153846 
1 1:0.525509 2:0.50918 3:0.516779 4:0.864573 5:0.872888 6:0.848013 7:0.001706 8:0.000947 9:0.000574 10:0.266667 11:0.384615 12:0.538462 
1 1:0.27106 2:0.362522 3:0.246742 4:0.660552 5:0.69659 6:0.674855 7:0.00885 8:0.005849 9:0.01214 10:0.066667 11:0.076923 12:0.153846 
1 1:0.197794 2:0.260036 3:0.122206 4:0.286962 5:0.340384 6:0.235902 7:0.020525 8:0.010899 9:0.016733 10:0 11:0 12:0.076923 
1 1:0.490264 2:0.524466 3:0.543531 4:0.809891 5:0.796442 6:0.816843 7:0.025292 8:0.02524 9:0.026631 10:0.4 11:0.461538 12:0.538462 
1 1:0.474677 2:0.675771 3:0.612061 4:0.896716 5:0.82721 6:0.931569 7:0.002766 8:0.00145 9:0.001805 10:0.2 11:0.615385 12:0.615385 
1 1:0.230382 2:0.231664 3:0.296822 4:0.546242 5:0.590883 6:0.579518 7:0.011144 8:0.008537 9:0.00991 10:0 11:0 12:0.076923 
1 1:0.306969 2:0.502227 3:0.306871 4:0.107446 5:0.436648 6:0.216587 7:0.021993 8:0.002299 9:0.012197 10:0 11:0 12:0.076923 
1 1:0.457717 2:0.524426 3:0.476445 4:0.881133 5:0.856567 6:0.895415 7:0.0025 8:0.002271 9:0.003275 10:0.266667 11:0.384615 12:0.307692 
1 1:0.159126 2:0.23209 3:0.169524 4:0.616828 5:0.650076 6:0.567062 7:0.002373 8:0.00176 9:0.00204 10:0 11:0 12:0.076923 
1 1:0.241358 2:0.312504 3:0.268575 4:0.587406 5:0.613258 6:0.622158 7:0.014123 8:0.00899 9:0.011038 10:0 11:0 12:0.076923 
1 1:0.29273 2:0.319389 3:0.29958 4:0.779117 5:0.755846 6:0.754679 7:0.010547 8:0.006848 9:0.008534 10:0 11:0 12:0.076923 
1 1:0.357295 2:0.485874 3:0.410588 4:0.817249 5:0.778002 6:0.74328 7:0.008849 8:0.003551 9:0.005604 10:0 11:0.076923 12:0.076923 
1 1:0.676805 2:0.693663 3:0.716339 4:0.963943 5:0.913619 6:0.929693 7:0.000975 8:0.001202 9:0.00095 10:0.6 11:0.538462 12:0.692308 
1 1:0.51679 2:0.330855 3:0.799775 4:0.838642 5:0.705694 6:0.892703 7:0.002765 8:0.006189 9:0.000991 10:0.066667 11:0 12:0.461538 
1 1:0.409075 2:0.547811 3:0.606739 4:0.673457 5:0.767235 6:0.757745 7:0.001284 8:0.000458 9:0.00057 10:0.066667 11:0.153846 12:0.230769 
1 1:0.633937 2:0.582038 3:0.702688 4:0.896286 5:0.82052 6:0.886646 7:0.000102 8:0.001373 9:0.000214 10:0.4 11:0.076923 12:0.692308 
1 1:0.541533 2:0.681168 3:0.672012 4:0.718613 5:0.755224 6:0.876339 7:0.001159 8:0.001102 9:0.00148 10:0.133333 11:0.153846 12:0.153846 
1 1:0.456879 2:0.576996 3:0.561323 4:0.901399 5:0.767538 6:0.763549 7:0.000963 8:0.000327 9:0.000608 10:0.066667 11:0.153846 12:0.153846 
1 1:0.30324 2:0.247769 3:0.340351 4:0.573886 5:0.498898 6:0.660478 7:0.017412 8:0.017042 9:0.014852 10:0 11:0 12:0.076923 
1 1:0.322526 2:0.425984 3:0.396299 4:0.792947 5:0.757445 6:0.62339 7:0.003705 8:0.001475 9:0.001508 10:0.266667 11:0.384615 12:0.461538 
1 1:0.434503 2:0.450727 3:0.525495 4:0.728466 5:0.621828 6:0.822039 7:0.000807 8:0.000792 9:0.00216 10:0.466667 11:0.538462 12:0.538462 
1 1:0.378685 2:0.376644 3:0.318994 4:0.68184 5:0.581261 6:0.567745 7:0.00197 8:0.002078 9:0.002173 10:0 11:0 12:0.076923 
0.007436923848734235 1:0.341111 2:0.369337 3:0.367568 4:0.779578 5:0.741402 6:0.7059 7:0.001087 8:0.000998 9:0.000946 10:0.4 11:0.461538 12:0.615385 
1 1:0.654222 2:0.714971 3:0.80631 4:0.994118 5:1 6:0.940033 7:0.000252 8:0.000255 9:0.000444 10:0.266667 11:0.307692 12:0.307692 
1 1:0.588147 2:0.662176 3:0.652503 4:0.832167 5:0.906067 6:0.862214 7:0.000819 8:0.000963 9:0.00098 10:0.066667 11:0.076923 12:0.153846 
1 1:0.320007 2:0.332205 3:0.3075 4:0.793659 5:0.732779 6:0.729577 7:0.001941 8:0.001399 9:0.001342 10:0.2 11:0.384615 12:0.384615 
-1 1:0.256963 2:0.229979 3:0.244088 4:0.747009 5:0.708068 6:0.751629 7:0.003288 8:0.002695 9:0.002462 10:0.066667 11:0.076923 12:0.153846 
-1 1:0.233837 2:0.253488 3:0.256412 4:0.650562 5:0.629046 6:0.652364 7:0.024279 8:0.024478 9:0.02456 10:0.466667 11:0.538462 12:0.615385 
-1 1:0.310938 2:0.291671 3:0.287779 4:0.685812 5:0.604087 6:0.635436 7:0.006419 8:0.005796 9:0.007027 10:0 11:0 12:0.076923 
-1 1:0.138403 2:0.226528 3:0.219933 4:0.676791 5:0.67386 6:0.669836 7:0.013993 8:0.00972 9:0.011067 10:0 11:0 12:0.076923 
-1 1:0.692931 2:0.59295 3:0.611623 4:0.886218 5:0.850745 6:0.870899 7:0.003561 8:0.003898 9:0.003926 10:0.6 11:0.692308 12:0.769231 
-1 1:0.563477 2:0.77611 3:0.649006 4:0.868119 5:0.873515 6:0.810372 7:0.000162 8:2.4e-05 9:5e-05 10:0.2 11:0.307692 12:0.307692 
-1 1:0.381034 2:0.456888 3:0.49592 4:0.640603 5:0.787977 6:0.78783 7:0.002195 8:0.000821 9:0.00099 10:0 11:0.153846 12:0.230769 
-1 1:0.307601 2:0.322603 3:0.290969 4:0.76648 5:0.690313 6:0.741649 7:0.003401 8:0.003359 9:0.003363 10:0.266667 11:0.307692 12:0.384615 
-1 1:0.609279 2:0.64935 3:0.696624 4:0.828314 5:0.770737 6:0.907458 7:0.000648 8:0.000642 9:0.000515 10:0.2 11:0.230769 12:0.384615 
-1 1:0.382541 2:0.523744 3:0.45222 4:0.742229 5:0.721616 6:0.747951 7:0.004374 8:0.002415 9:0.002076 10:0.066667 11:0.076923 12:0.230769 
-1 1:0.403615 2:0.452241 3:0.362595 4:0.876 5:0.855611 6:0.816408 7:0.000638 8:0.000559 9:0.000826 10:0.333333 11:0.384615 12:0.230769 
-1 1:0.501026 2:0.561215 3:0.602938 4:0.767247 5:0.74364 6:0.787697 7:0.001649 8:0.001118 9:0.001635 10:0.133333 11:0.153846 12:0.230769 
-1 1:0.338381 2:0.38088 3:0.417581 4:0.608357 5:0.671249 6:0.69564 7:0.001942 8:0.001927 9:0.001882 10:0.4 11:0.538462 12:0.615385 
-1 1:0.237005 2:0.265146 3:0.227127 4:0.71484 5:0.650668 6:0.702932 7:0.003858 8:0.003384 9:0.004991 10:0.133333 11:0.230769 12:0.230769 
-1 1:0.159473 2:0.176119 3:0.16244 4:0.717782 5:0.68399 6:0.715476 7:0.008293 8:0.005943 9:0.007066 10:0.066667 11:0.076923 12:0.153846 
-1 1:0.429596 2:0.407907 3:0.462624 4:0.688209 5:0.550209 6:0.64803 7:0.001048 8:0.000734 9:0.000429 10:0.266667 11:0.307692 12:0.538462 
-1 1:0.342227 2:0.364939 3:0.368185 4:0.658955 5:0.676957 6:0.629926 7:0.003031 8:0.002263 9:0.002324 10:0 11:0 12:0.076923 
-1 1:0.246825 2:0.281825 3:0.336912 4:0.678134 5:0.678191 6:0.657137 7:0.006421 8:0.005763 9:0.005545 10:0 11:0 12:0.076923 
-1 1:0.367789 2:0.313907 3:0.284198 4:0.618483 5:0.663167 6:0.6446 7:0.004229 8:0.002909 9:0.002958 10:0 11:0.076923 12:0.076923 
-1 1:0.277688 2:0.323764 3:0.361373 4:0.637248 5:0.512642 6:0.526206 7:0.002533 8:0.002491 9:0.00238 10:0.4 11:0.461538 12:0.538462 
-1 1:0.281639 2:0.528775 3:0.412682 4:0.7672 5:0.71843 6:0.802673 7:0.009745 8:0.002164 9:0.001687 10:0 11:0.307692 12:0.461538 
-0.7236729053822032 1:0.511539 2:0.641263 3:0.630705 4:0.945573 5:0.904764 6:0.882774 7:0.000917 8:0.00047 9:0.000897 10:0.133333 11:0.230769 12:0.153846 
-1 1:0.308557 2:0.336704 3:0.343581 4:0.679216 5:0.642349 6:0.632271 7:0.007366 8:0.004649 9:0.007346 10:0 11:0 12:0.076923 
-1 1:0.413134 2:0.52466 3:0.542853 4:0.825611 5:0.84678 6:0.859409 7:0.000574 8:0.000277 9:0.000471 10:0.2 11:0.307692 12:0.307692 
-1 1:0.677844 2:0.691982 3:0.749914 4:0.683104 5:0.602009 6:0.910119 7:0.000387 8:0.000267 9:0.000164 10:0.133333 11:0.230769 12:0.307692 
-1 1:0.333028 2:0.161309 3:0.195165 4:0.597323 5:0.305333 6:0.461291 7:0.004 8:0.017886 9:0.012143 10:0 11:0 12:0 
-1 1:0.298517 2:0.328106 3:0.282595 4:0.556011 5:0.624632 6:0.59352 7:0.003316 8:0.003141 9:0.003417 10:0 11:0 12:0.076923 
-1 1:0.533598 2:0.62455 3:0.517796 4:0.696539 5:0.650511 6:0.738243 7:0.002389 8:0.001205 9:0.001416 10:0.066667 11:0.230769 12:0.230769 
-1 1:0.512427 2:0.600031 3:0.508971 4:0.813938 5:0.872764 6:0.707113 7:0.001013 8:0.000644 9:0.000963 10:0.133333 11:0.153846 12:0.230769 
-1 1:0.399683 2:0.531961 3:0.501893 4:0.780227 5:0.794248 6:0.76289 7:0.000808 8:0.001139 9:0.001156 10:0.133333 11:0.307692 12:0.230769 
-1 1:0.539262 2:0.251024 3:0.286763 4:0.947078 5:0.65182 6:0.689645 7:0.000173 8:0.013424 9:0.007789 10:0.4 11:0 12:0.076923 
-1 1:0.315628 2:0.299971 3:0.315629 4:0.728077 5:0.633779 6:0.644918 7:0.001746 8:0.001899 9:0.001602 10:0.066667 11:0.076923 12:0.153846 
-1 1:0.322237 2:0.314426 3:0.288642 4:0.720863 5:0.679239 6:0.530805 7:0.006296 8:0.004405 9:0.007583 10:0 11:0 12:0.076923 
-1 1:0.267776 2:0.379992 3:0.35161 4:0.564711 5:0.708278 6:0.810921 7:0.002209 8:0.000594 9:0.000654 10:0 11:0.076923 12:0.076923 
-1 1:0.208375 2:0.278328 3:0.231857 4:0.52448 5:0.555259 6:0.677987 7:0.00189 8:0.001949 9:0.001712 10:0.4 11:0.538462 12:0.538462 
-1 1:0.086273 2:0.121985 3:0.146831 4:0.569954 5:0.53482 6:0.558923 7:0.008857 8:0.007646 9:0.009186 10:0 11:0 12:0.076923 
-1 1:0.59358 2:0.673167 3:0.616512 4:0.8384 5:0.806864 6:0.820296 7:0.000762 8:0.000646 9:0.000734 10:0.133333 11:0.153846 12:0.230769 
-1 1:0.554627 2:0.555349 3:0.526449 4:0.89706 5:0.881947 6:0.804064 7:0 8:4.2e-05 9:0.000191 10:0.2 11:0.153846 12:0.230769 
-1 1:0 2:0 3:0 4:0.135516 5:0.123925 6:0.128661 7:1 8:1 9:1 10:0 11:0 12:0.076923 
-1 1:0.305837 2:0.322594 3:0.309113 4:0.762241 5:0.721483 6:0.680827 7:0.005007 8:0.004345 9:0.005078 10:0 11:0 12:0.076923 
-1 1:0.427356 2:0.431373 3:0.471291 4:0.837891 5:0.859641 6:0.891476 7:0.001981 8:0.001847 9:0.001543 10:0.533333 11:0.615385 12:0.692308 
-1 1:0.518423 2:0.486889 3:0.518255 4:0.815296 5:0.732646 6:0.881083 7:0.000872 8:0.000588 9:0.00046 10:0.333333 11:0.384615 12:0.461538 
-1 1:0.427241 2:0.430364 3:0.393979 4:0.798163 5:0.719248 6:0.80407 7:0.003443 8:0.002598 9:0.002651 10:0.066667 11:0.076923 12:0.153846 
-1 1:0.635069 2:0.762875 3:0.796234 4:0.816955 5:0.803192 6:0.746223 7:0.000472 8:0.000163 9:0.000177 10:0.133333 11:0.307692 12:0.384615 
-0.3497770826822317 1:0.60639 2:0.573789 3:0.521773 4:0.714276 5:0.821008 6:0.88982 7:0.00185 8:0.000716 9:0.000975 10:0.066667 11:0.153846 12:0.230769 
-1 1:0.311145 2:0.37343 3:0.316145 4:0.801046 5:0.747241 6:0.769042 7:0.001698 8:0.001368 9:0.001285 10:0.066667 11:0.076923 12:0.153846 
-1 1:0.718691 2:0.631433 3:0.714509 4:0.900325 5:0.913454 6:0.880387 7:0.000496 8:0.000515 9:0.000506 10:0.533333 11:0.538462 12:0.692308 
-1 1:0.502271 2:0.449065 3:0.514271 4:0.911413 5:0.793776 6:0.779931 7:0.00093 8:0.000992 9:0.001111 10:0.2 11:0.230769 12:0.230769 
-1 1:0.557669 2:0.591803 3:0.644385 4:0.799842 5:0.946423 6:0.95523 7:0.000355 8:4.2e-05 9:0 10:0.066667 11:0.230769 12:0.461538 
-1 1:0.195628 2:0.184287 3:0.163818 4:0.472182 5:0.497484 6:0.333933 7:0.017636 8:0.010446 9:0.017491 10:0 11:0 12:0.076923 
-1 1:0.731654 2:0.687297 3:0.661556 4:0.797843 5:0.817467 6:0.802266 7:0.000333 8:0 9:0.000211 10:0.4 11:0.538462 12:0.615385 
-1 1:0.391996 2:0.312948 3:0.363055 4:0.692031 5:0.6259 6:0.657149 7:0.00223 8:0.002162 9:0.001945 10:0.466667 11:0.538462 12:0.615385 
-1 1:0.359199 2:0.480658 3:0.399923 4:0.748602 5:0.638062 6:0.662253 7:0.002998 8:0.002244 9:0.002919 10:0.066667 11:0.076923 12:0.153846 
-1 1:0.499725 2:0.411801 3:0.395751 4:0.897838 5:0.848327 6:0.853088 7:0.000835 8:0.000908 9:0.000857 10:0.6 11:0.692308 12:0.769231 
-1 1:0.613673 2:0.577884 3:0.644886 4:0.923496 5:0.902403 6:0.945796 7:0.002184 8:0.001015 9:0.00128 10:0.066667 11:0.230769 12:0.307692 
-1 1:0.424721 2:0.590798 3:0.629494 4:0.799873 5:0.79113 6:0.791316 7:0.000856 8:0.000534 9:0.00084 10:0.266667 11:0.461538 12:0.384615 
-1 1:0.347421 2:0.39441 3:0.37805 4:0.718286 5:0.681258 6:0.754688 7:0.002393 8:0.002081 9:0.002679 10:0.066667 11:0.076923 12:0.153846 
-1 1:0.452653 2:0.474944 3:0.48792 4:0.864034 5:0.749208 6:0.750916 7:0.001002 8:0.001052 9:0.001534 10:0.133333 11:0.076923 12:0.153846 
-1 1:0.662016 2:0.631189 3:0.797365 4:0.944649 5:0.691037 6:0.965394 7:0.000266 8:0.000212 9:0.000136 10:0.266667 11:0.230769 12:0.461538 
-1 1:0.683591 2:0.502014 3:0.81715 4:0.90812 5:0.736893 6:0.890097 7:0.000964 8:0.000623 9:0.000735 10:0.4 11:0.538462 12:0.615385 
-1 1:0.512274 2:0.540515 3:0.541647 4:0.82696 5:0.763674 6:0.874628 7:0.000168 8:0.000611 9:0.000135 10:0.266667 11:0.153846 12:0.461538 
-1 1:0.184046 2:0.238387 3:0.262151 4:0.664655 5:0.633276 6:0.691358 7:0.007995 8:0.006402 9:0.005636 10:0 11:0 12:0.076923 
-1 1:0.338003 2:0.343468 3:0.347215 4:0.73554 5:0.701981 6:0.738999 7:0.004802 8:0.005256 9:0.004809 10:0.066667 11:0 12:0.076923 
-1 1:0.414805 2:0.562914 3:0.517509 4:0.748702 5:0.860877 6:0.708323 7:0.00086 8:0.001491 9:0.000695 10:0.133333 11:0.153846 12:0.230769 
-1 1:0.249425 2:0.247858 3:0.241972 4:0.390869 5:0.380688 6:0.359796 7:0.046574 8:0.048924 9:0.044969 10:0 11:0 12:0.076923 
-1 1:0.454173 2:0.547291 3:0.7285 4:0.784216 5:0.681127 6:0.922003 7:0.000129 8:6.6e-05 9:0.000152 10:0.2 11:0.230769 12:0.307692 
-1 1:0.383949 2:0.453983 3:0.404507 4:0.757446 5:0.666072 6:0.720499 7:0.001865 8:0.001704 9:0.002909 10:0.2 11:0.230769 12:0.153846 
-1 1:0.675459 2:0.682068 3:0.559664 4:0.871009 5:0.820584 6:0.86676 7:0.000711 8:0.000193 9:0.000325 10:0.2 11:0.307692 12:0.307692 
-1 1:0.371192 2:0.418694 3:0.404509 4:0.749578 5:0.769929 6:0.776063 7:0.001828 8:0.001899 9:0.002023 10:0.133333 11:0.076923 12:0.153846 
-1 1:0.322004 2:0.399492 3:0.500179 4:0.83387 5:0.800123 6:0.807967 7:0.003072 8:0.002209 9:0.002425 10:0.066667 11:0.076923 12:0.153846 
-1 1:0.497693 2:0.503008 3:0.705251 4:0.776114 5:0.775167 6:0.892528 7:0.000425 8:0.000755 9:0.000178 10:0.2 11:0.153846 12:0.461538 
-1 1:0.5634 2:0.533195 3:0.541905 4:0.739394 5:0.686554 6:0.675452 7:0.000912 8:0.000975 9:0.000911 10:0.133333 11:0.230769 12:0.230769 
-1 1:0.309973 2:0.3396 3:0.338244 4:0.605872 5:0.685362 6:0.559115 7:0.005069 8:0.002651 9:0.009173 10:0 11:0 12:0 
-1 1:0.390692 2:0.506459 3:0.525233 4:0.344833 5:0.828846 6:0.813558 7:0.004083 8:0.000321 9:0.001175 10:0 11:0.384615 12:0.153846 
-1 1:0.248425 2:0.237202 3:0.152562 4:0.574649 5:0.614944 6:0.644577 7:0.005588 8:0.004569 9:0.006964 10:0 11:0 12:0.076923 
-1 1:0.433797 2:0.47374 3:0.415939 4:0.852956 5:0.770859 6:0.644055 7:0.000731 8:0.000823 9:0.000833 10:0.333333 11:0.384615 12:0.307692 
-1 1:0.32769 2:0.479318 3:0.404508 4:0.807349 5:0.808988 6:0.802414 7:0.001665 8:0.000705 9:0.001473 10:0.133333 11:0.384615 12:0.230769 
-1 1:0.234034 2:0.298477 3:0.250706 4:0.736592 5:0.739028 6:0.794229 7:0.002619 8:0.00227 9:0.002273 10:0.066667 11:0.076923 12:0.153846 
-1 1:0.324513 2:0.271511 3:0.255874 4:0.738596 5:0.670101 6:0.750811 7:0.002624 8:0.003197 9:0.003026 10:0 11:0 12:0.076923 
-1 1:0.643634 2:0.600495 3:0.692085 4:0.902052 5:0.817751 6:0.879371 7:0.00212 8:0.001243 9:0.000969 10:0.133333 11:0.230769 12:0.384615 
-1 1:0.347018 2:0.418158 3:0.395418 4:0.582932 5:0.638027 6:0.7995 7:0.001595 8:0.000898 9:0.001618 10:0.133333 11:0.307692 12:0.230769 
-1 1:0.307996 2:0.392779 3:0.361908 4:0.809825 5:0.771765 6:0.815603 7:0.001211 8:0.001118 9:0.001454 10:0.333333 11:0.461538 12:0.461538 
-1 1:0.469208 2:0.659652 3:0.540082 4:0.756166 5:0.892543 6:0.689123 7:0.001077 8:0.001101 9:0.000973 10:0.533333 11:0.692308 12:0.769231 
-1 1:1 2:0.78992 3:0.630566 4:0.914592 5:0.866674 6:0.898065 7:0.000162 8:0.000413 9:0.001053 10:0.733333 11:0.153846 12:0.153846 
-1 1:0.201411 2:0.263961 3:0.178398 4:0.580854 5:0.551118 6:0.553649 7:0.006789 8:0.004794 9:0.006607 10:0 11:0 12:0.076923 
-1 1:0.301637 2:0.274893 3:0.280947 4:0.496784 5:0.47345 6:0.597312 7:0.002331 8:0.001538 9:0.001053 10:0.066667 11:0.076923 12:0.153846 
-1 1:0.358534 2:0.438701 3:0.387148 4:0.782207 5:0.800093 6:0.744023 7:0.001158 8:0.000585 9:0.00148 10:0.066667 11:0.153846 12:0.153846 
-1 1:0.272197 2:0.333482 3:0.232284 4:0.708467 5:0.670888 6:0.612057 7:0.003169 8:0.002626 9:0.004133 10:0 11:0 12:0.076923 
-1 1:0.448432 2:0.471817 3:0.379753 4:0.80102 5:0.798125 6:0.735492 7:0.002066 8:0.001826 9:0.002039 10:0.066667 11:0.153846 12:0.153846 
-1 1:0.172919 2:0.161168 3:0.163936 4:0.498161 5:0.440752 6:0.474326 7:0.044984 8:0.043647 9:0.047495 10:0 11:0 12:0.076923 
-1 1:0.2504 2:0.355645 3:0.334763 4:0.675338 5:0.676572 6:0.690825 7:0.001821 8:0.001799 9:0.001991 10:0.2 11:0.461538 12:0.461538 
-1 1:0.245816 2:0.309054 3:0.301437 4:0.660819 5:0.655264 6:0.667351 7:0.00605 8:0.005068 9:0.004366 10:0 11:0 12:0.076923 
