svm_type c_svc
kernel_type rbf
gamma 0.5
nr_class 2
total_sv 16
rho 2.81614
label 0 1
probA -1.16681
probB -0.177389
nr_sv 10 6
SV
54.37466100435849 1:0.368039 2:0.394795 3:0.45987 4:0.599418 5:0.589522 6:0.675797 7:0.750743 8:0.992419 9:0.753613 10:0.084596 11:0.101722 12:0.0873 13:0.063146 14:0.083905 15:0.07063 16:0.525424 17:0.640777 18:0.4375 
2.797485286580109 1:0.199639 2:0.215921 3:0.300359 4:0.604403 5:0.419485 6:0.522025 7:0.865696 8:0.996072 9:0.876162 10:0.183591 11:0.213202 12:0.224866 13:0.091977 14:0.123598 15:0.127838 16:0.466102 17:0.553398 18:0.388889 
2.334781711296893 1:0.479995 2:0.162196 3:0 4:0.635291 5:0.057759 6:0 7:0.818257 8:0.999558 9:1 10:0.146196 11:0.545304 12:1 13:0.067691 14:0.414284 15:1 16:0.016949 17:0 18:0.291667 
0.488466634080736 1:0 2:0 3:0.109452 4:0.449407 5:0.352956 6:0.496804 7:0.952527 8:0.999104 9:0.939136 10:0.367662 11:0.461125 12:0.428139 13:0.254929 14:0.346357 15:0.301172 16:0.508475 17:0.650485 18:0.451389 
2.643872976898573 1:0.365768 2:0.371862 3:0.446371 4:0.623201 5:0.555823 6:0.640147 7:0.804008 8:0.994678 9:0.830925 10:0.12021 11:0.152758 12:0.13936 13:0.11515 14:0.165369 15:0.14117 16:0.601695 17:0.757282 18:0.520833 
27.03538327425914 1:0.786794 2:0.757172 3:0.829777 4:0.86183 5:0.63207 6:0.729563 7:0.673177 8:0.989892 9:0.670762 10:0.057998 11:0.06707 12:0.050835 13:0.020699 14:0.02522 15:0.018383 16:0.567797 17:0.747573 18:0.486111 
95.88024772365928 1:0.436674 2:0.486427 3:0.642354 4:0.606036 5:0.603611 6:0.720543 7:0.662051 8:0.989904 9:0.652172 10:0.059221 11:0.068604 12:0.047212 13:0.039322 14:0.041827 15:0.022997 16:0.313559 17:0.592233 18:0.201389 
2.289096004573872 1:0.295345 2:0.39867 3:0.717273 4:0.502428 5:0.499241 6:0.838014 7:0.697305 8:0.99122 9:0.735065 10:0.067637 11:0.084432 12:0.07903 13:0.044456 14:0.058854 15:0.052196 16:0.398305 17:0.61165 18:0.298611 
41.15175273778713 1:0.081977 2:0.114866 3:0.241655 4:0.54346 5:0.463305 6:0.59287 7:0.903516 8:0.997184 9:0.899274 10:0.255257 11:0.278862 12:0.267081 13:0.164475 14:0.188176 15:0.159479 16:0.5 17:0.621359 18:0.430556 
7.585989972153251 1:0.022884 2:0.061897 3:0.171247 4:0.211504 5:0.134638 6:0.395071 7:0.860254 8:0.994921 9:0.834839 10:0.172817 11:0.177085 12:0.17622 13:0.099442 14:0.108372 15:0.113489 16:0.144068 17:0.184466 18:0.111111 
-29.94523551522106 1:0.313888 2:0.531769 3:0.595191 4:0.461811 5:0.5955 6:0.562839 7:0.621458 8:0.976715 9:0.587546 10:0.064521 11:0.018581 12:0.041483 13:0.063734 14:0.013403 15:0.027623 16:0.237288 17:0.524272 18:0.166667 
-0.4802267567207688 1:0.232098 2:0.174467 3:0.492893 4:0 5:0 6:0.358591 7:1 8:1 9:0.784486 10:1 11:1 12:0.185149 13:1 14:1 15:0.211672 16:0.508475 17:0.427184 18:0.451389 
-25.00037505264546 1:0.45295 2:0.508609 3:0.720014 4:0.642414 5:0.641057 6:0.88383 7:0.476579 8:0.98648 9:0.681736 10:0.025978 11:0.047975 12:0.057004 13:0.035406 14:0.053566 15:0.047437 16:0.610169 17:0.747573 18:0.527778 
-67.1494306358782 1:0.644431 2:0.666886 3:0.739896 4:0.765037 5:0.682503 6:0.768473 7:0.674449 8:0.990043 9:0.520006 10:0.061163 11:0.069963 12:0.022976 13:0.042436 14:0.045027 15:0.011167 16:0.262712 17:0.514563 18:0.194444 
-108.4439607688127 1:0.174178 2:0.200943 3:0.371138 4:0.545551 5:0.452451 6:0.5668 7:0.787553 8:0.994401 9:0.834692 10:0.108489 11:0.148776 12:0.167132 13:0.080936 14:0.116237 15:0.116164 16:0.525424 17:0.650485 18:0.451389 
-5.562508596369267 1:0.948627 2:0.847864 3:0.910653 4:0.985109 5:0.96714 6:0.911158 7:0.792787 8:0.989951 9:0.690512 10:0.117282 11:0.070186 12:0.058235 13:0.055735 14:0.072458 15:0.059551 16:0.694915 17:0.864078 18:1 
