svm_type c_svc
kernel_type rbf
gamma 1
nr_class 2
total_sv 185
rho -0.0244624
label 1 2
probA -1.18818
probB -0.0782931
nr_sv 93 92
SV
0.25 1:0.498462 2:0.484605 3:0.580683 4:0.516739 5:0.541336 6:0.497769 7:0.614725 8:0.584936 9:0.596254 10:0.064079 11:0.057759 12:0.059038 13:0.070573 14:0.05671 15:0.067326 16:0.090909 17:0.083333 18:0.047619 
0.25 1:0.395691 2:0.44299 3:0.570144 4:0.728122 5:0.749938 6:0.618789 7:0.472141 8:0.522474 9:0.45793 10:0.013761 11:0.011089 12:0.01626 13:0.02677 14:0.02261 15:0.026879 16:0.454545 17:0.583333 18:0.238095 
0.25 1:0.749391 2:0.506695 3:0.722192 4:1 5:0.803763 6:0.852208 7:0.717034 8:0.678424 9:0.692503 10:0.034686 11:0.035977 12:0.035869 13:0.103961 14:0.0523 15:0.083655 16:0.454545 17:0.416667 18:0.190476 
0.25 1:0.216016 2:0.22724 3:0.270091 4:0.442108 5:0.544554 6:0.497689 7:0.863139 8:0.840138 9:0.841543 10:0.168706 11:0.142251 12:0.195072 13:0.207413 14:0.169233 15:0.238666 16:0.090909 17:0.083333 18:0.047619 
0.25 1:0.243684 2:0.264528 3:0.266925 4:0.514693 5:0.578443 6:0.564475 7:0.746584 8:0.789898 9:0.740013 10:0.129461 11:0.142598 12:0.14025 13:0.111838 14:0.104606 15:0.11832 16:0.272727 17:0.25 18:0.142857 
0.25 1:0.47992 2:0.504604 3:0.68434 4:0.712734 5:0.872102 6:0.801473 7:0.642013 8:0.58095 9:0.605528 10:0.054491 11:0.028447 12:0.024596 13:0.070411 14:0.040197 15:0.042124 16:0.090909 17:0.166667 18:0.095238 
0.25 1:0.31128 2:0.407566 3:0.447408 4:0.57868 5:0.799238 6:0.703256 7:0.77949 8:0.69196 9:0.69498 10:0.046896 11:0.041839 12:0.038994 13:0.111345 14:0.061287 15:0.083525 16:0.363636 17:0.583333 18:0.238095 
0.25 1:0.591054 2:0.480058 3:0.553962 4:0.727714 5:0.753838 6:0.74228 7:0.608919 8:0.732952 9:0.653534 10:0.040832 11:0.046712 12:0.042628 13:0.076973 14:0.084495 15:0.085788 16:0.636364 17:0.583333 18:0.333333 
0.25 1:0.529274 2:0.593116 3:0.649441 4:0.503672 5:0.824612 6:0.767417 7:0.659002 8:0.621573 9:0.543411 10:0.028267 11:0.014615 12:0.013595 13:0.070583 14:0.04654 15:0.046365 16:0.272727 17:0.333333 18:0.238095 
0.1280752193616299 1:0.356256 2:0.369408 3:0.503779 4:0.710068 5:0.626253 6:0.605933 7:0.835756 8:0.77157 9:0.774306 10:0.091279 11:0.027448 12:0.038616 13:0.24701 14:0.081496 15:0.106454 16:0.272727 17:0.583333 18:0.238095 
0.25 1:0.532774 2:0.701918 3:0.528794 4:0.744357 5:0.90802 6:0.767315 7:0.647697 8:0.662248 9:0.601561 10:0.045045 11:0.039507 12:0.037807 13:0.066731 14:0.06516 15:0.06148 16:0.181818 17:0.416667 18:0.190476 
0.25 1:0.590516 2:0.651067 3:0.703284 4:0.688299 5:0.66007 6:0.716062 7:0.678589 8:0.662248 9:0.718289 10:0.022638 11:0.018734 12:0.025905 13:0.071004 14:0.0649 15:0.083511 16:0.363636 17:0.416667 18:0.190476 
0.25 1:0.526009 2:0.477248 3:0.62864 4:0.810786 5:0.820061 6:0.787629 7:0.755868 8:0.740057 9:0.658624 10:0.05923 11:0.032952 12:0.04083 13:0.108293 14:0.06933 15:0.089307 16:0.363636 17:0.416667 18:0.190476 
0.25 1:0.502648 2:0.854525 3:0.966262 4:0.483169 5:0.904248 6:0.844838 7:0.557157 8:0.537679 9:0.51832 10:0.025593 11:0.005663 12:0.005464 13:0.087155 14:0.033024 15:0.03549 16:0.272727 17:0.666667 18:0.380952 
0.25 1:0.396994 2:0.386957 3:0.376365 4:0.706054 5:0.712567 6:0.686726 7:0.667427 8:0.698068 9:0.693742 10:0.035787 11:0.034409 12:0.038236 13:0.095109 14:0.071921 15:0.087916 16:0.272727 17:0.166667 18:0.095238 
0.25 1:0.380242 2:0.349235 3:0.50587 4:0.687585 5:0.66434 6:0.791018 7:0.623395 8:0.682129 9:0.685047 10:0.056263 11:0.058805 12:0.03803 13:0.084046 14:0.076651 15:0.072825 16:0.090909 17:0.083333 18:0.047619 
0.25 1:0.461701 2:0.340379 3:0.402213 4:0.614348 5:0.697024 6:0.668665 7:0.670225 8:0.689509 9:0.696217 10:0.038083 11:0.034513 12:0.034266 13:0.095329 14:0.071573 15:0.086722 16:0.363636 17:0.25 18:0.142857 
0.25 1:0.292465 2:0.3341 3:0.357894 4:0.32003 5:0.477098 6:0.499921 7:0.657593 8:0.717427 9:0.636857 10:0.140833 11:0.107512 12:0.072435 13:0.181216 14:0.131118 15:0.11508 16:0.090909 17:0.083333 18:0.047619 
0.25 1:0.29564 2:0.325005 3:0.373011 4:0.312185 5:0.373118 6:0.373747 7:0.704781 8:0.668493 9:0.659894 10:0.065656 11:0.059244 12:0.060388 13:0.139186 14:0.12157 15:0.137342 16:0.181818 17:0.166667 18:0.095238 
0.25 1:0.63875 2:0.526452 3:0.596173 4:0.761224 5:0.763625 6:0.770779 7:0.661815 8:0.698068 9:0.625192 10:0.021321 11:0.019386 12:0.017257 13:0.079728 14:0.070382 15:0.075162 16:0.454545 17:0.416667 18:0.238095 
0.25 1:0.296075 2:0.248831 3:0.335148 4:0.002288 5:0.056034 6:0.059452 7:0.877872 8:0.880075 9:0.893919 10:1 11:1 12:1 13:1 14:0.902555 15:1 16:0.090909 17:0.083333 18:0.047619 
0.25 1:0.507278 2:0.473002 3:0.640543 4:0.822767 5:0.877148 6:0.843473 7:0.734563 8:0.717427 9:0.742405 10:0.02421 11:0.027892 12:0.034988 13:0.089434 14:0.085145 15:0.119569 16:0.454545 17:0.416667 18:0.238095 
0.25 1:0.326998 2:0.313298 3:0.297547 4:0.562078 5:0.578637 6:0.513164 7:0.671622 8:0.650933 9:0.718289 10:0.061533 11:0.074617 12:0.102816 13:0.099596 14:0.114011 15:0.172285 16:0.090909 17:0.083333 18:0.047619 
0.09412333404815015 1:0.21482 2:0.117859 3:0.232505 4:0.509992 5:0.561915 6:0.565426 7:0.782093 8:0.90744 9:0.820247 10:0.185348 11:0.200681 12:0.193531 13:0.240979 14:0.246753 15:0.254661 16:0.545455 17:0.5 18:0.285714 
0.05559663238266538 1:0.182048 2:0.197346 3:0.204484 4:0.562826 5:0.592914 6:0.570981 7:0.959968 8:0.955528 9:0.936092 10:0.28817 11:0.298899 12:0.28867 13:0.542896 14:0.505928 15:0.561914 16:0.272727 17:0.25 18:0.142857 
0.25 1:0.536351 2:0.490461 3:0.640976 4:0.600036 5:0.656166 6:0.665009 7:0.796329 8:0.759985 9:0.805484 10:0.052487 11:0.054286 12:0.050473 13:0.117626 14:0.106804 15:0.124132 16:0.181818 17:0.166667 18:0.142857 
0.25 1:0.662905 2:0.597422 3:0.663905 4:0.718861 5:0.839974 6:0.901722 7:0.52371 8:0.618989 9:0.57482 10:0.014466 11:0.014912 12:0.014761 13:0.051906 14:0.050209 15:0.054396 16:0.727273 17:0.666667 18:0.380952 
0.25 1:0.441042 2:0.462526 3:0.535386 4:0.572341 5:0.624219 6:0.540833 7:0.754545 8:0.791036 9:0.754307 10:0.042716 11:0.041934 12:0.042396 13:0.12135 14:0.107084 15:0.116467 16:0.272727 17:0.25 18:0.142857 
0.25 1:0.552762 2:0.568774 3:0.712179 4:0.765618 5:0.859558 6:0.828035 7:0.353268 8:0.456944 9:0.487018 10:0.007256 11:0.006245 12:0.009618 13:0.024663 14:0.023111 15:0.030797 16:0.545455 17:0.5 18:0.238095 
0.25 1:0.73431 2:0.667926 3:0.661963 4:0.706862 5:0.800035 6:0.737024 7:0.516006 8:0.58228 9:0.526734 10:0.018465 11:0.014407 12:0.014244 13:0.047511 14:0.038518 15:0.042968 16:0.272727 17:0.333333 18:0.142857 
0.25 1:0.179799 2:0.171469 3:0.172585 4:0.551111 5:0.523011 6:0.559778 7:0.898507 8:0.917818 9:0.896058 10:0.248925 11:0.262431 12:0.252001 13:0.509073 14:0.46782 15:0.50824 16:0.090909 17:0.083333 18:0.047619 
0.25 1:0.531697 2:0.502943 3:0.560634 4:0.765198 5:0.544829 6:0.515341 7:0.528313 8:0.544533 9:0.481249 10:0.011454 11:0.010742 12:0.009468 13:0.032927 14:0.032433 15:0.030444 16:0.818182 17:0.75 18:0.428571 
0.25 1:0.299784 2:0.382591 3:0.468768 4:0.719879 5:0.549618 6:0.658508 7:0.607463 8:0.465676 9:0.459399 10:0.027421 11:0.009002 12:0.00985 13:0.056713 14:0.0232 15:0.025639 16:0.272727 17:0.5 18:0.285714 
0.07000162166224307 1:0.486816 2:0.457827 3:0.497922 4:0.708515 5:0.768819 6:0.775844 7:0.677198 8:0.727002 9:0.70607 10:0.032444 11:0.035583 12:0.034198 13:0.098103 14:0.088781 15:0.100878 16:0.636364 17:0.583333 18:0.285714 
0.25 1:0.342743 2:0.356811 3:0.499397 4:0.514175 5:0.589644 6:0.710511 7:0.866835 8:0.85539 9:0.847092 10:0.122434 11:0.11948 12:0.115947 13:0.234298 14:0.215372 15:0.247759 16:0.181818 17:0.166667 18:0.095238 
0.25 1:0.123577 2:0.121792 3:0.100218 4:0.490479 5:0.553113 6:0.518924 7:0.979542 8:0.969523 9:0.948496 10:0.633369 11:0.644658 12:0.631756 13:0.722881 14:0.67035 15:0.746414 16:0.454545 17:0.416667 18:0.238095 
0.25 1:0.734627 2:0.768747 3:0.707472 4:0.648906 5:0.712387 6:0.691842 7:0.608919 8:0.462772 9:0.536487 10:0.015319 11:0.00981 12:0.013062 13:0.037632 14:0.027895 15:0.035063 16:0.363636 17:0.666667 18:0.333333 
0.25 1:0.572727 2:0.592001 3:0.603338 4:0.712969 5:0.723748 6:0.705581 7:0.452953 8:0.437827 9:0.41766 10:0.018611 11:0.006954 12:0.006405 13:0.032941 14:0.018597 15:0.020061 16:0.181818 17:0.333333 18:0.190476 
0.25 1:0.146951 2:0.249012 3:0.241285 4:0.4546 5:0.475662 6:0.525124 7:0.924809 8:0.909522 9:0.803198 10:0.361239 11:0.305785 12:0.257984 13:0.475553 14:0.389512 15:0.352378 16:0.090909 17:0.083333 18:0.047619 
0.25 1:0.318458 2:0.343328 3:0.357277 4:0.533574 5:0.613947 6:0.580066 7:0.842022 8:0.807979 9:0.84043 10:0.147952 11:0.162903 12:0.159877 13:0.200412 14:0.189942 15:0.210302 16:0.181818 17:0.166667 18:0.047619 
0.25 1:0.491963 2:0.474212 3:0.571641 4:0.712957 5:0.719283 6:0.679799 7:0.60309 8:0.571604 9:0.547549 10:0.026714 11:0.020112 12:0.017349 13:0.05296 14:0.034448 15:0.03397 16:0.272727 17:0.25 18:0.142857 
0.25 1:0.263754 2:0.257306 3:0.263941 4:0.479425 5:0.531566 6:0.503328 7:0.87175 8:0.876881 9:0.855926 10:0.211272 11:0.1817 12:0.206115 13:0.267014 14:0.217261 15:0.272259 16:0.090909 17:0.083333 18:0.047619 
0.25 1:0.420842 2:0.327046 3:0.405331 4:0.54639 5:0.498559 6:0.561724 7:0.739917 8:0.754155 9:0.766106 10:0.04897 11:0.04386 12:0.047381 13:0.103937 14:0.095155 15:0.107603 16:0.454545 17:0.5 18:0.238095 
0.25 1:0.288567 2:0.292729 3:0.294186 4:0.614699 5:0.637391 6:0.595081 7:0.772965 8:0.778472 9:0.734013 10:0.045341 11:0.049917 12:0.051781 13:0.127464 14:0.121185 15:0.129697 16:0.454545 17:0.416667 18:0.238095 
0.25 1:0.477359 2:0.434382 3:0.364963 4:0.70409 5:0.706862 6:0.659529 7:0.785988 8:0.78534 9:0.839316 10:0.096367 11:0.07693 12:0.129371 13:0.162858 14:0.151252 15:0.211588 16:0.090909 17:0.166667 18:0.047619 
0.25 1:0.315316 2:0.324784 3:0.308801 4:0.610978 5:0.726303 6:0.646522 7:0.512914 8:0.615104 9:0.589592 10:0.055696 11:0.044562 12:0.050769 13:0.062439 14:0.046949 15:0.056565 16:0.090909 17:0.083333 18:0.047619 
0.25 1:0.240578 2:0.294538 3:0.298841 4:0.627521 5:0.685796 6:0.68636 7:0.66322 8:0.693184 9:0.678801 10:0.052022 11:0.039568 12:0.039609 13:0.091664 14:0.068339 15:0.078389 16:0.181818 17:0.166667 18:0.095238 
0.25 1:0.232934 2:0.246538 3:0.261514 4:0.586121 5:0.653797 6:0.626272 7:0.986391 8:1 9:1 10:0.898783 11:0.93104 12:0.891876 13:0.87674 14:0.817225 15:0.885303 16:0.545455 17:0.5 18:0.285714 
0.25 1:0.890157 2:1 3:0.962372 4:0.86872 5:0.916375 6:0.988883 7:0.598704 8:0.640794 9:0.66875 10:0.01039 11:0.009761 12:0.008589 13:0.049502 14:0.040892 15:0.071421 16:1 17:1 18:1 
0.25 1:0.633999 2:0.588039 3:0.532618 4:0.730513 5:0.818061 6:0.687189 7:0.594306 8:0.602071 9:0.581554 10:0.036639 11:0.037241 12:0.035851 13:0.048007 14:0.040591 15:0.041734 16:0.272727 17:0.25 18:0.142857 
0.25 1:0.764669 2:0.649339 3:0.748962 4:0.809805 5:0.775144 6:0.897531 7:0.071658 8:0.175115 9:0.147618 10:0.002378 11:0.001006 12:0.003043 13:0.003766 14:0.002955 15:0.006523 16:0.363636 17:0.416667 18:0.238095 
0.25 1:0.316814 2:0.26806 3:0.299171 4:0.610705 5:0.702831 6:0.627239 7:0.715677 8:0.682129 9:0.701152 10:0.085674 11:0.059586 12:0.073463 13:0.137796 14:0.107509 15:0.1317 16:0.090909 17:0.166667 18:0.047619 
0.25 1:0.675516 2:0.61965 3:0.694296 4:0.619398 5:0.509894 6:0.553137 7:0.415497 8:0.467126 9:0.368354 10:0.006344 11:0.005617 12:0.006311 13:0.021379 14:0.020727 15:0.021094 16:0.818182 17:0.75 18:0.428571 
0.25 1:0.857086 2:0.58008 3:0.729688 4:0.933538 5:0.789082 6:0.884347 7:0.53748 8:0.480104 9:0.511268 10:0.018872 11:0.016005 12:0.015581 13:0.043466 14:0.0279 15:0.030531 16:0.272727 17:0.166667 18:0.142857 
0.25 1:0.482816 2:0.437873 3:0.451247 4:0.604084 5:0.689781 6:0.710576 7:0.520633 8:0.518297 9:0.543411 10:0.01232 11:0.007719 12:0.009265 13:0.038769 14:0.025187 15:0.033632 16:0.545455 17:0.666667 18:0.380952 
0.25 1:0.494187 2:0.503815 3:0.629174 4:0.746646 5:0.847316 6:0.801564 7:0.639163 8:0.652195 9:0.644579 10:0.024574 11:0.025796 12:0.025453 13:0.062288 14:0.053506 15:0.055678 16:0.909091 17:0.833333 18:0.47619 
0.25 1:0.336737 2:0.338983 3:0.394319 4:0.554647 5:0.645719 6:0.581719 7:0.71839 8:0.711408 9:0.714635 10:0.063625 11:0.060614 12:0.055118 13:0.085452 14:0.065126 15:0.095072 16:0.636364 17:0.666667 18:0.333333 
0.25 1:0.236042 2:0.339043 3:0.272165 4:0.441428 5:0.517328 6:0.481573 7:0.691051 8:0.730576 9:0.7436 10:0.03461 11:0.033785 12:0.033066 13:0.096505 14:0.075396 15:0.086967 16:0.272727 17:0.25 18:0.142857 
0.25 1:0.435946 2:0.497116 3:0.779606 4:0.566984 5:0.711922 6:0.69603 7:0.398924 8:0.482971 9:0.416145 10:0.011821 11:0.010105 12:0.00957 13:0.025262 14:0.022823 15:0.023604 16:0.181818 17:0.166667 18:0.142857 
0.25 1:0.366758 2:0.349022 3:0.412036 4:0.433814 5:0.483915 6:0.465304 7:0.758511 8:0.776175 9:0.749558 10:0.042607 11:0.043125 12:0.040229 13:0.1071 14:0.097179 15:0.110517 16:0.636364 17:0.583333 18:0.333333 
0.25 1:0.351822 2:0.407113 3:0.439551 4:0.399356 5:0.453578 6:0.472005 7:0.800188 8:0.861874 9:0.791714 10:0.131471 11:0.119211 12:0.120239 13:0.166523 14:0.141491 15:0.165516 16:0.272727 17:0.25 18:0.142857 
0.25 1:0.311805 2:0.231064 3:0.30638 4:0.617349 5:0.635591 6:0.615037 7:0.758511 8:0.76231 9:0.763754 10:0.071592 11:0.069932 12:0.069409 13:0.155694 14:0.141585 15:0.149654 16:0.090909 17:0.083333 18:0.047619 
0.25 1:0.301336 2:0.325756 3:0.351189 4:0.619453 5:0.682587 6:0.645596 7:0.810434 8:0.770416 9:0.766106 10:0.070352 11:0.055748 12:0.045856 13:0.159759 14:0.128407 15:0.130891 16:0.181818 17:0.25 18:0.190476 
0.25 1:0.550722 2:0.355217 3:0.306967 4:0.805508 5:0.761999 6:0.722279 7:0.567649 8:0.708992 9:0.626493 10:0.017832 11:0.018225 12:0.018547 13:0.073534 14:0.064268 15:0.068572 16:0.545455 17:0.5 18:0.285714 
0.25 1:0.171427 2:0.163746 3:0.157744 4:0.513097 5:0.628292 6:0.543629 7:0.947169 8:0.944427 9:0.902458 10:0.580675 11:0.427454 12:0.376938 13:0.821221 14:0.564078 15:0.534979 16:0.090909 17:0.083333 18:0.047619 
0.25 1:0.226259 2:0.24421 3:0.244653 4:0.468144 5:0.574054 6:0.528216 7:0.818075 8:0.806856 9:0.825883 10:0.098964 11:0.107685 12:0.10723 13:0.185522 14:0.170467 15:0.194846 16:0.181818 17:0.166667 18:0.047619 
0.25 1:0.701994 2:0.620295 3:0.791052 4:0.795066 5:0.830285 6:0.655036 7:0.531375 8:0.526638 9:0.440177 10:0.00634 11:0.006993 12:0.007174 13:0.032091 14:0.026191 15:0.030904 16:0.818182 17:0.75 18:0.428571 
0.25 1:0.708989 2:0.644378 3:0.74678 4:0.663368 5:0.599142 6:0.621278 7:0.494229 8:0.634417 9:0.572117 10:0.009981 11:0.008632 12:0.008975 13:0.041517 14:0.039744 15:0.04104 16:0.636364 17:0.583333 18:0.333333 
0.25 1:0.372793 2:0.414448 3:0.252998 4:0.563167 5:0.615224 6:0.548977 7:0.824413 8:0.82471 9:0.850412 10:0.172908 11:0.11396 12:0.21911 13:0.177683 14:0.115395 15:0.229593 16:0.181818 17:0.166667 18:0.095238 
0.25 1:0.118589 2:0.228344 3:0.209838 4:0.381561 5:0.553467 6:0.489411 7:0.866835 8:0.768105 9:0.79056 10:0.313239 11:0.174915 12:0.199697 13:0.384036 14:0.209209 15:0.27859 16:0.090909 17:0.083333 18:0.047619 
0.25 1:0.637237 2:0.597204 3:0.595366 4:0.819774 5:0.906987 6:0.838749 7:0.729191 8:0.718628 9:0.744794 10:0.058031 11:0.043943 12:0.053447 13:0.097013 14:0.076409 15:0.095336 16:0.181818 17:0.25 18:0.095238 
0.25 1:0.552397 2:0.584359 3:0.785589 4:0.68879 5:0.629973 6:0.653653 7:0.583994 8:0.636972 9:0.61474 10:0.027385 11:0.028037 12:0.023665 13:0.052432 14:0.048709 15:0.052414 16:0.272727 17:0.25 18:0.142857 
0.25 1:0.513669 2:0.696984 3:0.805625 4:0.699744 5:0.841491 6:0.842769 7:0.549618 8:0.433376 9:0.419172 10:0.029746 11:0.00755 12:0.006512 13:0.063586 14:0.017368 15:0.021034 16:0.181818 17:0.25 18:0.142857 
0.25 1:0.532614 2:0.473868 3:0.558916 4:0.813747 5:0.857255 6:0.796179 7:0.681367 8:0.742417 9:0.687537 10:0.031397 11:0.035331 12:0.031293 13:0.091617 14:0.089071 15:0.095454 16:0.181818 17:0.166667 18:0.095238 
0.25 1:0.254908 2:0.358924 3:0.286626 4:0.482784 5:0.600532 6:0.56575 7:0.741253 8:0.706572 9:0.659894 10:0.053958 11:0.053615 12:0.053918 13:0.088335 14:0.080964 15:0.091434 16:0.181818 17:0.166667 18:0.095238 
0.25 1:0.176855 2:0.187785 3:0.143026 4:0.403905 5:0.45856 6:0.412442 7:0.923623 8:0.933234 9:0.934014 10:0.399974 11:0.31486 12:0.361602 13:0.482292 14:0.34009 15:0.439606 16:0 17:0 18:0 
0.25 1:0.502045 2:0.496543 3:0.530857 4:0.551273 5:0.73461 6:0.585287 7:0.715677 8:0.705361 9:0.690022 10:0.155162 11:0.096922 12:0.127257 13:0.133854 14:0.079637 15:0.112875 16:0.090909 17:0.083333 18:0.047619 
0.25 1:0.766256 2:0.53698 3:0.550727 4:0.885142 5:0.81508 6:0.771712 7:0.624835 8:0.655973 9:0.639436 10:0.015179 11:0.02583 12:0.024031 13:0.051148 14:0.050324 15:0.062451 16:0.363636 17:0.166667 18:0.142857 
0.25 1:0.848609 2:0.763754 3:0.848517 4:0.734409 5:0.825652 6:0.791159 7:0.500482 8:0.609906 9:0.593593 10:0.021057 11:0.023795 12:0.020311 13:0.039299 14:0.039202 15:0.042741 16:0.181818 17:0.083333 18:0.095238 
0.25 1:0.746085 2:0.503314 3:0.741244 4:0.729254 5:0.624072 6:0.789849 7:0.742587 8:0.834648 9:0.673785 10:0.056454 11:0.110583 12:0.055471 13:0.111702 14:0.147051 15:0.080823 16:0.090909 17:0.083333 18:0.047619 
0.25 1:0.56601 2:0.44379 3:0.465099 4:0.708182 5:0.784337 6:0.760363 7:0.385537 8:0.551352 9:0.484136 10:0.01338 11:0.023715 12:0.023536 13:0.035631 14:0.046699 15:0.053367 16:0.272727 17:0.166667 18:0.095238 
0.25 1:0.718357 2:0.729996 3:0.893303 4:0.874061 5:0.956556 6:0.855715 7:0.144073 8:0.38032 9:0.295884 10:0 11:0 12:0 13:0.005309 14:0.011497 15:0.008073 16:0.909091 17:0.833333 18:0.714286 
0.25 1:0.767549 2:0.907565 3:0.936494 4:0.675369 5:0.931285 6:0.807176 7:0.365235 8:0.240228 9:0.247074 10:0.006253 11:0.001832 12:0.002233 13:0.017759 14:0.009079 15:0.010935 16:0.454545 17:0.5 18:0.333333 
0.25 1:0.776435 2:0.749905 3:0.884947 4:0.801296 5:0.924804 6:0.891161 7:0.194339 8:0.333103 9:0.379291 10:0.0053 11:0.00811 12:0.008293 13:0.015277 14:0.01315 15:0.020856 16:0.272727 17:0.25 18:0.142857 
0.25 1:0.236575 2:0.166004 3:0.25935 4:0.572379 5:0.53143 6:0.591951 7:0.886403 8:0.881138 9:0.92776 10:0.206782 11:0.185518 12:0.386643 13:0.29463 14:0.251743 15:0.56708 16:0.090909 17:0.083333 18:0.047619 
0.25 1:0.513415 2:0.498944 3:0.591237 4:0.491205 5:0.711887 6:0.784558 7:0.582515 8:0.640794 9:0.559888 10:0.025358 11:0.018736 12:0.024084 13:0.049114 14:0.045925 15:0.05089 16:0.454545 17:0.416667 18:0.190476 
0.25 1:0.662178 2:0.595408 3:0.444119 4:0.61576 5:0.71099 6:0.747899 7:0.475316 8:0.456944 9:0.691263 10:0.017597 11:0.004634 12:0.01954 13:0.031613 14:0.020595 15:0.068474 16:0.636364 17:0.666667 18:0.333333 
0.25 1:0.408744 2:0.430792 3:0.415803 4:0.442154 5:0.637179 6:0.506361 7:0.456168 8:0.47291 9:0.489893 10:0.017134 11:0.016834 12:0.018861 13:0.031226 14:0.025446 15:0.035102 16:0.181818 17:0.166667 18:0.047619 
0.25 1:0.517512 2:0.479682 3:0.467926 4:0.555824 5:0.718437 6:0.691878 7:0.448119 8:0.49863 9:0.543411 10:0.011148 11:0.009566 12:0.014179 13:0.026009 14:0.025152 15:0.043543 16:0.454545 17:0.416667 18:0.190476 
0.25 1:0.597551 2:0.548987 3:0.764401 4:0.814511 5:0.861207 6:0.766935 7:0.51755 8:0.555427 9:0.613427 10:0.013545 11:0.009905 12:0.014894 13:0.044938 14:0.034205 15:0.042663 16:0.909091 17:0.916667 18:0.428571 
0.25 1:0.781929 2:0.871664 3:0.90708 4:0.84282 5:0.885256 6:0.709685 7:0.250376 8:0.295737 9:0.343022 10:0.001918 11:0.002158 12:0.003253 13:0.010662 14:0.010344 15:0.014183 16:0.545455 17:0.666667 18:0.238095 
0.25 1:0.304363 2:0.37726 3:0.471692 4:0.529453 5:0.655251 6:0.538014 7:0.707512 8:0.704148 9:0.643295 10:0.138267 11:0.076246 12:0.091302 13:0.162354 14:0.123751 15:0.137109 16:0 17:0 18:0 
0.25 1:0.295946 2:0.277103 3:0.30532 4:0.652965 5:0.700905 6:0.695378 7:0.708876 8:0.732952 9:0.698687 10:0.070151 11:0.061798 12:0.084692 13:0.099002 14:0.088108 15:0.115526 16:0.181818 17:0.166667 18:0.095238 
-0.25 1:0.256396 2:0.281087 3:0.355416 4:0.449519 5:0.58165 6:0.567735 7:0.681367 8:0.700503 9:0.645862 10:0.103215 11:0.065475 12:0.047864 13:0.113475 14:0.078069 15:0.070568 16:0.090909 17:0.083333 18:0.047619 
-0.25 1:0.250384 2:0.282357 3:0.287971 4:0.449598 5:0.499121 6:0.464509 7:1 8:0.967533 9:0.998016 10:0.44205 11:0.45256 12:0.43497 13:0.871696 14:0.812944 15:0.901993 16:0.636364 17:0.583333 18:0.333333 
-0.25 1:0.594545 2:0.537242 3:0.55477 4:0.763451 5:0.794605 6:0.745506 7:0.647697 8:0.682129 9:0.67001 10:0.038504 11:0.038217 12:0.051923 13:0.085929 14:0.076419 15:0.094738 16:0.181818 17:0.166667 18:0.095238 
-0.25 1:0.187777 2:0.24666 3:0.296008 4:0.39038 5:0.513428 6:0.460295 7:0.722449 8:0.700503 9:0.76728 10:0.180557 11:0.121672 12:0.121721 13:0.197424 14:0.134225 15:0.154686 16:0.090909 17:0.083333 18:0.047619 
-0.25 1:0.919902 2:0.803781 3:0.895613 4:0.99276 5:1 6:0.949911 7:0.639163 8:0.675948 9:0.544791 10:0.017666 11:0.016363 12:0.013729 13:0.062462 14:0.050075 15:0.051597 16:0.818182 17:0.75 18:0.428571 
-0.25 1:0.719835 2:0.684729 3:0.742345 4:0.881108 5:0.921699 6:0.851922 7:0.539003 8:0.624152 9:0.636857 10:0.01926 11:0.021894 12:0.028774 13:0.046292 14:0.045502 15:0.067849 16:0.272727 17:0.166667 18:0.095238 
-0.25 1:0.359454 2:0.400948 3:0.455407 4:0.65698 5:0.708757 6:0.738273 7:0.71839 8:0.706572 9:0.66243 10:0.070205 11:0.057085 12:0.051281 13:0.094854 14:0.072513 15:0.076615 16:0.090909 17:0.083333 18:0.047619 
-0.25 1:0.295575 2:0.287077 3:0.287291 4:0.619696 5:0.670769 6:0.59098 7:0.828203 8:0.76231 9:0.845984 10:0.119701 11:0.119522 12:0.119615 13:0.171854 14:0.12195 15:0.16921 16:0.454545 17:0.416667 18:0.238095 
-0.25 1:0.749674 2:0.76267 3:0.874042 4:0.704316 5:0.893773 6:0.631928 7:0.422077 8:0.484402 9:0.463797 10:0.006008 11:0.004452 12:0.003357 13:0.029489 14:0.024084 15:0.023194 16:0.454545 17:0.5 18:0.47619 
-0.25 1:0.06421 2:0.198059 3:0.162112 4:0.425047 5:0.502334 6:0.406958 7:0.938969 8:0.920915 9:0.900328 10:0.37809 11:0.285635 12:0.304756 13:0.485529 14:0.321711 15:0.392327 16:0.090909 17:0.083333 18:0.047619 
-0.25 1:0.668809 2:0.593749 3:0.609156 4:0.818082 5:0.884028 6:0.804288 7:0.302679 8:0.38803 9:0.385503 10:0.00819 11:0.008048 12:0.007164 13:0.013687 14:0.012135 15:0.011589 16:0.909091 17:0.833333 18:0.47619 
-0.25 1:0.287089 2:0.3692 3:0.467011 4:0.679371 5:0.747603 6:0.692394 7:0.659002 8:0.612507 9:0.592261 10:0.065699 11:0.048081 12:0.055065 13:0.0687 14:0.051015 15:0.062012 16:0.090909 17:0.083333 18:0.047619 
-0.25 1:0.497083 2:0.489561 3:0.510908 4:0.704051 5:0.799067 6:0.754054 7:0.649114 8:0.658487 9:0.58021 10:0.032851 11:0.035331 12:0.034069 13:0.071278 14:0.05437 15:0.060142 16:0.636364 17:0.666667 18:0.380952 
-0.25 1:0.545982 2:0.498978 3:0.553485 4:0.606495 5:0.738999 6:0.657474 7:0.388894 8:0.492957 9:0.474004 10:0.010308 11:0.009067 12:0.007786 13:0.027779 14:0.022272 15:0.022586 16:0.272727 17:0.333333 18:0.190476 
-0.25 1:0.593315 2:0.646559 3:0.704849 4:0.808788 5:0.802747 6:0.77759 7:0.454561 8:0.543165 9:0.489893 10:0.010613 11:0.004649 12:0.008169 13:0.031998 14:0.02337 15:0.029415 16:0.454545 17:0.666667 18:0.285714 
-0.25 1:0.231745 2:0.220652 3:0.288163 4:0.562885 5:0.685066 6:0.626027 7:0.656183 8:0.712614 9:0.61736 10:0.032921 11:0.033144 12:0.032734 13:0.076996 14:0.058708 15:0.06887 16:0.363636 17:0.416667 18:0.238095 
-0.25 1:0.221776 2:0.249801 3:0.27801 4:0.523753 5:0.565307 6:0.520386 7:0.823147 8:0.836847 9:0.805484 10:0.182727 11:0.137566 12:0.155017 13:0.229553 14:0.167105 15:0.208594 16:0.181818 17:0.166667 18:0.095238 
-0.25 1:0.603418 2:0.456712 3:0.732153 4:0.608319 5:0.741361 6:0.819675 7:0.387216 8:0.401796 9:0.413112 10:0.006949 11:0.008536 12:0.008599 13:0.019897 14:0.016977 15:0.018487 16:0.818182 17:0.666667 18:0.428571 
-0.25 1:0.342232 2:0.348783 3:0.338285 4:0.703355 5:0.773184 6:0.736907 7:0.621953 8:0.655973 9:0.647143 10:0.029655 11:0.017653 12:0.025859 13:0.05115 14:0.042812 15:0.050935 16:0.636364 17:0.75 18:0.380952 
-0.25 1:0.436439 2:0.469765 3:0.445189 4:0.493042 5:0.599839 6:0.612972 7:0.717034 8:0.728195 9:0.654808 10:0.060014 11:0.040265 12:0.045355 13:0.102379 14:0.070572 15:0.078147 16:0.181818 17:0.166667 18:0.095238 
-0.25 1:0.573252 2:0.481349 3:0.557827 4:0.6251 5:0.646177 6:0.649935 7:0.546593 8:0.590232 9:0.609483 10:0.013624 11:0.014845 12:0.016357 13:0.048869 14:0.043559 15:0.049155 16:0.545455 17:0.5 18:0.285714 
-0.25 1:0.524722 2:0.472117 3:0.519585 4:0.626802 5:0.70547 6:0.647072 7:0.678589 8:0.660995 9:0.622586 10:0.017492 11:0.016913 12:0.017834 13:0.062797 14:0.043905 15:0.049483 16:0.727273 17:0.666667 18:0.380952 
-0.25 1:0.618768 2:0.706272 3:0.848493 4:0.798897 5:0.891697 6:0.830976 7:0.216999 8:0.240228 9:0.252204 10:0.001184 11:0.000141 12:0.002175 13:0.008876 14:0.006106 15:0.008651 16:0.818182 17:0.75 18:0.428571 
-0.25 1:0.188296 2:0.260997 3:0.216157 4:0.562962 5:0.69492 6:0.590752 7:0.784691 8:0.745949 9:0.755491 10:0.166092 11:0.106668 12:0.135519 13:0.179688 14:0.105975 15:0.165959 16:0.090909 17:0.083333 18:0.047619 
-0.25 1:0.720024 2:0.75593 3:0.847822 4:0.858788 5:0.870208 6:0.919215 7:0.407233 8:0.470021 9:0.482693 10:0.007383 11:0.006235 12:0.005931 13:0.021071 14:0.021016 15:0.024467 16:0.272727 17:0.416667 18:0.333333 
-0.25 1:0.311919 2:0.382112 3:0.523856 4:0.637001 5:0.613559 6:0.768933 7:0.545078 8:0.638247 9:0.546171 10:0.029467 11:0.016893 12:0.020736 13:0.056517 14:0.036616 15:0.043986 16:0.090909 17:0.25 18:0.095238 
-0.25 1:0.64529 2:0.591355 3:0.732319 4:0.689991 5:0.775237 6:0.836257 7:0.451343 8:0.49863 9:0.468181 10:0.01544 11:0.014071 12:0.014535 13:0.026999 14:0.022014 15:0.027427 16:0.272727 17:0.25 18:0.142857 
-0.25 1:0.390623 2:0.449402 3:0.453283 4:0.492971 5:0.567136 6:0.377136 7:0.614725 8:0.695628 9:0.661163 10:0.090622 11:0.071309 12:0.092598 13:0.091454 14:0.082858 15:0.117085 16:0.090909 17:0.083333 18:0.047619 
-0.25 1:0.506734 2:0.46319 3:0.612494 4:0.681932 5:0.765901 6:0.744007 7:0.721097 8:0.700503 9:0.612114 10:0.058071 11:0.047484 12:0.034947 13:0.105612 14:0.061691 15:0.061967 16:0.090909 17:0.083333 18:0.047619 
-0.25 1:0.672345 2:0.608267 3:0.724833 4:0.748232 5:0.772127 6:0.804577 7:0.560162 8:0.560841 9:0.565336 10:0.022835 11:0.023029 12:0.024053 13:0.0508 14:0.045366 15:0.048345 16:0.181818 17:0.166667 18:0.095238 
-0.25 1:0.665861 2:0.745343 3:0.731201 4:0.711645 5:0.846397 6:0.725506 7:0.320311 8:0.475792 9:0.236755 10:0.006504 11:0.00427 12:0.004347 13:0.017158 14:0.021916 15:0.011301 16:0.272727 17:0.583333 18:0.190476 
-0.25 1:1 2:0.710271 3:0.750047 4:0.856726 5:0.870304 6:0.80948 7:0.37711 8:0.42891 9:0.526734 10:0.0092 11:0.007358 12:0.016513 13:0.026063 14:0.015418 15:0.035789 16:0.636364 17:0.25 18:0.095238 
-0.25 1:0.309612 2:0.26676 3:0.308808 4:0.322071 5:0.376475 6:0.333565 7:0.730536 8:0.775025 9:0.762577 10:0.147566 11:0.149587 12:0.150059 13:0.225658 14:0.209875 15:0.23028 16:0.090909 17:0.083333 18:0.047619 
-0.25 1:0.775205 2:0.270137 3:0.378733 4:0.750707 5:0.71391 6:0.419498 7:0.407233 8:0.786481 9:0.804341 10:0.014676 11:0.083095 12:0.078706 13:0.021278 14:0.15987 15:0.124171 16:0.272727 17:0.166667 18:0.047619 
-0.25 1:0 2:0 3:0 4:0 5:0 6:0 7:0.608919 8:0.638247 9:0.581554 10:0.260418 11:0.272645 12:0.270645 13:0.334551 14:0.310652 15:0.341538 16:0.090909 17:0.083333 18:0.047619 
-0.25 1:0.489237 2:0.434674 3:0.473431 4:0.687768 5:0.721101 6:0.696386 7:0.407233 8:0.512707 9:0.425207 10:0.013373 11:0.015328 12:0.014288 13:0.018702 14:0.02299 15:0.024701 16:0.727273 17:0.666667 18:0.380952 
-0.25 1:0.174541 2:0.176463 3:0.159691 4:0.526239 5:0.620079 6:0.546137 7:0.7238 8:0.687054 9:0.703614 10:0.08687 11:0.078003 12:0.083999 13:0.123373 14:0.090588 15:0.12375 16:0.181818 17:0.166667 18:0.095238 
-0.25 1:0.748181 2:0.785975 3:0.877447 4:0.810487 5:0.911375 6:0.879747 7:0.205711 8:0.28913 9:0.077727 10:0.002767 11:0.002997 12:0.0012 13:0.008914 14:0.010288 15:0.005279 16:0.454545 17:0.416667 18:0.285714 
-0.25 1:0.786107 2:0.636233 3:0.69495 4:0.55324 5:0.578266 6:0.635662 7:0.423717 8:0.448155 9:0.405498 10:0.004189 11:0.003792 12:0.006252 13:0.015854 14:0.015747 15:0.018489 16:0.636364 17:0.583333 18:0.285714 
-0.25 1:0.22158 2:0.223533 3:0.285005 4:0.008526 5:0.051634 6:0.111016 7:0.851995 8:0.900127 9:0.813453 10:0.529518 11:0.754323 12:0.351931 13:0.821873 14:1 15:0.644468 16:0.090909 17:0.083333 18:0.047619 
-0.25 1:0.140601 2:0.152767 3:0.18406 4:0.403377 5:0.443185 6:0.414029 7:0.910518 8:0.912639 9:0.903521 10:0.590629 11:0.617754 12:0.599946 13:0.835809 14:0.811414 15:0.89111 16:0.090909 17:0.083333 18:0.047619 
-0.25 1:0.276366 2:0.341085 3:0.350711 4:0.587638 5:0.670049 6:0.634301 7:0.778187 8:0.684594 9:0.70607 10:0.127701 11:0.0931 12:0.108442 13:0.136154 14:0.092569 15:0.119079 16:0.090909 17:0.083333 18:0.047619 
-0.25 1:0.561351 2:0.534756 3:0.689786 4:0.656178 5:0.713641 6:0.602459 7:0.443269 8:0.454021 9:0.460866 10:0.010608 11:0.008155 12:0.012264 13:0.025494 14:0.019672 15:0.025468 16:0.454545 17:0.5 18:0.285714 
-0.25 1:0.466067 2:0.415818 3:0.430951 4:0.516379 5:0.609447 6:0.519313 7:0.616173 8:0.685825 9:0.568053 10:0.031974 11:0.034958 12:0.023253 13:0.053055 14:0.052172 15:0.048481 16:0.181818 17:0.25 18:0.190476 
-0.25 1:0.568486 2:0.400766 3:0.60451 4:0.774672 5:0.134761 6:0.834868 7:0.486377 8:0.621573 9:0.472551 10:0.03348 11:0.066591 12:0.025649 13:0.042756 14:0.119205 15:0.03399 16:0.090909 17:0.166667 18:0.047619 
-0.1380809196130123 1:0.788656 2:0.722224 3:0.855502 4:0.808024 5:0.86912 6:0.893181 7:0.293787 8:0.26743 9:0.164095 10:0.006966 11:0.007196 12:0.004047 13:0.011993 14:0.010132 15:0.007581 16:0.181818 17:0.166667 18:0.095238 
-0.25 1:0.37749 2:0.336176 3:0.279047 4:0.542032 5:0.569155 6:0.454621 7:0.656183 8:0.655973 9:0.59891 10:0.077474 11:0.067763 12:0.091435 13:0.094652 14:0.075694 15:0.109875 16:0.090909 17:0.083333 18:0.047619 
-0.25 1:0.41666 2:0.445814 3:0.559935 4:0.692966 5:0.757791 6:0.722628 7:0.512914 8:0.590232 9:0.539261 10:0.017997 11:0.016625 12:0.016604 13:0.038335 14:0.035698 15:0.036741 16:0.363636 17:0.333333 18:0.190476 
-0.25 1:0.289072 2:0.312369 3:0.312961 4:0.526558 5:0.714569 6:0.64912 7:0.606007 8:0.6164 9:0.714635 10:0.082092 11:0.05588 12:0.08888 13:0.110493 14:0.072813 15:0.136582 16:0.090909 17:0.083333 18:0.047619 
-0.25 1:0.594933 2:0.513962 3:0.607849 4:0.589622 5:0.767491 6:0.739855 7:0.486377 8:0.470021 9:0.373052 10:0.024685 11:0.013434 12:0.013385 13:0.032314 14:0.021703 15:0.022849 16:0.181818 17:0.333333 18:0.190476 
-0.25 1:0.661188 2:0.666616 3:0.699418 4:0.841135 5:0.863749 6:0.825863 7:0 8:0 9:0 10:0.001861 11:0.001166 12:0.000729 13:0 14:0 15:0 16:0.181818 17:0.25 18:0.142857 
-0.25 1:0.302617 2:0.429217 3:0.362864 4:0.001469 5:0.452909 6:0.162654 7:0.840771 8:0.621573 9:0.796319 10:0.402734 11:0.052288 12:0.250715 13:0.74701 14:0.091223 15:0.40396 16:0.090909 17:0.166667 18:0.047619 
-0.25 1:0.459852 2:0.445469 3:0.48543 4:0.740282 5:0.791796 6:0.651994 7:0.594306 8:0.584936 9:0.658624 10:0.035289 11:0.02011 12:0.034704 13:0.066285 14:0.039172 15:0.061774 16:0.181818 17:0.25 18:0.047619 
-0.25 1:0.444466 2:0.346806 3:0.472812 4:0.549239 5:0.622371 6:0.689605 7:0.704781 8:0.708992 9:0.692503 10:0.030718 11:0.03333 12:0.034117 13:0.071917 14:0.064761 15:0.072081 16:0.636364 17:0.583333 18:0.285714 
-0.25 1:0.474734 2:0.48667 3:0.448127 4:0.46156 5:0.597021 6:0.559234 7:0.627711 8:0.609906 9:0.589592 10:0.033473 11:0.037879 12:0.033593 13:0.067819 14:0.063084 15:0.069379 16:0.090909 17:0.083333 18:0.047619 
-0.25 1:0.330503 2:0.279156 3:0.311372 4:0.549389 5:0.67248 6:0.445562 7:0.642013 8:0.75649 9:0.768454 10:0.065871 11:0.126664 12:0.262794 13:0.102729 14:0.170936 15:0.26253 16:0.090909 17:0.083333 18:0 
-0.25 1:0.778823 2:0.658303 3:1 4:0.784994 5:0.959661 6:1 7:0.348111 8:0.445212 9:0.336615 10:0.004728 11:0.005684 12:0.004787 13:0.023346 14:0.018897 15:0.021517 16:0.727273 17:0.5 18:0.380952 
-0.25 1:0.640948 2:0.684422 3:0.78319 4:0.709077 5:0.620222 6:0.586364 7:0.339477 8:0.471466 9:0.453513 10:0.00715 11:0.014444 12:0.00639 13:0.018681 14:0.024398 15:0.018157 16:0.454545 17:0.166667 18:0.190476 
-0.25 1:0.449087 2:0.462476 3:0.455231 4:0.703846 5:0.746186 6:0.733543 7:0.695183 8:0.667246 9:0.714635 10:0.034581 11:0.027858 12:0.039591 13:0.069686 14:0.055011 15:0.087158 16:0.272727 17:0.333333 18:0.142857 
-0.25 1:0.726221 2:0.852006 3:0.846665 4:0.756983 5:0.933355 6:0.843675 7:0.53748 8:0.474352 9:0.50418 10:0.03247 11:0.012038 12:0.016689 13:0.038251 14:0.019917 15:0.028673 16:0.181818 17:0.416667 18:0.190476 
-0.25 1:0.89722 2:0.605451 3:0.937382 4:0.890216 5:0.800275 6:0.915447 7:0.408889 8:0.353769 9:0.454987 10:0.007001 11:0.004246 12:0.009733 13:0.019357 14:0.013505 15:0.024637 16:0.818182 17:0.666667 18:0.380952 
-0.25 1:0.478716 2:0.492319 3:0.635014 4:0.590607 5:0.745992 6:0.760901 7:0.549618 8:0.575617 9:0.481249 10:0.021299 11:0.023141 12:0.021848 13:0.040258 14:0.03749 15:0.039403 16:0.090909 17:0.166667 18:0.095238 
-0.25 1:0.451931 2:0.434814 3:0.499475 4:0.525289 5:0.54394 6:0.656047 7:0.567649 8:0.591552 9:0.586918 10:0.02396 11:0.020857 12:0.025692 13:0.042395 14:0.0372 15:0.047021 16:0.272727 17:0.333333 18:0.095238 
-0.25 1:0.398193 2:0.41345 3:0.457319 4:0.525535 5:0.510074 6:0.579123 7:0.600167 8:0.689509 9:0.69992 10:0.044353 11:0.04562 12:0.043422 13:0.062387 14:0.056533 15:0.075476 16:0.181818 17:0.083333 18:0.095238 
-0.1049119558933436 1:0.392809 2:0.48222 3:0.473101 4:0.464129 5:0.764521 6:0.614378 7:0.470551 8:0.7102 9:0.432712 10:0.0314 11:0.054355 12:0.025295 13:0.041034 14:0.072522 15:0.040357 16:0.090909 17:0.166667 18:0.095238 
-0.25 1:0.408726 2:0.455259 3:0.477378 4:0.530968 5:0.578249 6:0.536376 7:0.860669 8:0.858636 9:0.813453 10:0.162033 11:0.163572 12:0.160208 13:0.315664 14:0.293302 15:0.322546 16:0.090909 17:0.083333 18:0.047619 
-0.25 1:0.263818 2:0.311766 3:0.423375 4:0.408423 5:0.362416 6:0.411125 7:0.651946 8:0.678424 9:0.596254 10:0.07239 11:0.067892 12:0.059015 13:0.107768 14:0.096103 15:0.098717 16:0.090909 17:0.083333 18:0.047619 
-0.25 1:0.375579 2:0.387381 3:0.431943 4:0.747487 5:0.772999 6:0.696755 7:0.664624 8:0.647139 9:0.661163 10:0.036806 11:0.033285 12:0.037919 13:0.069011 14:0.061272 15:0.073641 16:0.181818 17:0.166667 18:0.095238 
-0.25 1:0.420741 2:0.482902 3:0.457335 4:0.589148 5:0.640139 6:0.64293 7:0.65336 8:0.514107 9:0.698687 10:0.041084 11:0.027711 12:0.046163 13:0.058274 14:0.031596 15:0.080703 16:0.090909 17:0.083333 18:0.047619 
-0.25 1:0.481593 2:0.451059 3:0.479849 4:0.617805 5:0.708115 6:0.608695 7:0.549618 8:0.636972 9:0.586918 10:0.023861 11:0.02281 12:0.024876 13:0.049597 14:0.052351 15:0.051684 16:0.363636 17:0.333333 18:0.142857 
-0.25 1:0.247975 2:0.175093 3:0.27674 4:0.434588 5:0.460924 6:0.410121 7:0.774272 8:0.751815 9:0.747178 10:0.19746 11:0.139967 12:0.188499 13:0.249804 14:0.166528 15:0.248447 16:0.090909 17:0.083333 18:0.047619 
-0.25 1:0.482226 2:0.522928 3:0.672074 4:0.651754 5:0.697794 6:0.705876 7:0.483224 8:0.596822 9:0.582897 10:0.013734 11:0.022032 12:0.023219 13:0.027549 14:0.034574 15:0.03889 16:0.272727 17:0.166667 18:0.142857 
-0.25 1:0.573375 2:0.507536 3:0.589101 4:0.64187 5:0.575003 6:0.547349 7:0.483224 8:0.511306 9:0.481249 10:0.01161 11:0.009695 12:0.013591 13:0.029472 14:0.025315 15:0.031584 16:0.454545 17:0.416667 18:0.142857 
-0.25 1:0.580967 2:0.544809 3:0.522562 4:0.783021 5:0.859067 6:0.771643 7:0.380486 8:0.446684 9:0.488456 10:0.014893 11:0.008475 12:0.018931 13:0.031457 14:0.023031 15:0.038876 16:0.272727 17:0.25 18:0.047619 
-0.25 1:0.244167 2:0.18443 3:0.198256 4:0.240065 5:0.289349 6:0.44143 7:0.637736 8:0.669738 9:0.69498 10:0.126424 11:0.121626 12:0.135043 13:0.183927 14:0.143627 15:0.180666 16:0.090909 17:0.083333 18:0.047619 
-0.25 1:0.062786 2:0.044642 3:0.033125 4:0.293734 5:0.363729 6:0.375675 7:0.792459 8:0.87154 9:0.876681 10:0.294196 11:0.254897 12:0.359543 13:0.252922 14:0.200164 15:0.309697 16:0.090909 17:0.083333 18:0.047619 
-0.25 1:0.545974 2:0.487796 3:0.534932 4:0.797059 5:0.846725 6:0.779312 7:0.475316 8:0.488686 9:0.528132 10:0.015542 11:0.014753 12:0.018352 13:0.025445 14:0.019056 15:0.027504 16:0.181818 17:0.166667 18:0.095238 
-0.25 1:0.404188 2:0.392749 3:0.510363 4:0.656704 5:0.619238 6:0.595753 7:0.729191 8:0.721026 9:0.721933 10:0.062505 11:0.05463 12:0.061266 13:0.085938 14:0.071174 15:0.086467 16:0.181818 17:0.166667 18:0.095238 
-0.25 1:0.420386 2:0.426059 3:0.387011 4:0.544794 5:0.735567 6:0.665139 7:0.522172 8:0.575617 9:0.551674 10:0.02768 11:0.016248 12:0.017689 13:0.065242 14:0.03494 15:0.037946 16:0.181818 17:0.25 18:0.142857 
-0.25 1:0.554618 2:0.461592 3:0.533215 4:0.791668 5:0.802007 6:0.837058 7:0.601629 8:0.631858 9:0.658624 10:0.027505 11:0.024705 12:0.029646 13:0.065785 14:0.050493 15:0.071264 16:0.181818 17:0.166667 18:0.095238 
-0.25 1:0.426886 2:0.414661 3:0.481279 4:0.590262 5:0.806678 6:0.67177 7:0.689672 8:0.630577 9:0.601561 10:0.044945 11:0.036422 12:0.032389 13:0.070881 14:0.045689 15:0.05903 16:0.090909 17:0.083333 18:0.095238 
-0.25 1:0.526437 2:0.500781 3:0.527404 4:0.78108 5:0.822944 6:0.776995 7:0.660409 8:0.740057 9:0.673785 10:0.027455 11:0.033818 12:0.036025 13:0.077138 14:0.080008 15:0.083927 16:0.363636 17:0.25 18:0.142857 
-0.25 1:0.535659 2:0.652058 3:0.454963 4:0.813102 5:0.953033 6:0.766539 7:0.630582 8:0.688282 9:0.653534 10:0.020415 11:0.020979 12:0.024281 13:0.070659 14:0.061681 15:0.066229 16:0.727273 17:0.666667 18:0.380952 
-0.25 1:0.381902 2:0.259937 3:0.420263 4:0.500048 5:0.278052 6:0.069115 7:0.591366 8:0.667246 9:0.588256 10:0.042176 11:0.06619 12:0.088658 13:0.067984 14:0.094194 15:0.147663 16:0.090909 17:0.083333 18:0.047619 
-0.25 1:0.23921 2:0.306669 3:0.293031 4:0.365681 5:0.579425 6:0.416678 7:0.65336 8:0.634417 9:0.673785 10:0.092158 11:0.071628 12:0.092055 13:0.113314 14:0.074525 15:0.106088 16:0.090909 17:0.083333 18:0.047619 
-0.25 1:0.464534 2:0.517546 3:0.544157 4:0.753974 5:0.593526 6:0.702996 7:0.368637 8:0.407869 9:0.449082 10:0.015557 11:0.00657 12:0.017624 13:0.025375 14:0.017466 15:0.028842 16:0.363636 17:0.416667 18:0.095238 
-0.1048039319483327 1:0.537411 2:0.510049 3:0.777285 4:0.825509 5:0.828003 6:0.866044 7:0.327308 8:0.302311 9:0.405498 10:0.005187 11:0.006742 12:0.007961 13:0.016597 14:0.012675 15:0.019771 16:0.272727 17:0.25 18:0.190476 
-0.25 1:0.461808 2:0.619791 3:0.601286 4:0.627161 5:0.75406 6:0.628061 7:0.509815 8:0.567578 9:0.605528 10:0.038133 11:0.030329 12:0.033219 13:0.046222 14:0.034086 15:0.043314 16:0.090909 17:0.166667 18:0.047619 
-0.25 1:0.472015 2:0.407732 3:0.335883 4:0.570915 5:0.49291 6:0.561131 7:0.606007 8:0.713819 9:0.67001 10:0.038205 11:0.050844 12:0.05992 13:0.085313 14:0.074549 15:0.083273 16:0.181818 17:0.083333 18:0.047619 
-0.25 1:0.194356 2:0.178028 3:0.149001 4:0.581627 5:0.588205 6:0.514728 7:0.837011 8:0.707783 9:0.773137 10:0.143729 11:0.092316 12:0.151521 13:0.203097 14:0.115006 15:0.206727 16:0.090909 17:0.083333 18:0.047619 
-0.25 1:0.351456 2:0.37007 3:0.422668 4:0.670878 5:0.736429 6:0.678174 7:0.695183 8:0.768105 9:0.715854 10:0.031884 11:0.031488 12:0.033373 13:0.109592 14:0.090053 15:0.110702 16:0.272727 17:0.333333 18:0.142857 
-0.25 1:0.579731 2:0.546476 3:0.570332 4:0.776803 5:0.84899 6:0.784151 7:0.446504 8:0.445212 9:0.495625 10:0.012169 11:0.007355 12:0.010827 13:0.029555 14:0.021752 15:0.027076 16:0.181818 17:0.25 18:0.095238 
