svm_type c_svc
kernel_type rbf
gamma 0.03125
nr_class 2
total_sv 153
rho -3.78671
label 1 2
probA -0.775533
probB -0.0445756
nr_sv 76 77
SV
128 1:0.754246 2:0.685703 3:0.905291 4:0.899557 5:0.915636 6:0.819024 7:0.352329 8:0.381295 9:0.315273 10:0.004351 11:0.002989 12:0.002458 13:0.008115 14:0.006793 15:0.007014 16:0.294118 17:0.294118 18:0.375 
128 1:0.673422 2:0.667066 3:0.598628 4:0.882797 5:0.758164 6:0.76877 7:0.323946 8:0.372395 9:0.432284 10:0.003504 11:0.002982 12:0.009988 13:0.007575 14:0.007957 15:0.011319 16:0.294118 17:0.411765 18:0.1875 
128 1:0.131234 2:0.176841 3:0.159877 4:0.722528 5:0.675562 6:0.665703 7:0.851444 8:0.818481 9:0.812647 10:0.08815 11:0.073924 12:0.129347 13:0.107995 14:0.092743 15:0.129171 16:0.176471 17:0.176471 18:0.125 
128 1:0.228765 2:0.46469 3:0.585221 4:0.699791 5:0.789477 6:0.734904 7:0.729625 8:0.567098 9:0.559333 10:0.083786 11:0.027062 12:0.034847 13:0.06168 14:0.02813 15:0.032219 16:0.058824 17:0.176471 18:0.125 
128 1:0.319505 2:0.313253 3:0.467572 4:0.594509 5:0.662765 6:0.640939 7:0.73976 8:0.649026 9:0.657972 10:0.037536 11:0.031152 12:0.033141 13:0.053305 14:0.033744 15:0.037897 16:0.176471 17:0.411765 18:0.4375 
128 1:0.601741 2:0.684644 3:0.615042 4:0.885817 5:0.736928 6:0.750824 7:0.611771 8:0.717924 9:0.638803 10:0.031593 11:0.027572 12:0.022885 13:0.043318 14:0.042314 15:0.038514 16:0.294118 17:0.352941 18:0.375 
70.82135805809133 1:0.446765 2:0.446987 3:0.506529 4:0.811989 5:0.727883 6:0.737213 7:0.685736 8:0.814369 9:0.695528 10:0.033308 11:0.040108 12:0.032977 13:0.054165 14:0.064557 15:0.056717 16:0.411765 17:0.352941 18:0.4375 
128 1:0.434786 2:0.580751 3:0.457356 4:0.763465 5:0.578063 6:0.704828 7:0.721976 8:0.708963 9:0.600966 10:0.053439 11:0.035329 12:0.045312 13:0.043751 14:0.031536 15:0.034345 16:0.117647 17:0.176471 18:0.0625 
128 1:0.718403 2:0.40974 3:0.468213 4:0.831226 5:0.862215 6:0.690306 7:0.757325 8:0.691979 9:0.676878 10:0.026637 11:0.018325 12:0.032707 13:0.063257 14:0.034718 15:0.055563 16:0.470588 17:0.411765 18:0.25 
128 1:0.397103 2:0.477492 3:0.368345 4:0.863203 5:0.865644 6:0.767103 7:0.710427 8:0.741132 9:0.643941 10:0.051855 11:0.051799 12:0.05699 13:0.041712 14:0.046076 15:0.045012 16:0.058824 17:0.117647 18:0.0625 
128 1:0.441684 2:0.44465 3:0.399206 4:0.901863 5:0.792436 6:0.791925 7:0.72453 8:0.741132 9:0.702917 10:0.071801 11:0.050948 12:0.057511 13:0.062493 14:0.043493 15:0.049298 16:0.117647 17:0.117647 18:0.125 
128 1:0.171538 2:0.293897 3:0.239995 4:0.618838 5:0.563489 6:0.528758 7:0.800322 8:0.77459 9:0.780522 10:0.126151 11:0.082201 12:0.095718 13:0.113524 14:0.075964 15:0.090032 16:0.058824 17:0.058824 18:0.0625 
108.2664194882454 1:0.007247 2:0.26625 3:0.177366 4:0 5:0.670056 6:0.447404 7:0.663278 8:0.716808 9:0.717578 10:0.373316 11:0.072272 12:0.110111 13:0.217723 14:0.046981 15:0.072195 16:0.058824 17:0.058824 18:0.0625 
128 1:0.386529 2:0.404282 3:0.365923 4:0.731577 5:0.8013 6:0.679828 7:0.7979 8:0.761749 9:0.761822 10:0.080468 11:0.048261 12:0.053376 13:0.082122 14:0.057348 15:0.063735 16:0.058824 17:0.058824 18:0.0625 
128 1:0.203014 2:0.271751 3:0.22273 4:0.202761 5:0.214979 6:0.222361 7:0.806361 8:0.833774 9:0.793232 10:0.279995 11:0.26788 12:0.2566 13:0.204243 14:0.173491 15:0.166902 16:0.058824 17:0.058824 18:0.0625 
128 1:0.685787 2:0.710631 3:0.737442 4:0.866022 5:0.935373 6:0.816025 7:0.529414 8:0.61425 9:0.496563 10:0.012213 11:0.012611 12:0.013635 13:0.020905 14:0.022322 15:0.021827 16:0.352941 17:0.411765 18:0.4375 
128 1:0.335172 2:0.31793 3:0.288247 4:0.267724 5:0.363666 6:0.336696 7:0.701379 8:0.777779 9:0.733286 10:0.098902 11:0.109947 12:0.104667 13:0.127084 14:0.131229 15:0.14514 16:0.176471 17:0.117647 18:0.125 
128 1:0.48817 2:0.530215 3:0.663217 4:0.866445 5:0.836729 6:0.895203 7:0.762305 8:0.788348 9:0.684368 10:0.052653 11:0.043923 12:0.038131 13:0.071284 14:0.057177 15:0.066613 16:0.117647 17:0.176471 18:0.25 
128 1:0.434036 2:0.410255 3:0.378813 4:0.809233 5:0.801718 6:0.75603 7:0.683112 8:0.748769 9:0.709045 10:0.031051 11:0.043638 12:0.062256 13:0.039801 14:0.050067 15:0.063266 16:0.117647 17:0.117647 18:0.0625 
39.25314494310404 1:0.36475 2:0.436148 3:0.551839 4:0.790583 5:0.714437 6:0.728582 7:0.747314 8:0.810244 9:0.797825 10:0.073875 11:0.055978 12:0.064484 13:0.068446 14:0.064286 15:0.072375 16:0.058824 17:0.117647 18:0.125 
128 1:0.479537 2:0.607437 3:0.681335 4:0.848863 5:0.911502 6:0.93463 7:0.56264 8:0.639533 9:0.574251 10:0.009766 11:0.011245 12:0.011353 13:0.027309 14:0.029011 15:0.029462 16:0.470588 17:0.470588 18:0.5 
128 1:0.369815 2:0.414937 3:0.31043 4:0.841865 5:0.868148 6:0.797327 7:0.764788 8:0.824622 9:0.778199 10:0.076192 11:0.083953 12:0.110745 13:0.08761 14:0.093824 15:0.11201 16:0.058824 17:0.117647 18:0.0625 
128 1:0.402398 2:0.501306 3:0.541482 4:0.761542 5:0.75772 6:0.838346 7:0.568341 8:0.673593 9:0.560696 10:0.013692 11:0.018542 12:0.018395 13:0.025205 14:0.027922 15:0.029182 16:0.235294 17:0.235294 18:0.1875 
128 1:0.692812 2:0.674519 3:0.543807 4:0.965602 5:0.973237 6:0.726878 7:0.5162 8:0.540222 9:0.415733 10:0.012191 11:0.006058 12:0.007473 13:0.016683 14:0.015085 15:0.014026 16:0.470588 17:0.529412 18:0.5 
128 1:0.705908 2:0.735135 3:0.593707 4:0.891481 5:0.846035 6:0.81858 7:0.415398 8:0.555654 9:0.430788 10:0.002521 11:0.004742 12:0.003007 13:0.013289 14:0.013847 15:0.011755 16:0.470588 17:0.470588 18:0.5 
128 1:0.4293 2:0.528235 3:0.568857 4:0.815918 5:0.801514 6:0.750292 7:0.588117 8:0.672435 9:0.499414 10:0.014739 11:0.01822 12:0.013466 13:0.026525 14:0.024741 15:0.024618 16:0.352941 17:0.352941 18:0.375 
75.03068596152667 1:0.187391 2:0.175993 3:0.138031 4:0.730095 5:0.71641 6:0.680747 7:0.971278 8:0.993811 9:0.960857 10:0.550503 11:0.58283 12:0.563794 13:0.424625 14:0.439959 15:0.43733 16:0.294118 17:0.294118 18:0.3125 
128 1:0.747966 2:0.638885 3:0.624676 4:0.708333 5:0.864705 6:0.856455 7:0.59092 8:0.600791 9:0.506517 10:0.010438 11:0.007856 12:0.007651 13:0.02105 14:0.018186 15:0.018816 16:0.352941 17:0.470588 18:0.4375 
128 1:0.419062 2:0.4569 3:0.515696 4:0.636777 5:0.656409 6:0.599314 7:0.511768 8:0.500751 9:0.480773 10:0.011394 11:0.010138 12:0.008839 13:0.020123 14:0.017009 15:0.016874 16:0.235294 17:0.235294 18:0.25 
128 1:0.475983 2:0.45837 3:0.485402 4:0.458625 5:0.441742 6:0.572846 7:0.593718 8:0.712331 9:0.570199 10:0.023675 11:0.042587 12:0.018784 13:0.046627 14:0.067332 15:0.038386 16:0.294118 17:0.176471 18:0.375 
128 1:0.156096 2:0.157404 3:0.202787 4:0.384146 5:0.400511 6:0.377208 7:0.959409 8:0.954158 9:0.937239 10:0.503433 11:0.502274 12:0.513148 13:0.315489 14:0.309664 15:0.320149 16:0.058824 17:0.058824 18:0.0625 
128 1:0.608936 2:0.614189 3:0.587091 4:0.69797 5:0.750387 6:0.697841 7:0.6364 8:0.656097 9:0.560696 10:0.023298 11:0.022559 12:0.019152 13:0.034327 14:0.027979 15:0.024436 16:0.529412 17:0.529412 18:0.5625 
128 1:0.060087 2:0.08284 3:0.05356 4:0.359355 5:0.340828 6:0.323271 7:0.906441 8:0.888238 9:0.860565 10:0.260843 11:0.255526 12:0.263941 13:0.165822 14:0.151546 15:0.170993 16:0 17:0 18:0.0625 
128 1:0.189662 2:0.305897 3:0.165967 4:0.741551 5:0.729021 6:0.674366 7:0.767267 8:0.800909 9:0.684368 10:0.053624 11:0.070433 12:0.057637 13:0.056458 14:0.058149 15:0.053987 16:0.352941 17:0.352941 18:0.375 
128 1:0.451519 2:0.446078 3:0.414509 4:0.713065 5:0.774455 6:0.727023 7:0.610391 8:0.71121 9:0.629765 10:0.019968 11:0.026852 12:0.021676 13:0.034466 14:0.038067 15:0.036201 16:0.352941 17:0.352941 18:0.3125 
128 1:0.376847 2:0.553111 3:0.497192 4:0.804118 5:0.733766 6:0.771853 7:0.796687 8:0.775654 9:0.671862 10:0.055125 11:0.042988 12:0.040066 13:0.068672 14:0.054066 15:0.049289 16:0.117647 17:0.294118 18:0.3125 
128 1:0.242846 2:0.220816 3:0.227219 4:0.744873 5:0.753692 6:0.694308 7:0.59651 8:0.626356 9:0.547007 10:0.05699 11:0.046372 12:0.050814 13:0.041149 14:0.035137 15:0.034968 16:0.058824 17:0.058824 18:0.0625 
128 1:0.302652 2:0.277773 3:0.298038 4:0.593748 5:0.567035 6:0.548036 7:0.761062 8:0.705586 9:0.659241 10:0.049462 11:0.04767 12:0.043833 13:0.04162 14:0.039795 15:0.038067 16:0.176471 17:0.176471 18:0.1875 
128 1:0.599292 2:0.556731 3:0.494622 4:0.831585 5:0.815207 6:0.735155 7:0.617281 8:0.685118 9:0.579636 10:0.038643 11:0.040315 12:0.035207 13:0.031883 14:0.02949 15:0.026242 16:0.176471 17:0.176471 18:0.1875 
128 1:0.66453 2:0.610189 3:0.703827 4:0.962261 5:0.930883 6:0.9389 7:0.238853 8:0.298713 9:0.224396 10:0.004245 11:0.004625 12:0.006399 13:0.004241 14:0.004026 15:0.006947 16:0.294118 17:0.235294 18:0.1875 
128 1:0.267609 2:0.350744 3:0.307964 4:0.701327 5:0.729133 6:0.685275 7:0.783278 8:0.791501 9:0.746439 10:0.064067 11:0.060791 12:0.054798 13:0.076134 14:0.070241 15:0.066243 16:0.058824 17:0.058824 18:0.0625 
128 1:0.48083 2:0.558498 3:0.488879 4:0.777944 5:0.783141 6:0.669161 7:0.457493 8:0.578435 9:0.570199 10:0.009431 11:0.013698 12:0.015102 13:0.016122 14:0.016795 15:0.01715 16:0.294118 17:0.352941 18:0.25 
128 1:0.571473 2:0.546165 3:0.652516 4:0.892769 5:0.787512 6:0.751726 7:0.675211 8:0.610594 9:0.548382 10:0.045345 11:0.039494 12:0.037705 13:0.036537 14:0.027505 15:0.028009 16:0.117647 17:0.058824 18:0.0625 
128 1:0.513398 2:0.562128 3:0.483067 4:0.666783 5:0.679712 6:0.751029 7:0.508806 8:0.547963 9:0.430788 10:0.012715 11:0.010079 12:0.004526 13:0.018502 14:0.015195 15:0.011947 16:0.352941 17:0.411765 18:0.5 
74.86802067251134 1:0.556221 2:0.581017 3:0.580436 4:0.657491 5:0.655808 6:0.527431 7:0.651245 8:0.681672 9:0.58232 10:0.022325 11:0.018196 12:0.017516 13:0.035981 14:0.0338 15:0.032497 16:0.529412 17:0.588235 18:0.625 
128 1:0.371413 2:0.35004 3:0.465821 4:0.691536 5:0.612083 6:0.656342 7:0.692275 8:0.726818 9:0.680628 10:0.046655 11:0.038359 12:0.039707 13:0.046629 14:0.046408 15:0.045342 16:0.294118 17:0.352941 18:0.4375 
128 1:0.159839 2:0.260989 3:0.11965 4:0.533514 5:0.478117 6:0.468553 7:0.749823 8:0.752027 9:0.754743 10:0.065369 11:0.051527 12:0.066337 13:0.061699 14:0.049174 15:0.057763 16:0.058824 17:0.058824 18:0.0625 
128 1:0.498963 2:0.717758 3:0.681911 4:0.777929 5:0.871575 6:0.702056 7:0.448245 8:0.450209 9:0.349053 10:0.014309 11:0.00795 12:0.005185 13:0.012431 14:0.008533 15:0.010078 16:0.117647 17:0.294118 18:0.3125 
128 1:0.359836 2:0.398401 3:0.331234 4:0.683443 5:0.696211 6:0.6999 7:0.763547 8:0.85983 9:0.73928 10:0.065891 11:0.063141 12:0.058051 13:0.079963 14:0.078853 15:0.078908 16:0.176471 17:0.235294 18:0.1875 
128 1:0.535983 2:0.437203 3:0.355067 4:0.788076 5:0.67908 6:0.62369 7:0.574019 8:0.670115 9:0.594336 10:0.021732 11:0.026421 12:0.033423 13:0.026408 14:0.028292 15:0.030206 16:0.176471 17:0.117647 18:0.125 
128 1:0.354146 2:0.380113 3:0.367462 4:0.787546 5:0.773833 6:0.741091 7:0.802741 8:0.786242 9:0.72243 10:0.068811 11:0.070924 12:0.065291 13:0.081701 14:0.07963 15:0.077411 16:0.352941 17:0.352941 18:0.375 
128 1:0.293223 2:0.227595 3:0.240248 4:0.567101 5:0.555644 6:0.656547 7:0.737233 8:0.799867 9:0.774706 10:0.044844 11:0.048298 12:0.045915 13:0.057108 14:0.058064 15:0.058118 16:0.411765 17:0.352941 18:0.375 
128 1:0.30609 2:0.385567 3:0.375971 4:0.572739 5:0.647523 6:0.589038 7:0.854944 8:0.866749 9:0.750004 10:0.183897 11:0.168094 12:0.139916 13:0.161343 14:0.135835 15:0.13302 16:0.117647 17:0.117647 18:0.125 
128 1:0.788405 2:0.728544 3:0.732398 4:0.830005 5:0.88458 6:0.802935 7:0.565493 8:0.595859 9:0.54563 10:0.002989 11:0.004889 12:0.003392 13:0.020187 14:0.020713 15:0.02098 16:0.529412 17:0.529412 18:0.5625 
128 1:0.283397 2:0.360044 3:0.267106 4:0.656889 5:0.690454 6:0.47088 7:0.764788 8:0.71121 9:0.628469 10:0.126662 11:0.079518 12:0.105814 13:0.104496 14:0.06464 15:0.083922 16:0.058824 17:0.058824 18:0.0625 
128 1:0.528985 2:0.63904 3:0.680496 4:0.847514 5:0.805437 6:0.788567 7:0.652587 8:0.744411 9:0.678129 10:0.042199 11:0.035005 12:0.045016 13:0.040033 14:0.036729 15:0.039812 16:0.058824 17:0.117647 18:0.0625 
128 1:0.440711 2:0.580174 3:0.42119 4:0.746412 5:0.838588 6:0.805071 7:0.661946 8:0.640724 9:0.574251 10:0.058125 11:0.027816 12:0.05144 13:0.089379 14:0.031135 15:0.066775 16:0.117647 17:0.117647 18:0.125 
128 1:0.463603 2:0.529442 3:0.54873 4:0.851686 5:0.876888 6:0.826118 7:0.67389 8:0.664294 9:0.660508 10:0.024819 11:0.028443 12:0.027959 13:0.038232 14:0.038633 15:0.035776 16:0.176471 17:0.235294 18:0.25 
128 1:0.101135 2:0.237129 3:0.132053 4:0.485535 5:0.550671 6:0.425349 7:0.572601 8:0.637148 9:0.614131 10:0.058264 11:0.046381 12:0.05561 13:0.041161 14:0.034732 15:0.042973 16:0.058824 17:0.058824 18:0.0625 
128 1:0.378631 2:0.388696 3:0.37384 4:0.718618 5:0.66494 6:0.616843 7:0.785725 8:0.752027 9:0.75119 10:0.078769 11:0.075682 12:0.077892 13:0.07782 14:0.07268 15:0.073744 16:0.058824 17:0.058824 18:0.0625 
128 1:0.374602 2:0.409296 3:0.351574 4:0.759977 5:0.819286 6:0.722083 7:0.758572 8:0.777779 9:0.758287 10:0.169813 11:0.093817 12:0.135579 13:0.115945 14:0.072136 15:0.09751 16:0.058824 17:0.058824 18:0.0625 
128 1:0.537912 2:0.510676 3:0.556453 4:0.85884 5:0.599582 6:0.770678 7:0.6364 8:0.710087 9:0.618056 10:0.018684 11:0.01406 12:0.014944 13:0.036515 14:0.032561 15:0.034642 16:0.411765 17:0.411765 18:0.4375 
128 1:0.779321 2:0.834485 3:0.845178 4:0.974266 5:0.893548 6:0.802019 7:0.475814 8:0.569627 9:0.533179 10:0.007371 11:0.010599 12:0.015088 13:0.016337 14:0.019805 15:0.021067 16:0.352941 17:0.235294 18:0.1875 
128 1:0.500505 2:0.345705 3:0.778834 4:0.642356 5:0.626649 6:0.849785 7:0.707848 8:0.831747 9:0.473535 10:0.033283 11:0.09348 12:0.007949 13:0.0416 14:0.074377 15:0.014124 16:0.117647 17:0.058824 18:0.25 
128 1:0.589563 2:0.652207 3:0.60689 4:0.713663 5:0.866179 6:0.849554 7:0.440492 8:0.443213 9:0.355394 10:0.011885 11:0.005531 12:0.006368 13:0.0123 14:0.008437 15:0.008571 16:0.176471 17:0.235294 18:0.1875 
128 1:0.728309 2:0.717766 3:0.996691 4:0.663228 5:0.773294 6:0.618598 7:0.393075 8:0.58219 9:0.341085 10:0.009529 11:0.018653 12:0.007742 13:0.008782 14:0.015465 15:0.008679 16:0.176471 17:0.117647 18:0.375 
128 1:0.796948 2:0.9914 3:0.957666 4:0.696071 5:0.82462 6:0.77069 7:0.432697 8:0.413373 9:0.268902 10:0.010352 11:0.009017 12:0.008401 13:0.010535 14:0.008855 15:0.008177 16:0.235294 17:0.352941 18:0.375 
128 1:0.75761 2:0.838568 3:0.859612 4:0.777007 5:0.748098 6:0.786884 7:0.472776 8:0.476429 9:0.400512 10:0.011102 11:0.010767 12:0.009341 13:0.015017 14:0.012714 15:0.015304 16:0.176471 17:0.176471 18:0.1875 
17.73123469274983 1:0.202585 2:0.139271 3:0.26029 4:0.650318 5:0.587593 6:0.62869 7:0.914288 8:0.904584 9:0.950638 10:0.229285 11:0.22653 12:0.287804 13:0.180034 14:0.171493 15:0.341613 16:0.058824 17:0.058824 18:0.0625 
128 1:0.418295 2:0.428265 3:0.482637 4:0.649008 5:0.67067 6:0.668867 7:0.660613 8:0.716808 9:0.64906 10:0.016254 11:0.018001 12:0.028721 13:0.034472 14:0.039084 15:0.039118 16:0.352941 17:0.352941 18:0.375 
128 1:0.657066 2:0.681176 3:0.537219 4:0.826959 5:0.814986 6:0.680033 7:0.56264 8:0.629964 9:0.568845 10:0.012964 11:0.020319 12:0.014734 13:0.021066 14:0.022052 15:0.031729 16:0.470588 17:0.352941 18:0.4375 
128 1:0.203824 2:0.281921 3:0.258857 4:0.621414 5:0.696737 6:0.610194 7:0.565493 8:0.645475 9:0.570199 10:0.054503 11:0.042462 12:0.052298 13:0.035155 14:0.029925 15:0.034901 16:0.058824 17:0.117647 18:0.0625 
128 1:0.39363 2:0.514391 3:0.382913 4:0.727252 5:0.790248 6:0.679828 7:0.571183 8:0.595859 9:0.542873 10:0.007821 11:0.008732 12:0.020622 13:0.021716 14:0.021147 15:0.043065 16:0.411765 17:0.411765 18:0.1875 
128 1:0.930907 2:0.791473 3:0.726509 4:0.888299 5:0.812145 6:0.830044 7:0.375289 8:0.511405 9:0.382022 10:0.006048 11:0.013435 12:0.009975 13:0.008979 14:0.011666 15:0.009865 16:0.235294 17:0.117647 18:0.1875 
128 1:0.147828 2:0.188337 3:0.190816 4:0.630993 5:0.703049 6:0.679018 7:0.701379 8:0.733446 9:0.709045 10:0.117586 11:0.095785 12:0.086777 13:0.073899 14:0.066166 15:0.071192 16:0 17:0.058824 18:0.0625 
128 1:0.392843 2:0.377983 3:0.39049 4:0.72783 5:0.751298 6:0.689367 7:0.533791 8:0.611814 9:0.524815 10:0.026227 11:0.025805 12:0.021737 13:0.023352 14:0.020143 15:0.018859 16:0.470588 17:0.470588 18:0.5 
-128 1:0.249898 2:0.371462 3:0.399207 4:0.592715 5:0.718741 6:0.686825 7:0.770978 8:0.702198 9:0.586337 10:0.111895 11:0.053592 12:0.043746 13:0.0737 14:0.034736 15:0.029453 16:0.058824 17:0.058824 18:0.0625 
-128 1:0.184114 2:0.197719 3:0.198571 4:0.625679 5:0.6262 6:0.580735 7:1 8:0.996467 9:1 10:0.457116 11:0.478825 12:0.468666 13:0.506422 14:0.524435 15:0.527102 16:0.470588 17:0.470588 18:0.5 
-128 1:0.507412 2:0.560287 3:0.477153 4:0.602682 5:0.690269 6:0.590402 7:0.77591 8:0.775654 9:0.718793 10:0.058459 11:0.055819 12:0.054844 13:0.065932 14:0.06231 15:0.065075 16:0.117647 17:0.117647 18:0.125 
-128 1:0.298698 2:0.378584 3:0.394669 4:0.767679 5:0.793773 6:0.777461 7:0.657942 8:0.761749 9:0.674372 10:0.066379 11:0.048845 12:0.049172 13:0.065662 14:0.054087 15:0.05542 16:0.117647 17:0.176471 18:0.1875 
-128 1:0.931163 2:0.814571 3:0.800361 4:0.858554 5:0.919369 6:0.919477 7:0.676531 8:0.695395 9:0.598318 10:0.026255 11:0.029662 12:0.028449 13:0.036412 14:0.033816 15:0.03414 16:0.588235 17:0.588235 18:0.625 
-128 1:0.693151 2:0.589639 3:0.496011 4:0.670205 5:0.584086 6:0.563201 7:0.588117 8:0.674751 9:0.663039 10:0.040264 11:0.05414 12:0.065105 13:0.050572 14:0.058269 15:0.073227 16:0.117647 17:0.117647 18:0.125 
-128 1:0.41962 2:0.62222 3:0.490546 4:0.854579 5:0.816226 6:0.842961 7:0.607625 8:0.593385 9:0.476435 10:0.027579 11:0.022798 12:0.016496 13:0.021588 14:0.017817 15:0.016928 16:0.058824 17:0.117647 18:0.125 
-128 1:0.431281 2:0.445339 3:0.360867 4:0.761792 5:0.830267 6:0.734775 7:0.644516 8:0.673593 9:0.602288 10:0.030084 11:0.030276 12:0.031551 13:0.041897 14:0.03241 15:0.036326 16:0.352941 17:0.352941 18:0.375 
-128 1:0.719248 2:0.73647 3:0.85223 4:0.782715 5:0.881353 6:0.833801 7:0.462095 8:0.563296 9:0.450115 10:0.00808 11:0.009354 12:0.009373 13:0.014998 14:0.014665 15:0.014273 16:0.411765 17:0.470588 18:0.625 
-128 1:0.547512 2:0.505019 3:0.534692 4:0.790325 5:0.759855 6:0.757635 7:0.759817 8:0.80714 9:0.680628 10:0.05269 11:0.043435 12:0.049954 13:0.054844 14:0.053055 15:0.051339 16:0.176471 17:0.235294 18:0.1875 
-128 1:0.549658 2:0.527596 3:0.529582 4:0.816771 5:0.83328 6:0.820988 7:0.5162 8:0.559481 9:0.461875 10:0.012054 11:0.01442 12:0.011527 13:0.016815 14:0.016629 15:0.016203 16:0.470588 17:0.470588 18:0.375 
-128 1:0.311465 2:0.388436 3:0.368576 4:0.537454 5:0.689962 6:0.723586 7:0.677849 8:0.741132 9:0.646503 10:0.019308 11:0.020309 12:0.018209 13:0.043236 14:0.037423 15:0.037019 16:0.411765 17:0.411765 18:0.4375 
-128 1:0.723992 2:0.70662 3:0.575455 4:0.858578 5:0.89831 6:0.832206 7:0.640463 8:0.611814 9:0.566134 10:0.014287 11:0.010885 12:0.016531 13:0.022419 14:0.019826 15:0.021726 16:0.352941 17:0.529412 18:0.375 
-128 1:0.150833 2:0.251648 3:0.222341 4:0.718048 5:0.755392 6:0.694129 7:0.684424 8:0.707838 9:0.645222 10:0.051314 11:0.036463 12:0.043203 13:0.057626 14:0.048921 15:0.054129 16:0.117647 17:0.294118 18:0.1875 
-128 1:0.181223 2:0.196972 3:0.178225 4:0.585482 5:0.655364 6:0.598896 7:0.879206 8:0.877542 9:0.836258 10:0.198896 11:0.143562 12:0.145809 13:0.137768 14:0.108771 15:0.113607 16:0.058824 17:0.058824 18:0.0625 
-128 1:0.718344 2:0.553811 3:0.580099 4:0.660281 5:0.736672 6:0.671354 7:0.484887 8:0.593385 9:0.456007 10:0.0078 11:0.009715 12:0.008639 13:0.016218 14:0.017623 15:0.013987 16:0.411765 17:0.294118 18:0.4375 
-128 1:0.282283 2:0.361241 3:0.277773 4:0.766057 5:0.658932 6:0.686813 7:0.747314 8:0.720154 9:0.699227 10:0.075025 11:0.049953 12:0.05987 13:0.058578 14:0.046464 15:0.049738 16:0.058824 17:0.117647 18:0.0625 
-128 1:0.273003 2:0.405546 3:0.415758 4:0.689193 5:0.677543 6:0.659001 7:0.657942 8:0.723491 9:0.587673 10:0.063035 11:0.034794 12:0.024624 13:0.058039 14:0.03708 15:0.02844 16:0.058824 17:0.058824 18:0.125 
-128 1:0.259522 2:0.29886 3:0.354567 4:0.631702 5:0.636514 6:0.549432 7:0.725806 8:0.735647 9:0.730881 10:0.026443 11:0.03012 12:0.029376 13:0.044011 14:0.045163 15:0.045591 16:0.352941 17:0.352941 18:0.4375 
-128 1:0.427978 2:0.590557 3:0.601379 4:0.759666 5:0.825943 6:0.671136 7:0.735967 8:0.744411 9:0.595664 10:0.127192 11:0.045114 12:0.043788 13:0.084546 14:0.037436 15:0.03677 16:0.058824 17:0.058824 18:0.0625 
-101.6423627691806 1:0.712565 2:0.742585 3:0.713098 4:0.799129 5:0.762195 6:0.781265 7:0.440492 8:0.51273 9:0.38047 10:0.007024 11:0.008914 12:0.007757 13:0.010937 14:0.010715 15:0.010207 16:0.176471 17:0.176471 18:0.1875 
-128 1:0.450363 2:0.602484 3:0.356471 4:0.85359 5:0.841821 6:0.679543 7:0.754829 8:0.743319 9:0.73928 10:0.07886 11:0.043813 12:0.076732 13:0.061257 14:0.04092 15:0.066576 16:0.058824 17:0.058824 18:0.0625 
-128 1:0.571995 2:0.671093 3:0.65083 4:0.82028 5:0.864859 6:0.72474 7:0.533791 8:0.600791 9:0.544252 10:0.015473 11:0.01767 12:0.022387 13:0.024794 14:0.022716 15:0.029753 16:0.117647 17:0.176471 18:0.125 
-69.6021032849217 1:0.439624 2:0.349895 3:0.376991 4:0.3968 5:0.195233 6:0.111342 7:0.630963 8:0.822578 9:0.700458 10:0.059598 11:0.298561 12:0.223158 13:0.081393 14:0.314238 15:0.21437 16:0.058824 17:0.058824 18:0.0625 
-128 1:0.315262 2:0.279138 3:0.276007 4:0.619087 5:0.592907 6:0.494756 7:0.868858 8:0.806104 9:0.782842 10:0.268709 11:0.182615 12:0.205599 13:0.151409 14:0.100544 15:0.110575 16:0.058824 17:0.058824 18:0.0625 
-128 1:0.507747 2:0.630065 3:0.5869 4:0.731982 5:0.861314 6:0.781842 7:0.575435 8:0.626356 9:0.541492 10:0.025638 11:0.02223 12:0.020793 13:0.035683 14:0.030598 15:0.029804 16:0.117647 17:0.117647 18:0.125 
-128 1:0.713827 2:0.779599 3:0.700099 4:0.88466 5:0.972146 6:0.815377 7:0.463626 8:0.604476 9:0.480773 10:0.009624 11:0.013234 12:0.010581 13:0.012848 14:0.019927 15:0.013629 16:0.176471 17:0.294118 18:0.1875 
-128 1:0.861062 2:0.739091 3:0.703412 4:0.816169 5:0.70876 6:0.710835 7:0.510288 8:0.50875 9:0.513584 10:0.009759 11:0.012277 12:0.016983 13:0.019038 14:0.014099 15:0.020942 16:0.411765 17:0.235294 18:0.1875 
-54.94275996453186 1:0 2:0 3:0 4:0.158315 5:0.166983 6:0.165433 7:0.83618 8:0.85287 9:0.825065 10:0.760523 11:0.761159 12:0.730058 13:0.519075 14:0.519458 15:0.512142 16:0.058824 17:0.058824 18:0.0625 
-128 1:0.247636 2:0.209827 3:0.244719 4:0.60378 5:0.656261 6:0.595983 7:0.652587 8:0.736746 9:0.641374 10:0.060759 11:0.070758 12:0.088709 13:0.049228 14:0.059049 15:0.062745 16:0.058824 17:0.058824 18:0.0625 
-128 1:0.320627 2:0.278345 3:0.350733 4:0.760976 5:0.750564 6:0.71067 7:0.600688 8:0.68397 9:0.587673 10:0.027406 11:0.029322 12:0.024783 13:0.026438 14:0.028611 15:0.026343 16:0.470588 17:0.470588 18:0.5 
-128 1:0.302517 2:0.479169 3:0.439593 4:0.603099 5:0.624342 6:0.573813 7:0.702675 8:0.623945 9:0.578291 10:0.054397 11:0.034652 12:0.02778 13:0.04117 14:0.028225 15:0.028118 16:0.117647 17:0.117647 18:0.125 
-92.5847926278972 1:0.448119 2:0.649907 3:0.888635 4:0.909864 5:0.840947 6:0.954399 7:0.454417 8:0.52459 9:0.1766 10:0.007733 11:0.011465 12:0 13:0.011985 14:0.016229 15:0.004063 16:0.235294 17:0.235294 18:0.4375 
-128 1:0.453194 2:0.477096 3:0.491887 4:0.762559 5:0.751078 6:0.724672 7:0.492405 8:0.626356 9:0.559333 10:0.019927 11:0.022501 12:0.026451 13:0.021316 14:0.023332 15:0.023995 16:0.235294 17:0.235294 18:0.1875 
-128 1:0.323315 2:0.366577 3:0.325878 4:0.437681 5:0.157561 6:0.235478 7:0.886063 8:0.88436 9:0.852878 10:0.307111 11:0.41787 12:0.271765 13:0.280254 14:0.411286 15:0.268268 16:0.058824 17:0.058824 18:0.0625 
-128 1:0.313073 2:0.342766 3:0.347016 4:0.602848 5:0.592307 6:0.630693 7:0.681798 8:0.729031 9:0.625873 10:0.093784 11:0.097925 12:0.07801 13:0.075483 14:0.08883 15:0.07204 16:0.058824 17:0.058824 18:0.0625 
-128 1:0.449718 2:0.486555 3:0.533151 4:0.816443 5:0.800046 6:0.74782 7:0.621399 8:0.66546 9:0.560696 10:0.027712 11:0.024679 12:0.026447 13:0.030725 14:0.027031 15:0.026596 16:0.117647 17:0.176471 18:0.1875 
-128 1:0.475456 2:0.541246 3:0.546248 4:0.782545 5:0.769633 6:0.616081 7:0.480357 8:0.5259 9:0.472083 10:0.011401 11:0.012033 12:0.009205 13:0.017734 14:0.015263 15:0.015714 16:0.470588 17:0.470588 18:0.5 
-128 1:0.413154 2:0.529758 3:0.432715 4:0.703573 5:0.820087 6:0.796566 7:0.651245 8:0.620318 9:0.533179 10:0.052105 11:0.024936 12:0.015741 13:0.044455 14:0.029641 15:0.024005 16:0.058824 17:0.176471 18:0.3125 
-128 1:0.328181 2:0.475324 3:0.34317 4:0.722704 5:0.479751 6:0.703563 7:0.641816 8:0.72571 9:0.603609 10:0.05682 11:0.079979 12:0.047782 13:0.064705 14:0.088607 15:0.0594 16:0.058824 17:0.117647 18:0.0625 
-128 1:0.710041 2:0.699084 3:0.694088 4:0.757976 5:0.830212 6:0.782064 7:0.483379 8:0.537631 9:0.530397 10:0.004984 11:0.007481 12:0.008581 13:0.01478 14:0.016451 15:0.017944 16:0.529412 17:0.470588 18:0.5 
-28.26355907897391 1:0.577001 2:0.516833 3:0.517709 4:0.91315 5:0.872591 6:0.690034 7:0.401087 8:0.462701 9:0.533179 10:0.009647 11:0.013856 12:0.010114 13:0.014227 14:0.014898 15:0.017094 16:0.470588 17:0.470588 18:0.5 
-128 1:0.216699 2:0.256039 3:0.250124 4:0.621817 5:0.626149 6:0.503753 7:0.732165 8:0.726818 9:0.661774 10:0.128619 11:0.058245 12:0.099333 13:0.129718 14:0.058692 15:0.117862 16:0.058824 17:0.058824 18:0.0625 
-128 1:0.471011 2:0.457244 3:0.426861 4:0.774473 5:0.854714 6:0.810191 7:0.67389 8:0.644289 9:0.598318 10:0.045377 11:0.024556 12:0.029883 13:0.050879 14:0.029999 15:0.037703 16:0.117647 17:0.176471 18:0.125 
-128 1:0.380851 2:0.366776 3:0.394408 4:0.574961 5:0.594357 6:0.650652 7:0.711715 8:0.734547 9:0.660508 10:0.030452 11:0.031122 12:0.028618 13:0.042576 14:0.041932 15:0.042143 16:0.235294 17:0.235294 18:0.25 
-128 1:0.571496 2:0.636762 3:0.568781 4:0.703224 5:0.818695 6:0.732292 7:0.661946 8:0.66546 9:0.614131 10:0.046151 11:0.04805 12:0.052663 13:0.044407 14:0.037513 15:0.042634 16:0.058824 17:0.058824 18:0.0625 
-128 1:0.568429 2:0.557088 3:0.481573 4:0.7461 5:0.843634 6:0.725467 7:0.459029 8:0.559481 9:0.492274 10:0.007312 11:0.00859 12:0.006403 13:0.015776 14:0.015224 15:0.014131 16:0.529412 17:0.529412 18:0.5625 
-128 1:0.817909 2:0.68973 3:0.859208 4:0.913058 5:0.875128 6:0.911006 7:0.610391 8:0.613033 9:0.492274 10:0.015248 11:0.011143 12:0.013317 13:0.022878 14:0.016202 15:0.017809 16:0.176471 17:0.176471 18:0.25 
-71.14952362700458 1:0.620984 2:0.721492 3:0.670669 4:0.694623 5:0.783818 6:0.790506 7:0.405873 8:0.400354 9:0.336282 10:0.001985 11:0.000973 12:0.001506 13:0.009412 14:0.006255 15:0.008292 16:0.352941 17:0.352941 18:0.375 
-128 1:0.323639 2:0.370804 3:0.338778 4:0.778584 5:0.7866 6:0.753668 7:0.707848 8:0.726818 9:0.709045 10:0.043095 11:0.035392 12:0.04992 13:0.053426 14:0.044045 15:0.05778 16:0.117647 17:0.117647 18:0.125 
-128 1:0.437298 2:0.486227 3:0.52713 4:0.703176 5:0.644431 6:0.610357 7:0.586714 8:0.615466 9:0.548382 10:0.032532 11:0.027267 12:0.032138 13:0.030078 14:0.021724 15:0.025891 16:0.117647 17:0.176471 18:0.125 
-128 1:0.870278 2:0.53848 3:0.75557 4:0.959102 5:0.703291 6:0.82772 7:0.475814 8:0.559481 9:0.482216 10:0.003221 11:0.007588 12:0.003522 13:0.014601 14:0.015457 15:0.015535 16:0.529412 17:0.529412 18:0.5625 
-128 1:0.496891 2:0.545074 3:0.548548 4:0.736563 5:0.805313 6:0.717819 7:0.610391 8:0.687409 9:0.564777 10:0.025585 11:0.034 12:0.02043 13:0.031479 14:0.029519 15:0.024292 16:0.117647 17:0.117647 18:0.1875 
-128 1:0.310727 2:0.259138 3:0.331709 4:0.740523 5:0.697025 6:0.677473 7:0.661946 8:0.717924 9:0.674372 10:0.053491 11:0.080452 12:0.081693 13:0.044215 14:0.050469 15:0.059461 16:0.058824 17:0.058824 18:0.0625 
-128 1:0.560509 2:0.606135 3:0.579676 4:0.867646 5:0.869792 6:0.815165 7:0.566917 8:0.678216 9:0.620667 10:0.010701 11:0.018133 12:0.017788 13:0.025563 14:0.027808 15:0.029349 16:0.470588 17:0.470588 18:0.5 
-128 1:0.325755 2:0.325499 3:0.402918 4:0.632077 5:0.74663 6:0.679154 7:0.716855 8:0.746592 9:0.624573 10:0.035363 11:0.023669 12:0.01372 13:0.056012 14:0.053003 15:0.037731 16:0.235294 17:0.235294 18:0.3125 
-128 1:0.494136 2:0.381302 3:0.476488 4:0.852177 5:0.83222 6:0.811724 7:0.635042 8:0.679369 9:0.587673 10:0.020182 11:0.024279 12:0.016038 13:0.0368 14:0.034758 15:0.031071 16:0.176471 17:0.176471 18:0.1875 
-128 1:0.591628 2:0.667297 3:0.749423 4:0.885326 5:0.70798 6:0.856752 7:0.54973 8:0.57215 9:0.542873 10:0.015113 11:0.013067 12:0.025347 13:0.018403 14:0.018057 15:0.025556 16:0.235294 17:0.235294 18:0.1875 
-128 1:0.64977 2:0.602879 3:0.555634 4:0.811062 5:0.721512 6:0.738685 7:0.529414 8:0.590906 9:0.492274 10:0.008999 11:0.010504 12:0.011341 13:0.021418 14:0.021028 15:0.021275 16:0.294118 17:0.294118 18:0.3125 
-128 1:0.134649 2:0.245858 3:0.187965 4:0.527373 5:0.220248 6:0.284514 7:0.784502 8:0.708963 9:0.696762 10:0.217139 11:0.199407 12:0.221266 13:0.138792 14:0.112675 15:0.131475 16:0.058824 17:0.058824 18:0.0625 
-128 1:0.148691 2:0.155112 3:0.13984 4:0.482634 5:0.431854 6:0.413494 7:0.814773 8:0.77246 9:0.75119 10:0.132888 11:0.109479 12:0.158612 13:0.082931 14:0.068804 15:0.094545 16:0.058824 17:0.058824 18:0.0625 
-128 1:0.562601 2:0.454563 3:0.559289 4:0.64038 5:0.812929 6:0.705073 7:0.401087 8:0.553096 9:0.426289 10:0.010835 11:0.014275 12:0.013925 13:0.010054 14:0.017113 15:0.014235 16:0.529412 17:0.411765 18:0.5 
-128 1:0.581047 2:0.586791 3:0.486245 4:0.899992 5:0.73141 6:0.828817 7:0.558349 8:0.57718 9:0.544252 10:0.009101 11:0.011199 12:0.011442 13:0.025073 14:0.01635 15:0.027772 16:0.352941 17:0.411765 18:0.3125 
-128 1:0.397274 2:0.366875 3:0.318506 4:0.815194 5:0.797005 6:0.800594 7:0.637755 8:0.71569 9:0.656703 10:0.025565 11:0.02839 12:0.035392 13:0.036385 14:0.036581 15:0.037516 16:0.411765 17:0.411765 18:0.4375 
-128 1:0.424285 2:0.394415 3:0.532575 4:0.793589 5:0.798483 6:0.708218 7:0.728353 8:0.703329 9:0.678129 10:0.074134 11:0.061197 12:0.068058 13:0.051833 14:0.04103 15:0.04803 16:0.058824 17:0.058824 18:0.0625 
-24.18583834697932 1:0.407642 2:0.484917 3:0.432312 4:0.74776 5:0.821214 6:0.78928 7:0.536702 8:0.598327 9:0.506517 10:0.026846 11:0.013194 12:0.015979 13:0.028513 14:0.018632 15:0.026842 16:0.176471 17:0.352941 18:0.25 
-128 1:0.361131 2:0.431615 3:0.383757 4:0.717381 5:0.763529 6:0.747211 7:0.680483 8:0.68397 9:0.638803 10:0.032309 11:0.030094 12:0.025193 13:0.043134 14:0.039568 15:0.033605 16:0.176471 17:0.176471 18:0.1875 
-128 1:0.59551 2:0.807378 3:0.609929 4:0.740872 5:0.955299 6:0.859731 7:0.59232 8:0.650208 9:0.56749 10:0.015554 11:0.008993 12:0.00936 13:0.029947 14:0.027334 15:0.024168 16:0.411765 17:0.588235 18:0.5625 
-128 1:0.076962 2:0.120653 3:0.095096 4:0.518024 5:0.541495 6:0.434792 7:0.700082 8:0.72571 9:0.676878 10:0.154189 11:0.106993 12:0.145491 13:0.092885 14:0.0619 15:0.082331 16:0.058824 17:0.058824 18:0.0625 
-128 1:0.558921 2:0.741271 3:0.725502 4:0.730818 5:0.839313 6:0.724012 7:0.469733 8:0.541516 9:0.277298 10:0.013894 11:0.009527 12:0.007455 13:0.014134 14:0.009276 15:0.007131 16:0.117647 17:0.176471 18:0.1875 
-128 1:0.338616 2:0.460856 3:0.68188 4:0.880338 5:0.827472 6:0.894901 7:0.483379 8:0.535034 9:0.463338 10:0.015942 11:0.015774 12:0.026328 13:0.017564 14:0.015748 15:0.020473 16:0.235294 17:0.294118 18:0.1875 
-71.59992411673939 1:0.203331 2:0.201102 3:0.133825 4:0.363907 5:0.475274 6:0.396224 7:0.73976 8:0.598327 9:0.647782 10:0.186373 11:0.065757 12:0.097029 13:0.111617 14:0.054454 15:0.082976 16:0 17:0.058824 18:0.0625 
-128 1:0.665516 2:0.695521 3:0.621999 4:0.744668 5:0.864661 6:0.788274 7:0.462095 8:0.58219 9:0.42779 10:0.00811 11:0.006719 12:0.007233 13:0.01491 14:0.01382 15:0.013033 16:0.470588 17:0.529412 18:0.5625 
-128 1:0.317682 2:0.339314 3:0.378138 4:0.642597 5:0.684978 6:0.676897 7:0.694882 8:0.730137 9:0.652887 10:0.05503 11:0.035278 12:0.032119 13:0.06486 14:0.045854 15:0.045022 16:0.117647 17:0.235294 18:0.1875 
-128 1:0.235183 2:0.212962 3:0.184121 4:0.521574 5:0.534048 6:0.463519 7:0.937576 8:0.84587 9:0.886601 10:0.202601 11:0.169831 12:0.213318 13:0.170453 14:0.140439 15:0.171306 16:0.058824 17:0.058824 18:0.0625 
-128 1:0.311212 2:0.335523 3:0.3487 4:0.766384 5:0.831552 6:0.764969 7:0.622769 8:0.660788 9:0.616749 10:0.02012 11:0.016037 12:0.016238 13:0.037569 14:0.029573 15:0.033711 16:0.411765 17:0.529412 18:0.4375 
-128 1:0.523612 2:0.475959 3:0.406511 4:0.810665 5:0.783687 6:0.661952 7:0.599297 8:0.679369 9:0.701688 10:0.030729 11:0.033959 12:0.057835 13:0.031178 14:0.033515 15:0.050281 16:0.117647 17:0.058824 18:0.0625 
