svm_type c_svc
kernel_type rbf
gamma 0.0625
nr_class 2
total_sv 196
rho 1.13016
label 1 0
probA -0.430997
probB -0.0414449
nr_sv 97 99
SV
4 1:0.731866 2:0.707805 3:0.617035 4:0.863933 5:0.873862 6:0.783339 7:1.8e-05 8:5.4e-05 9:0.000108 10:0.545455 11:0.454545 12:0.2 
4 1:0.519104 2:0.676104 3:0.512644 4:0.73415 5:0.69912 6:0.713475 7:8.9e-05 8:0.000103 9:0.000164 10:0.636364 11:0.636364 12:0.2 
4 1:0.216187 2:0.30224 3:0.226127 4:0.687282 5:0.724989 6:0.632912 7:0.00427 8:0.003061 9:0.004435 10:0.090909 11:0.090909 12:0.05 
4 1:0.979822 2:0.495093 3:0.620765 4:0.773246 5:0.805925 6:0.83441 7:0.000428 8:0.000465 9:0.000574 10:0.545455 11:0.181818 12:0.1 
4 1:0.204934 2:0.276091 3:0.264207 4:0.570907 5:0.455952 6:0.501146 7:0.001213 8:0.000915 9:0.001265 10:0.090909 11:0.181818 12:0.05 
4 1:0.171364 2:0.255916 3:0.193956 4:0.48812 5:0.525305 6:0.510172 7:0.002478 8:0.00256 9:0.002619 10:0.272727 11:0.272727 12:0.15 
4 1:0.493368 2:0.565941 3:0.481901 4:0.754934 5:0.753841 6:0.740904 7:0.0003 8:0.000146 9:0.000145 10:0.272727 11:0.454545 12:0.25 
4 1:0.324187 2:0.400249 3:0.312591 4:0.680667 5:0.665677 6:0.532819 7:0.001192 8:0.000618 9:0.000941 10:0.181818 11:0.363636 12:0.15 
4 1:0.271234 2:0.461708 3:0.350618 4:0.607626 5:0.728597 6:0.576841 7:0.002768 8:0.001777 9:0.002136 10:0.090909 11:0.090909 12:0.05 
4 1:0.575436 2:0.628597 3:0.45984 4:0.572047 5:0.72149 6:0.654068 7:0.000373 8:0.000376 9:0.000384 10:0.636364 11:0.636364 12:0.35 
4 1:0.444215 2:0.624487 3:0.409337 4:0.664839 5:0.789846 6:0.750758 7:0.000997 8:0.000414 9:0.000666 10:0.090909 11:0.181818 12:0.1 
4 1:0.552229 2:0.548225 3:0.53712 4:0.714993 5:0.562157 6:0.626139 7:0.000907 8:0.000405 9:0.00043 10:0.545455 11:0.636364 12:0.35 
4 1:0.52349 2:0.667192 3:0.419062 4:0.656143 5:0.717915 6:0.701267 7:0.000393 8:0.000344 9:0.000356 10:0.363636 11:0.545455 12:0.2 
4 1:0.753778 2:0.838832 3:0.70832 4:0.919949 5:0.906557 6:0.80043 7:0.000102 8:9.3e-05 9:0.000116 10:0.818182 11:0.818182 12:0.45 
4 1:0.469616 2:0.510694 3:0.386033 4:0.792555 5:0.774744 6:0.707665 7:0.001583 8:0.000954 9:0.001407 10:0.090909 11:0.090909 12:0.05 
4 1:0.218251 2:0.806433 3:0.640276 4:0.34959 5:0.874984 6:0.804703 7:0.001519 8:0.000138 9:0.00024 10:0.181818 11:0.727273 12:0.25 
4 1:0.563051 2:0.736209 3:0.618105 4:0.895667 5:0.887536 6:0.819678 7:0.000479 8:0.000297 9:0.000351 10:0.181818 11:0.272727 12:0.15 
4 1:0.411465 2:0.410676 3:0.362174 4:0.667924 5:0.677224 6:0.665413 7:0.000696 8:0.000967 9:0.001033 10:0.272727 11:0.090909 12:0.05 
4 1:0.586018 2:0.603789 3:0.47857 4:0.848368 5:0.822938 6:0.80131 7:0.00034 8:0.000403 9:0.000384 10:0.454545 11:0.363636 12:0.2 
4 1:0.361934 2:0.489004 3:0.395403 4:0.296131 5:0.280367 6:0.25178 7:0.005859 8:0.00484 9:0.003686 10:0.090909 11:0.181818 12:0.1 
4 1:0.584046 2:0.600398 3:0.533991 4:0.750588 5:0.786746 6:0.687359 7:0.000293 8:0.000266 9:0.000261 10:0.363636 11:0.454545 12:0.2 
4 1:0.55699 2:0.673203 3:0.419214 4:0.748686 5:0.817688 6:0.717039 7:0.000224 8:0.00027 9:0.000381 10:0.727273 11:0.636364 12:0.3 
4 1:0.594216 2:0.833159 3:0.706007 4:0.821396 5:0.760535 6:0.821681 7:0.000398 8:0.000384 9:0.000569 10:0.727273 11:0.636364 12:0.3 
4 1:0.557756 2:0.683387 3:0.636949 4:0.856983 5:0.844502 6:0.866153 7:0.00063 8:0.00044 9:0.000556 10:0.181818 11:0.272727 12:0.15 
4 1:0.324136 2:0.451246 3:0.315113 4:0.787274 5:0.90845 6:0.763411 7:0.000661 8:0.000667 9:0.000644 10:0.727273 11:0.727273 12:0.4 
4 1:0.447825 2:0.450122 3:0.337014 4:0.72803 5:0.729651 6:0.621488 7:0.00066 8:0.000915 9:0.000977 10:0.090909 11:0.090909 12:0.05 
4 1:0.307893 2:0.296865 3:0.273702 4:0.711414 5:0.770032 6:0.685862 7:0.00151 8:0.001566 9:0.001533 10:0.545455 11:0.545455 12:0.3 
4 1:0.169478 2:0.24242 3:0.219387 4:0.383141 5:0.409212 6:0.396577 7:0.002015 8:0.002039 9:0.002032 10:0.272727 11:0.272727 12:0.15 
4 1:0.519446 2:0.551804 3:0.550576 4:0.682946 5:0.724978 6:0.752863 7:0.000492 8:0.000567 9:0.000453 10:0.454545 11:0.454545 12:0.3 
4 1:0.522834 2:0.583075 3:0.596466 4:0.65027 5:0.792272 6:0.723598 7:0.000121 8:0.000133 9:0.000162 10:0.727273 11:0.727273 12:0.4 
4 1:0.446162 2:0.583935 3:0.468387 4:0.653877 5:0.692792 6:0.687207 7:0.000473 8:0.00049 9:0.000603 10:0.272727 11:0.272727 12:0.15 
4 1:0.442852 2:0.561728 3:0.597761 4:0.575651 5:0.608347 6:0.677828 7:0.00014 8:0.000197 9:0.000256 10:0.454545 11:0.454545 12:0.2 
4 1:0.499803 2:0.594199 3:0.530686 4:0.746645 5:0.78575 6:0.738661 7:0.000322 8:0.000331 9:0.000327 10:0.636364 11:0.727273 12:0.4 
4 1:0.729746 2:0.70107 3:0.586926 4:0.803033 5:0.961682 6:0.689876 7:0.000108 8:8.2e-05 9:0.000131 10:0.727273 11:0.818182 12:0.4 
4 1:0.247636 2:0.323714 3:0.230743 4:0.600695 5:0.627689 6:0.592379 7:0.00158 8:0.00156 9:0.001768 10:0.454545 11:0.454545 12:0.25 
4 1:0.46398 2:0.597004 3:0.424084 4:0.605132 5:0.696637 6:0.665045 7:0.000507 8:0.000562 9:0.000574 10:0.545455 11:0.636364 12:0.4 
4 1:0.573019 2:0.657688 3:0.598228 4:0.8043 5:0.712595 6:0.812257 7:9.6e-05 8:0.000125 9:0.000114 10:0.818182 11:0.727273 12:0.45 
4 1:0.351956 2:0.548427 3:0.464569 4:0.790419 5:0.796366 6:0.788245 7:0.000604 8:0.000159 9:0.000181 10:0.272727 11:0.545455 12:0.3 
4 1:0.538239 2:0.548967 3:0.391231 4:0.724166 5:0.743794 6:0.713952 7:0.000865 8:0.000956 9:0.00096 10:0.636364 11:0.636364 12:0.35 
4 1:0.131674 2:0.180205 3:0.161489 4:0.19373 5:0.203814 6:0.191675 7:1 8:1 9:1 10:0.090909 11:0.090909 12:0.05 
4 1:0.229684 2:0.27875 3:0.323235 4:0.698336 5:0.68017 6:0.640309 7:0.001247 8:0.001308 9:0.001334 10:0.545455 11:0.545455 12:0.3 
4 1:0.23699 2:0.360896 3:0.289845 4:0.66792 5:0.688431 6:0.636055 7:0.009461 8:0.00939 9:0.00969 10:0.454545 11:0.454545 12:0.25 
4 1:0.614392 2:0.618404 3:0.589365 4:0.937054 5:0.923079 6:0.762654 7:0.000109 8:8.7e-05 9:0.000116 10:0.636364 11:0.818182 12:0.4 
4 1:0.36078 2:0.526799 3:0.465865 4:0.683058 5:0.737612 6:0.649385 7:0.000492 8:0.000283 9:0.000242 10:0.090909 11:0.181818 12:0.15 
4 1:0.328852 2:0.418732 3:0.308209 4:0.726225 5:0.767944 6:0.699033 7:0.001863 8:0.001403 9:0.001506 10:0.090909 11:0.181818 12:0.05 
4 1:0.274415 2:0.344363 3:0.302229 4:0.576422 5:0.601086 6:0.546986 7:0.001858 8:0.00201 9:0.002084 10:0.272727 11:0.181818 12:0.1 
4 1:0.27522 2:0.324245 3:0.247855 4:0.493395 5:0.516352 6:0.455633 7:0.003581 8:0.003035 9:0.003487 10:0.090909 11:0.090909 12:0.05 
4 1:0.306987 2:0.245979 3:0.215085 4:0.66395 5:0.589164 6:0.561922 7:0.001091 8:0.000919 9:0.000785 10:0.363636 11:0.545455 12:0.3 
4 1:0.263436 2:0.30181 3:0.278596 4:0.724791 5:0.798746 6:0.729233 7:0.000506 8:0.000541 9:0.000537 10:0.454545 11:0.454545 12:0.25 
4 1:0.316068 2:0.389021 3:0.311699 4:0.674805 5:0.602079 6:0.644888 7:0.000675 8:0.000484 9:0.000381 10:0.272727 11:0.363636 12:0.2 
3.147203253354581 1:0.580991 2:0.636323 3:0.514994 4:0.338569 5:0.315732 6:0.28222 7:0.005134 8:0.004753 9:0.005021 10:0.636364 11:0.636364 12:0.35 
4 1:0.142151 2:0.237751 3:0.238761 4:0.481676 5:0.529599 6:0.495894 7:0.000758 8:0.0006 9:0.000719 10:0.090909 11:0.090909 12:0.05 
4 1:0.26547 2:0.38224 3:0.346737 4:0.676756 5:0.728068 6:0.669669 7:0.001278 8:0.001088 9:0.001089 10:0.090909 11:0.090909 12:0.05 
4 1:0.104647 2:0.137481 3:0.151063 4:0.577082 5:0.606067 6:0.57854 7:0.009558 8:0.00955 9:0.009627 10:0.545455 11:0.545455 12:0.3 
4 1:0.55899 2:0.688545 3:0.582359 4:0.852806 5:0.913876 6:0.814463 7:0.000507 8:0.000478 9:0.000504 10:0.272727 11:0.272727 12:0.15 
4 1:0.709982 2:0.758404 3:0.655901 4:0.852835 5:0.861585 6:0.732412 7:3e-05 8:4.2e-05 9:5.9e-05 10:0.363636 11:0.363636 12:0.2 
4 1:0.214318 2:0.297958 3:0.245866 4:0.563221 5:0.638055 6:0.592073 7:0.002027 8:0.001628 9:0.001715 10:0.090909 11:0.090909 12:0.05 
4 1:0.767735 2:0.791476 3:0.7673 4:0.95865 5:0.917093 6:0.837141 7:0.000163 8:0.000174 9:0.000175 10:0.545455 11:0.272727 12:0.15 
4 1:0.433299 2:0.532379 3:0.466814 4:0.631 5:0.853055 6:0.777506 7:0.000234 8:0.000129 9:0.000156 10:0.545455 11:0.727273 12:0.4 
4 1:0.33 2:0.356989 3:0.313897 4:0.565792 5:0.786088 6:0.6251 7:0.000454 8:0.000344 9:0.000548 10:0.454545 11:0.545455 12:0.25 
4 1:0.110112 2:0.256084 3:0.161986 4:0.644858 5:0.701829 6:0.582753 7:0.00108 8:0.000744 9:0.000997 10:0.090909 11:0.090909 12:0.05 
4 1:0.342163 2:0.402931 3:0.388495 4:0.704002 5:0.718243 6:0.74844 7:0.000218 8:0.000156 9:0.000216 10:0.181818 11:0.272727 12:0.15 
4 1:0.312078 2:0.367269 3:0.315731 4:0.546047 5:0.548432 6:0.448424 7:0.000575 8:0.000556 9:0.000484 10:0.454545 11:0.454545 12:0.25 
4 1:0.323211 2:0.365088 3:0.352196 4:0.547062 5:0.637876 6:0.577447 7:0.001444 8:0.001431 9:0.00169 10:0.272727 11:0.272727 12:0.15 
4 1:0.327812 2:0.417636 3:0.348732 4:0.561828 5:0.611529 6:0.571402 7:0.00103 8:0.000926 9:0.000985 10:0.090909 11:0.090909 12:0.05 
4 1:0.139393 2:0.19725 3:0.186327 4:0.397839 5:0.428389 6:0.424202 7:0.004631 8:0.004235 9:0.004099 10:0.454545 11:0.454545 12:0.25 
4 1:0.173846 2:0.387311 3:0.295834 4:0.537832 5:0.570461 6:0.554871 7:0.000808 8:0.000513 9:0.000535 10:0.363636 11:0.636364 12:0.35 
4 1:0.398202 2:0.287187 3:0.265198 4:0.796309 5:0.736121 6:0.638797 7:0.000475 8:0.000496 9:0.000504 10:0.636364 11:0.545455 12:0.3 
4 1:0.682971 2:0.760492 3:0.63412 4:0.93303 5:0.844132 6:0.574036 7:0.000336 8:0.000122 9:9.8e-05 10:0.363636 11:0.727273 12:0.4 
4 1:0.21343 2:0.320036 3:0.196762 4:0.688493 5:0.720796 6:0.704963 7:0.002374 8:0.002229 9:0.002603 10:0.090909 11:0.090909 12:0.05 
2.904023005448206 1:0.671513 2:0.619286 3:0.787203 4:0.693661 5:0.707016 6:0.684532 7:4.2e-05 8:5.6e-05 9:6.7e-05 10:0.818182 11:0.818182 12:0.45 
4 1:0.576331 2:0.666396 3:0.553712 4:0.793268 5:0.863931 6:0.763796 7:0.000246 8:0.000177 9:0.000239 10:0.454545 11:0.545455 12:0.3 
4 1:0.310461 2:0.421655 3:0.299633 4:0.679467 5:0.762478 6:0.593544 7:0.001876 8:0.001298 9:0.002623 10:0.181818 11:0.181818 12:0.1 
4 1:0.151264 2:0.200214 3:0.143178 4:0.366034 5:0.49026 6:0.293317 7:0.001954 8:0.001463 9:0.002243 10:0.090909 11:0.090909 12:0.05 
4 1:0.6214 2:0.714664 3:0.607708 4:0.585237 5:0.595611 6:0.572069 7:0.002338 8:0.002513 9:0.002491 10:0.545455 11:0.636364 12:0.3 
4 1:0.551032 2:0.617553 3:0.59905 4:0.770311 5:0.840135 6:0.80075 7:0.000965 8:0.000951 9:0.000892 10:0.090909 11:0.090909 12:0.05 
4 1:0.638713 2:0.907171 3:0.758271 4:0.66315 5:0.759107 6:0.912298 7:0.00041 8:0.000122 9:0.000139 10:0.090909 11:0.363636 12:0.2 
4 1:0.58223 2:0.688384 3:0.53701 4:0.737119 5:0.711409 6:0.783917 7:0.000685 8:0.000652 9:0.000789 10:0.272727 11:0.272727 12:0.1 
4 1:0.311076 2:0.39145 3:0.302747 4:0.622148 5:0.6989 6:0.622077 7:0.000357 8:0.000282 9:0.000396 10:0.181818 11:0.181818 12:0.1 
4 1:0.215692 2:0.305287 3:0.202141 4:0.473001 5:0.557195 6:0.384587 7:0.002496 8:0.002 9:0.002308 10:0.090909 11:0.090909 12:0.05 
4 1:0.243294 2:0.355365 3:0.266856 4:0.540273 5:0.634701 6:0.522598 7:0.004223 8:0.002696 9:0.003568 10:0.090909 11:0.090909 12:0.05 
4 1:0.466439 2:0.593142 3:0.432952 4:0.773164 5:0.706156 6:0.639715 7:0.000794 8:0.000767 9:0.001093 10:0.181818 11:0.090909 12:0.05 
4 1:0.618943 2:0.788404 3:0.651458 4:0.838406 5:0.855498 6:0.825982 7:0.000133 8:9e-05 9:0.000108 10:0.272727 11:0.545455 12:0.3 
4 1:0.414801 2:0.300367 3:0.456985 4:0.778815 5:0.604699 6:0.816256 7:0.000992 8:0.001126 9:0.000395 10:0.090909 11:0.090909 12:0.1 
4 1:0.610889 2:0.777843 3:0.530879 4:0.827789 5:0.765705 6:0.798227 7:0.000193 8:0.000147 9:0.000226 10:0.181818 11:0.272727 12:0.1 
4 1:0.733913 2:0.653768 3:0.514629 4:0.820286 5:0.863012 6:0.742928 7:3e-05 8:0.00022 9:3.2e-05 10:0.909091 11:0.363636 12:0.6 
4 1:0.591421 2:0.750709 3:0.826558 4:0.874695 5:0.919121 6:0.955148 7:0.000157 8:8e-05 9:3.1e-05 10:0.272727 11:0.363636 12:0.35 
4 1:0.537492 2:0.567942 3:0.515915 4:0.65445 5:0.826922 6:0.811013 7:0.000252 8:0.000257 9:0.000207 10:0.272727 11:0.181818 12:0.15 
4 1:0.126461 2:0.112454 3:0.234962 4:0.635318 5:0.614114 6:0.531302 7:0.003414 8:0.002819 9:0.003847 10:0.090909 11:0.090909 12:0.05 
4 1:0.538973 2:0.520196 3:0.61209 4:0.829574 5:0.812733 6:0.703885 7:0.000198 8:0.00022 9:0.00025 10:0.545455 11:0.545455 12:0.35 
4 1:0.654789 2:0.563522 3:0.435131 4:0.732264 5:0.860913 6:0.82214 7:0.000148 8:0.000185 9:0.000258 10:0.454545 11:0.363636 12:0.3 
4 1:0.286978 2:0.374543 3:0.199581 4:0.687862 5:0.609221 6:0.615517 7:0.000257 8:0.000326 9:0.000309 10:0.272727 11:0.181818 12:0.1 
4 1:0.42665 2:0.584872 3:0.433059 4:0.623923 5:0.709579 6:0.740664 7:0.000151 8:0.000196 9:0.000423 10:0.454545 11:0.363636 12:0.1 
4 1:0.716983 2:0.916935 3:0.839194 4:0.892969 5:0.964402 6:0.941913 7:0.000205 8:0.000109 9:0.000141 10:0.545455 11:0.727273 12:0.35 
4 1:0.79378 2:0.838666 3:0.702564 4:0.856154 5:0.908782 6:0.759558 7:8.6e-05 8:8.7e-05 9:9.8e-05 10:0.363636 11:0.454545 12:0.25 
4 1:0.284559 2:0.40925 3:0.431196 4:0.321447 5:0.308903 6:0.329327 7:0.001165 8:0.001009 9:0.001004 10:0.090909 11:0.090909 12:0.05 
4 1:0.380405 2:0.469646 3:0.372297 4:0.727415 5:0.783491 6:0.746199 7:0.000293 8:0.000263 9:0.000327 10:0.454545 11:0.545455 12:0.25 
-4 1:0.10068 2:0.243053 3:0.240484 4:0.427628 5:0.483102 6:0.468643 7:0.002489 8:0.001933 9:0.001773 10:0.090909 11:0.090909 12:0.05 
-4 1:0.147258 2:0.214936 3:0.185864 4:0.522193 5:0.551742 6:0.519018 7:0.007094 8:0.00715 9:0.0072 10:0.727273 11:0.727273 12:0.4 
-4 1:0.356825 2:0.418732 3:0.299161 4:0.667677 5:0.695688 6:0.634579 7:0.001742 8:0.00172 9:0.001941 10:0.090909 11:0.090909 12:0.05 
-4 1:0.115782 2:0.177557 3:0.17447 4:0.428861 5:0.467128 6:0.417384 7:0.007999 8:0.006346 9:0.006697 10:0.090909 11:0.090909 12:0.05 
-4 1:0.908395 2:0.79077 3:0.812299 4:1 5:0.874223 6:0.882145 7:0.000141 8:0.000174 9:0.000191 10:0.909091 11:0.909091 12:0.5 
-4 1:0.658264 2:0.785548 3:0.617503 4:0.882369 5:0.951364 6:0.830387 7:9e-05 8:8.9e-05 9:0.000114 10:0.181818 11:0.272727 12:0.1 
-4 1:0.479551 2:0.671355 3:0.466524 4:0.767825 5:0.808237 6:0.737611 7:0.000338 8:0.000253 9:0.00032 10:0.090909 11:0.272727 12:0.1 
-4 1:0.37096 2:0.364151 3:0.207791 4:0.745945 5:0.793206 6:0.664019 7:0.00068 8:0.000705 9:0.000627 10:0.454545 11:0.454545 12:0.25 
-4 1:0.531874 2:0.706324 3:0.661574 4:0.701815 5:0.840755 6:0.745665 7:0.000216 8:0.000208 9:0.000119 10:0.272727 11:0.272727 12:0.25 
-4 1:0.427483 2:0.443993 3:0.343077 4:0.685908 5:0.697288 6:0.547695 7:0.001113 8:0.000548 9:0.000847 10:0.181818 11:0.363636 12:0.1 
-4 1:0.562285 2:0.676413 3:0.520397 4:0.89143 5:0.920233 6:0.666172 7:5.1e-05 8:7.8e-05 9:0.000171 10:0.636364 11:0.545455 12:0.15 
-4 1:0.399596 2:0.49488 3:0.421606 4:0.764758 5:0.797805 6:0.793731 7:0.000262 8:0.000178 9:0.00027 10:0.181818 11:0.272727 12:0.1 
-4 1:0.578586 2:0.618089 3:0.564718 4:0.653319 5:0.765604 6:0.773183 7:0.00025 8:0.000274 9:0.000292 10:0.727273 11:0.727273 12:0.4 
-4 1:0.506148 2:0.500915 3:0.462297 4:0.732418 5:0.749198 6:0.68908 7:0.000162 8:9.7e-05 9:8.4e-05 10:0.363636 11:0.363636 12:0.2 
-4 1:0.761175 2:0.925177 3:0.677987 4:0.897008 5:0.900494 6:0.875291 7:0.000133 8:0.000176 9:0.000155 10:0.818182 11:0.909091 12:0.45 
-4 1:0.145314 2:0.20993 3:0.202243 4:0.709707 5:0.679345 6:0.620093 7:0.000457 8:0.000495 9:0.000501 10:0.454545 11:0.545455 12:0.3 
-4 1:0.116637 2:0.215308 3:0.177789 4:0.643771 5:0.714682 6:0.647584 7:0.002293 8:0.001495 9:0.001828 10:0.181818 11:0.181818 12:0.1 
-4 1:0.65177 2:0.626476 3:0.575053 4:0.760262 5:0.772595 6:0.772821 7:6.3e-05 8:0.000113 9:9.1e-05 10:0.727273 11:0.545455 12:0.35 
-4 1:0.445167 2:0.381535 3:0.432663 4:0.603321 5:0.5689 6:0.602537 7:0.000262 8:0.000325 9:0.00031 10:0.181818 11:0.181818 12:0.1 
-4 1:0.333015 2:0.370498 3:0.370116 4:0.761957 5:0.817382 6:0.796026 7:0.000347 8:0.000468 9:0.000553 10:0.454545 11:0.363636 12:0.2 
-4 1:0.413442 2:0.558056 3:0.362211 4:0.775251 5:0.76569 6:0.664504 7:0.000632 8:0.000597 9:0.00067 10:0.181818 11:0.090909 12:0.05 
-4 1:0.41371 2:0.431325 3:0.41837 4:0.762871 5:0.75812 6:0.674583 7:0.00022 8:0.000239 9:0.000257 10:0.636364 11:0.636364 12:0.35 
-4 1:0.189433 2:0.23967 3:0.204552 4:0.451729 5:0.592099 6:0.506162 7:0.005532 8:0.003361 9:0.003658 10:0.090909 11:0.090909 12:0.05 
-4 1:0.757137 2:0.758328 3:0.693883 4:0.898388 5:0.89492 6:0.847533 7:7.3e-05 8:8.7e-05 9:0.000111 10:0.454545 11:0.454545 12:0.25 
-4 1:0.149335 2:0.174367 3:0.12695 4:0.515208 5:0.619995 6:0.501144 7:0.003678 8:0.002348 9:0.00341 10:0.090909 11:0.090909 12:0.05 
-4 1:0.450234 2:0.478382 3:0.340575 4:0.846363 5:0.876737 6:0.749895 7:0.000255 8:0.000251 9:0.000399 10:0.181818 11:0.272727 12:0.15 
-4 1:0.563875 2:0.646253 3:0.714233 4:0.689199 5:0.676328 6:0.877529 7:4.7e-05 8:6.6e-05 9:8e-05 10:0.454545 11:0.454545 12:0.3 
-4 1:0 2:0.019187 3:0.043405 4:0 5:0 6:0 7:0.046337 8:0.046632 9:0.046193 10:0.090909 11:0.090909 12:0.05 
-4 1:0.299506 2:0.403905 3:0.322978 4:0.421935 5:0.559866 6:0.409478 7:0.000627 8:0.000524 9:0.000549 10:0.090909 11:0.090909 12:0.05 
-4 1:0.360523 2:0.530121 3:0.457611 4:0.683523 5:0.710544 6:0.729129 7:0.000554 8:0.000401 9:0.00041 10:0.181818 11:0.181818 12:0.15 
-4 1:0.736167 2:0.666141 3:0.56841 4:0.851886 5:0.896907 6:0.797087 7:0.000178 8:0.000288 9:0.000322 10:0.272727 11:0.272727 12:0.1 
-4 1:0.599517 2:0.868934 3:0.736697 4:0.744508 5:0.965135 6:0.812376 7:9.6e-05 8:4.3e-05 9:4.4e-05 10:0.363636 11:0.545455 12:0.2 
-4 1:0.446828 2:0.365045 3:0.289758 4:0.480036 5:0.313408 6:0.403993 7:0.000676 8:0.000753 9:0.000972 10:0.090909 11:0.090909 12:0.05 
-4 1:0.384057 2:0.38497 3:0.323706 4:0.743052 5:0.817834 6:0.732598 7:0.000362 8:0.000382 9:0.000449 10:0.181818 11:0.090909 12:0.05 
-4 1:0.872396 2:0.316426 3:0.406893 4:0.777087 5:0.604706 6:0.587356 7:9e-06 8:0.001568 9:0.00103 10:0.818182 11:0.090909 12:0.05 
-4 1:0.155981 2:0.199199 3:0.143187 4:0.051998 5:0.021773 6:0.033442 7:0.004855 8:0.004748 9:0.004837 10:0.090909 11:0.090909 12:0.05 
-4 1:0.551555 2:0.688036 3:0.629485 4:0.878316 5:0.917883 6:0.794329 7:0.000128 8:0.000108 9:0.000176 10:0.181818 11:0.272727 12:0.1 
-4 1:0.369811 2:0.599861 3:0.48722 4:0.543444 5:0.748508 6:0.722936 7:0.000311 8:0.000121 9:6e-05 10:0.090909 11:0.090909 12:0.1 
-4 1:0.287748 2:0.375597 3:0.286163 4:0.755912 5:0.797181 6:0.697517 7:0.000238 8:0.000265 9:0.000261 10:0.727273 11:0.727273 12:0.4 
-4 1:0.442393 2:0.422309 3:0.353483 4:0.688958 5:0.770801 6:0.731139 7:0.000373 8:0.000306 9:0.000389 10:0.181818 11:0.181818 12:0.1 
-4 1:0.667101 2:0.685628 3:0.539667 4:0.694389 5:0.869932 6:0.722983 7:0.000125 8:0.000152 9:0.000215 10:0.272727 11:0.181818 12:0.1 
-4 1:0.553701 2:0.594606 3:0.475732 4:0.810826 5:0.876858 6:0.790342 7:0.00017 8:0.000179 9:0.000192 10:0.272727 11:0.272727 12:0.15 
-4 1:0.715241 2:0.765137 3:0.660363 4:0.767022 5:0.860989 6:0.860977 7:0 8:1.5e-05 9:9.1e-05 10:0.636364 11:0.636364 12:0.25 
-4 1:0.550629 2:0.5454 3:0.503588 4:0.64903 5:0.833308 6:0.739702 7:0.00025 8:0.000143 9:0.000145 10:0.181818 11:0.181818 12:0.1 
-4 1:0.276417 2:0.331296 3:0.310152 4:0.558507 5:0.483358 6:0.517547 7:0.00099 8:0.001077 9:0.000928 10:0.090909 11:0.090909 12:0.05 
-4 1:0.11687 2:0.209115 3:0.142193 4:0.495652 5:0.574914 6:0.446467 7:0.001079 8:0.000662 9:0.000886 10:0.090909 11:0.090909 12:0.05 
-4 1:0.189537 2:0.306239 3:0.261694 4:0.590973 5:0.671221 6:0.600961 7:0.002103 8:0.001488 9:0.00171 10:0.090909 11:0.090909 12:0.05 
-4 1:0.470627 2:0.559019 3:0.537208 4:0.760131 5:0.883769 6:0.776008 7:0.000498 8:0.000492 9:0.000444 10:0.818182 11:0.818182 12:0.45 
-4 1:0.484711 2:0.522241 3:0.457011 4:0.837092 5:0.786972 6:0.71353 7:0.000247 8:0.000199 9:0.000123 10:0.272727 11:0.454545 12:0.35 
-1.309713010557203 1:0.340609 2:0.27134 3:0.309478 4:0.470683 5:0.20909 6:0.594251 7:0.002246 8:0.003514 9:0.002234 10:0.090909 11:0.090909 12:0 
-4 1:0.707386 2:0.920439 3:0.670771 4:0.972364 5:0.999158 6:0.756568 7:4e-06 8:9e-06 9:7.1e-05 10:0.363636 11:0.545455 12:0.15 
-4 1:0.43542 2:0.513813 3:0.38949 4:0.745478 5:0.833526 6:0.773131 7:0.000215 8:0.000155 9:0.000251 10:0.181818 11:0.272727 12:0.1 
-4 1:0.321644 2:0.389455 3:0.289143 4:0.686717 5:0.719181 6:0.669581 7:0.000525 8:0.000535 9:0.00054 10:0.090909 11:0.181818 12:0.05 
-4 1:0.593969 2:0.584223 3:0.50036 4:0.898353 5:0.953506 6:0.920105 7:7.1e-05 8:9e-05 9:0.0001 10:0.454545 11:0.545455 12:0.35 
-4 1:0.448419 2:0.541423 3:0.595117 4:0.789775 5:0.852896 6:0.880382 7:0.000145 8:9.9e-05 9:0.000108 10:0.545455 11:0.727273 12:0.4 
-4 1:0.685009 2:0.655177 3:0.651477 4:0.892812 5:0.936487 6:0.830739 7:1e-06 8:0 9:0 10:0.363636 11:0.636364 12:0.4 
-4 1:0.149638 2:0.193416 3:0.15872 4:0.031956 5:0.168782 6:0.302731 7:0.008439 8:0.003531 9:0.007732 10:0.181818 11:0.090909 12:0.05 
-4 1:0.734333 2:0.801517 3:0.62476 4:0.845289 5:0.847411 6:0.886483 7:8.8e-05 8:0.000126 9:0.000183 10:0.454545 11:0.363636 12:0.15 
-4 1:0.390387 2:0.324134 3:0.347473 4:0.725257 5:0.738758 6:0.735207 7:0.000366 8:0.000367 9:0.000367 10:0.636364 11:0.636364 12:0.35 
-4 1:0.539241 2:0.674332 3:0.532196 4:0.840247 5:0.892644 6:0.805004 7:0.000182 8:0.000227 9:0.000309 10:0.454545 11:0.545455 12:0.25 
-4 1:0.411819 2:0.443303 3:0.262014 4:0.722816 5:0.203511 6:0.524218 7:0.000358 8:0.001701 9:0.0019 10:0.272727 11:0.090909 12:0.05 
-4 1:0.623635 2:0.599629 3:0.473679 4:0.862667 5:0.88367 6:0.817676 7:0.000211 8:0.000242 9:0.000253 10:0.909091 11:0.909091 12:0.5 
-4 1:0.719219 2:0.608159 3:0.731866 4:0.842702 5:0.876472 6:0.899668 7:0.000102 8:0.000139 9:0.000174 10:0.545455 11:0.545455 12:0.3 
-4 1:0.655851 2:0.69726 3:0.694937 4:0.74947 5:0.93681 6:0.798983 7:4e-05 8:5.3e-05 9:6.7e-05 10:0.636364 11:0.818182 12:0.45 
-4 1:0.35426 2:0.464503 3:0.399787 4:0.771414 5:0.859264 6:0.776108 7:0.000395 8:0.000299 9:0.000418 10:0.454545 11:0.636364 12:0.25 
-4 1:0.218467 2:0.290196 3:0.242107 4:0.636101 5:0.613989 6:0.563614 7:0.001001 8:0.001061 9:0.001243 10:0.181818 11:0.090909 12:0.05 
-4 1:0.680799 2:0.705884 3:0.605822 4:0.765868 5:0.719284 6:0.774767 7:0.000154 8:0.000122 9:0.000175 10:0.363636 11:0.454545 12:0.2 
-4 1:0.825808 2:0.673295 3:0.874384 4:0.837649 5:0.694397 6:0.914697 7:4e-05 8:6.3e-05 9:6.6e-05 10:0.727273 11:0.727273 12:0.4 
-4 1:0.414597 2:0.567194 3:0.504063 4:0.674262 5:0.796893 6:0.791534 7:9e-05 8:9.9e-05 9:0.000121 10:0.272727 11:0.272727 12:0.15 
-4 1:0.361755 2:0.469003 3:0.407107 4:0.63589 5:0.676017 6:0.632754 7:0.000676 8:0.000527 9:0.000673 10:0.090909 11:0.181818 12:0.1 
-1.248581370683675 1:0.377834 2:0.471466 3:0.331094 4:0.703664 5:0.763348 6:0.614646 7:0.000463 8:0.000913 9:0.000645 10:0.090909 11:0.090909 12:0.05 
-4 1:0.446032 2:0.552966 3:0.475038 4:0.660915 5:0.60805 6:0.636676 7:0.001498 8:0.001362 9:0.001365 10:0.181818 11:0.181818 12:0.1 
-4 1:0.259308 2:0.301102 3:0.296795 4:0.639618 5:0.650676 6:0.597523 7:0.001155 8:0.001408 9:0.001892 10:0.090909 11:0.090909 12:0.05 
-4 1:0.822642 2:0.910921 3:0.856383 4:0.732098 5:0.726371 6:0.634195 7:3.5e-05 8:3.7e-05 9:2.4e-05 10:0.272727 11:0.272727 12:0.2 
-4 1:0.484721 2:0.506155 3:0.50685 4:0.705516 5:0.687809 6:0.80659 7:0.000411 8:0.000227 9:0.000212 10:0.363636 11:0.454545 12:0.3 
-4 1:0.757925 2:0.607657 3:0.759193 4:0.831765 5:0.81895 6:0.741415 7:1.8e-05 8:7.8e-05 9:5.6e-05 10:0.636364 11:0.545455 12:0.35 
-4 1:0.474923 2:0.80357 3:0.972667 4:0.599983 5:0.79404 6:0.960181 7:0.000279 8:0.000189 9:6.7e-05 10:0.181818 11:0.272727 12:0.45 
-4 1:0.57747 2:0.744568 3:0.529124 4:0.747193 5:0.767405 6:0.709118 7:0.000111 8:0.000111 9:0.000113 10:0.545455 11:0.636364 12:0.3 
-4 1:0.330534 2:0.440983 3:0.393266 4:0.47588 5:0.2721 6:0.36362 7:0.002708 8:0.002033 9:0.001196 10:0 11:0.090909 12:0.05 
-4 1:0.197784 2:0.242258 3:0.176038 4:0.129447 5:0.245576 6:0.134734 7:0.003187 8:0.001317 9:0.001891 10:0.090909 11:0.090909 12:0.05 
-4 1:0.089425 2:0.079541 3:0.058973 4:0.378976 5:0.292951 6:0.302297 7:0.0026 8:0.00221 9:0.002828 10:0.090909 11:0.090909 12:0.05 
-4 1:0.406355 2:0.512514 3:0.371964 4:0.753128 5:0.719418 6:0.678288 7:8.5e-05 8:0.000151 9:0.000162 10:0.727273 11:0.545455 12:0.25 
-4 1:0.632516 2:0.611954 3:0.519917 4:0.745245 5:0.771346 6:0.782933 7:8e-05 8:0.000136 9:0.000189 10:0.363636 11:0.272727 12:0.15 
-4 1:0.513279 2:0.456672 3:0.437581 4:0.764904 5:0.74547 6:0.659315 7:0.000236 8:0.000279 9:0.000259 10:0.454545 11:0.818182 12:0.3 
-4 1:0.413802 2:0.442597 3:0.333281 4:0.724219 5:0.720872 6:0.72609 7:0.00069 8:0.000577 9:0.000749 10:0.363636 11:0.363636 12:0.2 
-4 1:0.361019 2:0.469259 3:0.382516 4:0.58025 5:0.605833 6:0.626662 7:0.000233 8:0.000141 9:0.000163 10:0.272727 11:0.363636 12:0.15 
-4 1:0.472021 2:0.499666 3:0.365992 4:0.692788 5:0.816595 6:0.745018 7:0.000387 8:0.000334 9:0.000333 10:0.363636 11:0.454545 12:0.2 
-4 1:0.377647 2:0.522599 3:0.444146 4:0.671212 5:0.762058 6:0.697314 7:0.000637 8:0.000599 9:0.000663 10:0.272727 11:0.272727 12:0.15 
-4 1:0.402205 2:0.731375 3:0.48527 4:0.796576 5:0.789966 6:0.738785 7:0.000405 8:0.000351 9:0.000391 10:0.272727 11:0.454545 12:0.2 
-4 1:0.090933 2:0.178545 3:0.136652 4:0.552123 5:0.619904 6:0.507319 7:0.001846 8:0.00131 9:0.001506 10:0.090909 11:0.090909 12:0.05 
-4 1:0.371971 2:0.530982 3:0.369809 4:0.637977 5:0.556991 6:0.539812 7:0.000343 8:0.000156 9:0.000284 10:0.090909 11:0.181818 12:0.05 
-4 1:0.425215 2:0.494854 3:0.44978 4:0.85209 5:0.90816 6:0.839544 7:0.000278 8:0.000279 9:0.000311 10:0.181818 11:0.181818 12:0.05 
-4 1:0.427169 2:0.545051 3:0.44802 4:0.682989 5:0.718775 6:0.639578 7:0.000144 8:0.000153 9:0.000352 10:0.181818 11:0.181818 12:0.1 
-4 1:0.410439 2:0.588368 3:0.49449 4:0.815209 5:0.764364 6:0.794781 7:0.000237 8:0.000187 9:0.000178 10:0.090909 11:0.181818 12:0.1 
-4 1:0.550244 2:0.609503 3:0.563127 4:0.740975 5:0.685856 6:0.620291 7:0.000145 8:0.000181 9:0.000194 10:0.272727 11:0.272727 12:0.15 
-1.058619354197973 1:0.294591 2:0.288564 3:0.275141 4:0.643853 5:0.713561 6:0.708038 7:0.001295 8:0.00074 9:0.00072 10:0.090909 11:0.090909 12:0.05 
-2.434312523363936 1:0.006126 2:0 3:0 4:0.445302 5:0.372409 6:0.407194 7:0.015189 8:0.015035 9:0.015216 10:0 11:0 12:0 
-4 1:0.287505 2:0.394674 3:0.341326 4:0.758169 5:0.794928 6:0.755315 7:0.000534 8:0.000537 9:0.000499 10:0.818182 11:0.818182 12:0.45 
-4 1:0.529435 2:0.675759 3:0.46081 4:0.892436 5:0.890719 6:0.859043 7:0.000286 8:0.000139 9:0.000335 10:0.181818 11:0.272727 12:0.1 
